{"type":"LSTM","options":{"inputSize":9,"inputRange":9,"hiddenLayers":[20,20],"outputSize":9,"decayRate":0.999,"smoothEps":1e-8,"regc":0.000001,"clipval":5,"maxPredictionLength":100,"dataFormatter":{"indexTable":{" ":0,"h":1,"e":2,"l":3,"o":4,"i":5,"stop-input":6,"start-output":7,"unrecognized":8},"characterTable":{"0":" ","1":"h","2":"e","3":"l","4":"o","5":"i","6":null,"7":null,"8":null},"values":[" hello","hi"],"characters":[" ","h","e","l","o","i","stop-input","start-output","unrecognized"],"specialIndexes":[6,7,8]}},"input":{"rows":10,"columns":9,"weights":{"0":0.6739678978919983,"1":-0.49295446276664734,"2":2.489935874938965,"3":-1.622322916984558,"4":-1.0064871311187744,"5":-3.742253065109253,"6":1.2163649797439575,"7":-0.15020601451396942,"8":-2.4003751277923584,"9":1.6653802394866943,"10":2.6921579837799072,"11":1.6866710186004639,"12":-4.148033142089844,"13":-1.1918034553527832,"14":-0.1071539893746376,"15":-1.4012932777404785,"16":-1.6926052570343018,"17":-3.07539439201355,"18":-1.2632907629013062,"19":0.7399781942367554,"20":1.6559330224990845,"21":-1.0324352979660034,"22":-1.8453388214111328,"23":-1.6660500764846802,"24":-0.11377986520528793,"25":-1.345342755317688,"26":-2.4291210174560547,"27":1.600443959236145,"28":-0.100112684071064,"29":-2.4621307849884033,"30":0.02287345752120018,"31":0.9990228414535522,"32":0.6429738402366638,"33":1.846117615699768,"34":-0.12169483304023743,"35":0.2159041166305542,"36":0.30473649501800537,"37":-1.3427104949951172,"38":-2.2378406524658203,"39":0.19132567942142487,"40":0.7155274748802185,"41":0.9257328510284424,"42":1.2184125185012817,"43":0.2486945539712906,"44":-0.6271883249282837,"45":2.456743001937866,"46":-2.236936330795288,"47":1.0770740509033203,"48":1.155536413192749,"49":0.2153661549091339,"50":-0.8903868198394775,"51":0.9614373445510864,"52":1.0885907411575317,"53":1.6262568235397339,"54":-3.3907198905944824,"55":-0.07090087234973907,"56":2.222203254699707,"57":0.6737964749336243,"58":-1.6287261247634888,"59":0.1430642306804657,"60":-1.5574285984039307,"61":0.5139354467391968,"62":0.6866171956062317,"63":0.8788767457008362,"64":-2.720710277557373,"65":0.22879627346992493,"66":0.09797608107328415,"67":-1.2961792945861816,"68":-2.1904919147491455,"69":-1.2673273086547852,"70":1.5248370170593262,"71":1.1196742057800293,"72":5.68525505065918,"73":0.2068796455860138,"74":-1.6168904304504395,"75":-0.10171648859977722,"76":1.6981574296951294,"77":0.9484656453132629,"78":1.2887934446334839,"79":-0.14463967084884644,"80":1.046911597251892,"81":-4.054798603057861,"82":-2.288071870803833,"83":1.4503616094589233,"84":1.5369690656661987,"85":-3.6711084842681885,"86":-1.7606967687606812,"87":-0.9539380073547363,"88":-0.13253475725650787,"89":1.167568325996399}},"hiddenLayers":[{"inputMatrix":{"rows":20,"columns":9,"weights":{"0":1.2583367824554443,"1":2.2274746894836426,"2":-0.7440076470375061,"3":-2.007693290710449,"4":1.7076038122177124,"5":-0.9563437700271606,"6":0.5814265608787537,"7":-2.2487547397613525,"8":-3.196033000946045,"9":-1.115149736404419,"10":0.1906135082244873,"11":1.5746403932571411,"12":-0.882390022277832,"13":-2.649390935897827,"14":-1.394302248954773,"15":-3.2382631301879883,"16":0.5032525658607483,"17":-1.1659643650054932,"18":1.6414145231246948,"19":-1.154000163078308,"20":-0.6324256658554077,"21":-2.7802469730377197,"22":-0.2880444824695587,"23":-1.1191506385803223,"24":-0.06046956777572632,"25":-0.5227677822113037,"26":-0.977569043636322,"27":0.4313640594482422,"28":0.8458968997001648,"29":-4.697638988494873,"30":-0.19859901070594788,"31":2.4235448837280273,"32":3.638958215713501,"33":3.4537789821624756,"34":-0.9899948835372925,"35":-1.6509838104248047,"36":0.7558982372283936,"37":2.2358663082122803,"38":-0.2072441726922989,"39":-2.2292091846466064,"40":1.8248738050460815,"41":1.9240193367004395,"42":2.4758496284484863,"43":-2.140655755996704,"44":-2.138017177581787,"45":-1.0734115839004517,"46":0.002427212428301573,"47":1.266169786453247,"48":-1.4438785314559937,"49":-1.3028827905654907,"50":-1.151793360710144,"51":0.1996755599975586,"52":-1.8960444927215576,"53":-0.9139870405197144,"54":0.7707593441009521,"55":0.45805689692497253,"56":-1.5634022951126099,"57":-2.323345184326172,"58":2.416472911834717,"59":3.28460693359375,"60":2.702342987060547,"61":0.3060672879219055,"62":-3.239436626434326,"63":2.564612627029419,"64":-0.6860552430152893,"65":-1.4771829843521118,"66":-0.762045681476593,"67":0.8626090288162231,"68":-0.5409140586853027,"69":2.4226012229919434,"70":1.0540742874145508,"71":-0.506923496723175,"72":-0.07399052381515503,"73":-1.7627191543579102,"74":0.45648953318595886,"75":0.2686524987220764,"76":-0.1275675892829895,"77":-0.4740612208843231,"78":0.8065118193626404,"79":3.1430134773254395,"80":-0.6034959554672241,"81":-1.8185290098190308,"82":1.4643031358718872,"83":1.125864863395691,"84":-0.7378501892089844,"85":-1.59880793094635,"86":-2.0082664489746094,"87":-1.2102097272872925,"88":-2.8900816440582275,"89":-1.0416653156280518,"90":1.8764820098876953,"91":-0.6280633807182312,"92":0.7843965291976929,"93":-0.22373710572719574,"94":0.9733015894889832,"95":-1.0929481983184814,"96":0.5200153589248657,"97":-0.6659353971481323,"98":-0.6683187484741211,"99":1.5419985055923462,"100":0.8219377994537354,"101":-3.3778209686279297,"102":0.9753164052963257,"103":0.6337210536003113,"104":1.4397752285003662,"105":2.613391399383545,"106":0.002109386259689927,"107":-0.0015541570028290153,"108":-3.088240146636963,"109":-4.166515827178955,"110":-1.2198865413665771,"111":2.6960768699645996,"112":0.632028341293335,"113":0.16117247939109802,"114":-0.6303747892379761,"115":2.9057679176330566,"116":3.7924652099609375,"117":-0.23879176378250122,"118":-1.2122211456298828,"119":-0.024563394486904144,"120":2.349311351776123,"121":1.2218941450119019,"122":-0.20539695024490356,"123":1.8057359457015991,"124":-0.8267005681991577,"125":1.5070056915283203,"126":3.5458760261535645,"127":-0.3217603266239166,"128":0.3725873827934265,"129":-1.3287652730941772,"130":-0.21363839507102966,"131":-1.4295940399169922,"132":-0.06098528206348419,"133":-1.1969391107559204,"134":-1.3255573511123657,"135":-3.6695756912231445,"136":0.12344078719615936,"137":-0.4286600351333618,"138":-0.6196908950805664,"139":0.10814584791660309,"140":0.00795107614248991,"141":-0.5649360418319702,"142":0.4647045433521271,"143":0.30852073431015015,"144":0.24967069923877716,"145":1.7378202676773071,"146":-2.852370023727417,"147":0.07990039885044098,"148":2.8899483680725098,"149":2.0870232582092285,"150":2.7754220962524414,"151":-1.222898006439209,"152":-0.5882808566093445,"153":1.0488544702529907,"154":1.2565860748291016,"155":-1.0737855434417725,"156":-3.836815595626831,"157":0.5808921456336975,"158":2.2761640548706055,"159":1.2093720436096191,"160":-0.9617664813995361,"161":-0.2608800530433655,"162":2.5598256587982178,"163":-3.270615339279175,"164":-1.7116233110427856,"165":-0.545185923576355,"166":1.9902268648147583,"167":1.688378930091858,"168":0.8339293599128723,"169":2.407263994216919,"170":1.1480916738510132,"171":0.21866336464881897,"172":0.7442721128463745,"173":2.890359878540039,"174":0.06007090583443642,"175":-3.1145215034484863,"176":-3.4151387214660645,"177":-1.9822614192962646,"178":-0.6800427436828613,"179":0.6839953660964966}},"inputHidden":{"rows":20,"columns":20,"weights":{"0":2.4040873050689697,"1":-0.5636090040206909,"2":2.3150124549865723,"3":-0.5930684208869934,"4":1.9005118608474731,"5":-3.276245594024658,"6":-0.16023333370685577,"7":-0.23233069479465485,"8":2.116713762283325,"9":-0.0822492316365242,"10":-0.7501670122146606,"11":-1.2065539360046387,"12":-1.198181390762329,"13":-0.5733357667922974,"14":0.7580122947692871,"15":0.238623708486557,"16":-0.5118681788444519,"17":1.4539542198181152,"18":-0.24828532338142395,"19":1.8835595846176147,"20":-2.43477463722229,"21":-1.0217640399932861,"22":0.2587108910083771,"23":1.6711139678955078,"24":-2.8231539726257324,"25":0.5906744003295898,"26":-1.3957030773162842,"27":-2.908508539199829,"28":-0.6239307522773743,"29":1.0772634744644165,"30":3.0344812870025635,"31":-0.6341024041175842,"32":2.103306293487549,"33":-0.6475845575332642,"34":-0.39985284209251404,"35":-0.4555203318595886,"36":1.2661283016204834,"37":-1.0768568515777588,"38":1.50123131275177,"39":-2.837662935256958,"40":3.7096381187438965,"41":0.41927045583724976,"42":0.4313236176967621,"43":0.14527714252471924,"44":6.139769077301025,"45":1.8834047317504883,"46":1.0169951915740967,"47":-0.33257192373275757,"48":1.9448539018630981,"49":-2.579655885696411,"50":-1.3804428577423096,"51":-1.6610394716262817,"52":1.2481391429901123,"53":0.7987279295921326,"54":-2.8418478965759277,"55":-2.955803632736206,"56":-0.41650497913360596,"57":2.007324457168579,"58":1.6602532863616943,"59":0.653550386428833,"60":-0.0682537853717804,"61":-0.4690016508102417,"62":-0.22944429516792297,"63":-1.3155839443206787,"64":0.9793832898139954,"65":-0.6007047891616821,"66":-0.458441823720932,"67":-1.2281187772750854,"68":-0.6371424794197083,"69":1.0720765590667725,"70":-0.55311518907547,"71":-0.12710295617580414,"72":1.06062650680542,"73":1.1634644269943237,"74":-1.9588299989700317,"75":1.4559344053268433,"76":-0.23876352608203888,"77":-0.5303495526313782,"78":-1.8126184940338135,"79":0.6398535966873169,"80":1.2755522727966309,"81":1.6710950136184692,"82":-2.5906753540039062,"83":-1.6437071561813354,"84":-2.8491945266723633,"85":1.579344391822815,"86":1.328168272972107,"87":-0.7958533763885498,"88":2.8887557983398438,"89":-1.4285856485366821,"90":-0.5426461100578308,"91":2.036668062210083,"92":-0.2652261257171631,"93":-0.36719077825546265,"94":-0.1295924335718155,"95":2.6203603744506836,"96":0.36535894870758057,"97":1.8597172498703003,"98":-1.0482407808303833,"99":1.3982372283935547,"100":-1.5547667741775513,"101":4.311666488647461,"102":-0.2401951253414154,"103":0.7129404544830322,"104":0.32899338006973267,"105":0.25776204466819763,"106":-1.0455900430679321,"107":-2.4555349349975586,"108":2.951892137527466,"109":-1.0310144424438477,"110":0.8161596059799194,"111":3.7577953338623047,"112":3.40653133392334,"113":-0.6146498918533325,"114":-1.9875420331954956,"115":-1.915300726890564,"116":-1.1485166549682617,"117":0.5106638669967651,"118":2.3791213035583496,"119":1.7193588018417358,"120":-0.07324197888374329,"121":-3.304743528366089,"122":-2.2321770191192627,"123":0.6197206377983093,"124":0.25592178106307983,"125":-1.4241178035736084,"126":-3.420729398727417,"127":-2.431317090988159,"128":-0.3859376609325409,"129":-0.3902589678764343,"130":0.41866111755371094,"131":-1.1870847940444946,"132":-3.07816481590271,"133":-0.38397863507270813,"134":0.7011917233467102,"135":-0.000482355389976874,"136":-0.6754053831100464,"137":0.6226362586021423,"138":-1.163944125175476,"139":-1.334281325340271,"140":-0.23823092877864838,"141":-2.1732137203216553,"142":0.9107258915901184,"143":-1.8474600315093994,"144":0.5156887769699097,"145":-0.9010520577430725,"146":-1.0607243776321411,"147":1.8253852128982544,"148":-2.2349724769592285,"149":2.3209962844848633,"150":0.3296046853065491,"151":1.0153738260269165,"152":0.804685115814209,"153":2.7802772521972656,"154":1.111994743347168,"155":2.45514178276062,"156":0.2962524890899658,"157":-1.6130735874176025,"158":2.0296969413757324,"159":-1.9818540811538696,"160":-0.1414225846529007,"161":-1.5064274072647095,"162":4.797745704650879,"163":0.6097140312194824,"164":-4.692061901092529,"165":-2.4858076572418213,"166":2.8287270069122314,"167":2.6947131156921387,"168":-1.3073877096176147,"169":-1.318589687347412,"170":1.452166199684143,"171":-2.3699557781219482,"172":2.0594894886016846,"173":3.647487163543701,"174":5.565526962280273,"175":-1.8031132221221924,"176":3.6648712158203125,"177":-2.0628273487091064,"178":3.0182013511657715,"179":1.8061116933822632,"180":-0.9229976534843445,"181":0.44551703333854675,"182":-0.5516359210014343,"183":3.0095951557159424,"184":0.4644778370857239,"185":-0.3496967852115631,"186":1.2734477519989014,"187":-0.16691648960113525,"188":0.4856419563293457,"189":0.3495054543018341,"190":1.011152744293213,"191":0.26602232456207275,"192":1.3416670560836792,"193":2.479344606399536,"194":0.6131221055984497,"195":1.8951704502105713,"196":0.47337430715560913,"197":-0.6463084816932678,"198":-0.178783118724823,"199":-0.8984193205833435,"200":0.1851244568824768,"201":-1.2624964714050293,"202":-2.848912000656128,"203":0.8659170866012573,"204":1.621533989906311,"205":3.546003580093384,"206":0.24500569701194763,"207":-4.988571643829346,"208":-0.4670025706291199,"209":-2.322289228439331,"210":0.28583356738090515,"211":1.3264963626861572,"212":-2.0903337001800537,"213":-1.070848822593689,"214":-1.1448427438735962,"215":1.7277967929840088,"216":-1.6024693250656128,"217":-0.5979625582695007,"218":2.125375270843506,"219":-0.18312227725982666,"220":0.5190111994743347,"221":-0.09886270761489868,"222":2.1396985054016113,"223":-1.2661341428756714,"224":0.6574398875236511,"225":1.4716302156448364,"226":0.7619109153747559,"227":1.297385811805725,"228":0.22396649420261383,"229":-0.0359942764043808,"230":-0.006925585679709911,"231":-0.7161116600036621,"232":0.12133006006479263,"233":0.40047210454940796,"234":-1.8802019357681274,"235":0.9581708312034607,"236":-0.3251749277114868,"237":0.753559947013855,"238":1.1387633085250854,"239":-0.592113733291626,"240":-0.9531253576278687,"241":0.253915399312973,"242":1.4553698301315308,"243":-0.8999724984169006,"244":-0.5813228487968445,"245":1.046081781387329,"246":-1.0663530826568604,"247":-1.5384238958358765,"248":-2.077584743499756,"249":1.4152700901031494,"250":1.2114447355270386,"251":1.1486213207244873,"252":-1.0824724435806274,"253":-0.6233894228935242,"254":0.36955660581588745,"255":-0.12258642166852951,"256":1.2535954713821411,"257":-3.0712907314300537,"258":0.08216895163059235,"259":-2.467283248901367,"260":1.165412425994873,"261":1.0961402654647827,"262":2.569342613220215,"263":-1.3403732776641846,"264":0.857695460319519,"265":-0.757703959941864,"266":-1.9881925582885742,"267":-1.7368519306182861,"268":-0.4999411404132843,"269":-0.6783742308616638,"270":0.5086290836334229,"271":-0.9381353855133057,"272":3.2518601417541504,"273":-1.357774019241333,"274":-1.4498049020767212,"275":1.5096571445465088,"276":1.9706135988235474,"277":-2.058349609375,"278":-1.8168067932128906,"279":-1.1688997745513916,"280":-2.060892343521118,"281":3.6896817684173584,"282":1.2108341455459595,"283":0.4780503511428833,"284":1.4837188720703125,"285":2.0719947814941406,"286":-4.465568542480469,"287":-1.6325348615646362,"288":-1.2326689958572388,"289":-3.1097123622894287,"290":2.7304248809814453,"291":-0.35613739490509033,"292":3.5828139781951904,"293":1.708583950996399,"294":-3.3991477489471436,"295":-2.146871566772461,"296":-0.6346575021743774,"297":-0.7278936505317688,"298":-1.3567636013031006,"299":-0.45808833837509155,"300":0.23332282900810242,"301":0.5872489809989929,"302":-1.2914385795593262,"303":0.5072876214981079,"304":-1.4280837774276733,"305":-2.1782946586608887,"306":-1.0854010581970215,"307":-1.1816036701202393,"308":4.337536811828613,"309":-1.178951621055603,"310":-2.0611677169799805,"311":-2.126518487930298,"312":3.0716583728790283,"313":2.1685709953308105,"314":2.1814639568328857,"315":-0.2597943842411041,"316":-0.9583094120025635,"317":0.5675923824310303,"318":0.9343917369842529,"319":0.38063520193099976,"320":2.743452787399292,"321":-0.0009038929711095989,"322":-0.785315215587616,"323":-1.2243589162826538,"324":-0.6736794114112854,"325":-0.37815624475479126,"326":0.2947295308113098,"327":-0.4732525050640106,"328":0.6021722555160522,"329":-0.7570812106132507,"330":-1.1256718635559082,"331":1.4694221019744873,"332":1.3212816715240479,"333":-0.4188081622123718,"334":-0.7305387258529663,"335":1.3664072751998901,"336":0.7032389640808105,"337":-1.3101043701171875,"338":-2.1595897674560547,"339":1.466166615486145,"340":3.1503875255584717,"341":1.82999849319458,"342":-0.4148082733154297,"343":-0.9040334224700928,"344":1.6998322010040283,"345":1.1002589464187622,"346":0.12933102250099182,"347":-0.3497491478919983,"348":5.1117753982543945,"349":-2.260160446166992,"350":-1.990594744682312,"351":0.14452235400676727,"352":1.265055537223816,"353":-0.9247686266899109,"354":0.7395707964897156,"355":-1.3226364850997925,"356":-0.36091774702072144,"357":2.1093597412109375,"358":0.7890783548355103,"359":1.5660666227340698,"360":0.5360437035560608,"361":0.5051152110099792,"362":-0.43667635321617126,"363":-0.32872235774993896,"364":0.6199954748153687,"365":0.10630577802658081,"366":-0.9963541626930237,"367":-1.2123304605484009,"368":1.4498471021652222,"369":-0.5614405274391174,"370":1.4266290664672852,"371":0.16740593314170837,"372":2.1163575649261475,"373":-0.5226224660873413,"374":-1.3427443504333496,"375":-1.6846359968185425,"376":-0.1848510056734085,"377":-0.2827954888343811,"378":1.0762146711349487,"379":1.025918960571289,"380":1.0283877849578857,"381":0.5545843839645386,"382":0.5424371361732483,"383":-1.8168970346450806,"384":0.11354604363441467,"385":3.0018796920776367,"386":0.19935843348503113,"387":-2.601247549057007,"388":0.06608117371797562,"389":-1.562301516532898,"390":0.09001228958368301,"391":-0.7610870003700256,"392":0.6507547497749329,"393":-1.1306943893432617,"394":-0.9371181130409241,"395":-1.8240705728530884,"396":0.009474380873143673,"397":0.31276530027389526,"398":1.3002322912216187,"399":0.39696988463401794}},"inputBias":{"rows":20,"columns":1,"weights":{"0":1.1127188205718994,"1":0.44587668776512146,"2":1.1835427284240723,"3":0.7100738286972046,"4":1.0387181043624878,"5":-0.2776441276073456,"6":-0.45646435022354126,"7":2.43518328666687,"8":0.514885663986206,"9":1.3404773473739624,"10":-0.3556399345397949,"11":-0.22190408408641815,"12":-1.1893984079360962,"13":2.040565252304077,"14":2.0694024562835693,"15":-2.318903684616089,"16":1.2220449447631836,"17":1.2177740335464478,"18":-0.5394940376281738,"19":-0.025964071974158287}},"forgetMatrix":{"rows":20,"columns":9,"weights":{"0":-2.0061564445495605,"1":1.6248931884765625,"2":0.7863785624504089,"3":-1.023343563079834,"4":-1.9887943267822266,"5":-1.890516757965088,"6":-1.5478841066360474,"7":-1.3500256538391113,"8":-1.2189319133758545,"9":1.6869045495986938,"10":-1.1902520656585693,"11":-1.2104625701904297,"12":1.7257450819015503,"13":1.5030426979064941,"14":0.9458295106887817,"15":1.876508355140686,"16":2.9136617183685303,"17":1.1976107358932495,"18":-1.0266121625900269,"19":-1.2362849712371826,"20":0.8182936906814575,"21":0.21675685048103333,"22":-2.854641914367676,"23":-0.6667528748512268,"24":-0.8600056767463684,"25":0.5733621120452881,"26":-0.45252254605293274,"27":1.9060741662979126,"28":-1.3734357357025146,"29":-1.3804283142089844,"30":1.5644513368606567,"31":1.57463800907135,"32":1.3014355897903442,"33":1.2670422792434692,"34":1.695094108581543,"35":0.546389639377594,"36":-0.04379802197217941,"37":-2.2371060848236084,"38":-1.5223158597946167,"39":0.9125898480415344,"40":-0.44974055886268616,"41":-2.4050681591033936,"42":1.0613418817520142,"43":-1.729040503501892,"44":1.1572449207305908,"45":0.11959323287010193,"46":0.03631206229329109,"47":0.01072818785905838,"48":2.9543144702911377,"49":-1.5708836317062378,"50":-0.7276603579521179,"51":-0.2995292544364929,"52":1.410801649093628,"53":1.3242510557174683,"54":0.16668008267879486,"55":-0.8120593428611755,"56":0.8996217250823975,"57":2.5245745182037354,"58":-1.4865816831588745,"59":-1.7283926010131836,"60":-1.1473418474197388,"61":-0.18337050080299377,"62":1.3505712747573853,"63":1.6253619194030762,"64":-0.31290170550346375,"65":-2.7267537117004395,"66":1.1636894941329956,"67":4.006505489349365,"68":1.7951256036758423,"69":3.8051576614379883,"70":-0.37681931257247925,"71":1.1848582029342651,"72":0.8007214665412903,"73":2.2890477180480957,"74":-0.6908036470413208,"75":-3.409996271133423,"76":1.0968962907791138,"77":0.00879356823861599,"78":0.318363219499588,"79":-2.230217933654785,"80":-2.021080493927002,"81":-2.2962398529052734,"82":-1.1201547384262085,"83":1.6978161334991455,"84":1.0784562826156616,"85":-0.8255427479743958,"86":-0.1320500373840332,"87":-2.7958943843841553,"88":0.9817004203796387,"89":-0.17524372041225433,"90":0.9572892189025879,"91":1.4057978391647339,"92":0.9069459438323975,"93":-0.869575023651123,"94":-1.8768301010131836,"95":-1.1389412879943848,"96":-1.38461434841156,"97":-1.3857516050338745,"98":-0.3211880624294281,"99":-0.5023666024208069,"100":0.6759257912635803,"101":1.3823535442352295,"102":-0.7598776817321777,"103":-0.2821351885795593,"104":-0.3991979956626892,"105":-0.680365800857544,"106":-0.6321557760238647,"107":-1.1360888481140137,"108":1.9262136220932007,"109":-0.3867839574813843,"110":-0.14653384685516357,"111":0.7419276237487793,"112":1.505813479423523,"113":-0.26165571808815,"114":0.9541129469871521,"115":1.5866528749465942,"116":-0.004232782870531082,"117":0.23540198802947998,"118":-0.1502397060394287,"119":-0.4504008889198303,"120":1.6060305833816528,"121":-0.8865410685539246,"122":0.09329567104578018,"123":0.8228130340576172,"124":0.21559220552444458,"125":1.4476659297943115,"126":0.2565835416316986,"127":1.3104898929595947,"128":-1.8808518648147583,"129":-0.0423983559012413,"130":0.9174618721008301,"131":2.0601015090942383,"132":0.5271473526954651,"133":-1.84279203414917,"134":-0.15449799597263336,"135":3.5907161235809326,"136":-1.5302783250808716,"137":-0.44933846592903137,"138":1.5000649690628052,"139":0.33065229654312134,"140":0.5600469708442688,"141":0.7108526825904846,"142":3.2573368549346924,"143":1.2452911138534546,"144":-0.5611515045166016,"145":0.3167443573474884,"146":2.0197832584381104,"147":-1.3921513557434082,"148":-1.6172832250595093,"149":-0.22655357420444489,"150":-2.0899276733398438,"151":-1.1456001996994019,"152":0.5097789168357849,"153":-1.881825566291809,"154":3.408315896987915,"155":0.6304144263267517,"156":-2.2032878398895264,"157":-0.3366219997406006,"158":-0.25054624676704407,"159":-0.9961079359054565,"160":-1.8715028762817383,"161":-0.8356425762176514,"162":-2.1975834369659424,"163":-2.0144612789154053,"164":0.3068055808544159,"165":0.14434194564819336,"166":-1.0401442050933838,"167":1.959915041923523,"168":-1.4045215845108032,"169":-0.28466352820396423,"170":-0.12135057151317596,"171":2.1806182861328125,"172":2.592719316482544,"173":2.4076783657073975,"174":-3.710430145263672,"175":-0.8450195789337158,"176":-0.7168614864349365,"177":-0.769024670124054,"178":-0.5529020428657532,"179":-1.7981446981430054}},"forgetHidden":{"rows":20,"columns":20,"weights":{"0":1.6357964277267456,"1":-0.5113766193389893,"2":-1.1699185371398926,"3":0.0693492591381073,"4":1.0532639026641846,"5":1.355308175086975,"6":1.1139625310897827,"7":0.4087180495262146,"8":-0.7874190807342529,"9":-0.0891137570142746,"10":-0.887640655040741,"11":1.8127739429473877,"12":-0.44340503215789795,"13":2.1633517742156982,"14":1.4338324069976807,"15":1.1491745710372925,"16":-0.7395778894424438,"17":1.585052490234375,"18":0.29386216402053833,"19":1.6509625911712646,"20":-0.6634882092475891,"21":0.1618676781654358,"22":0.4560351073741913,"23":-1.3063303232192993,"24":-0.6381805539131165,"25":0.9091975688934326,"26":-1.0932122468948364,"27":-0.6266328692436218,"28":0.944663941860199,"29":0.720000147819519,"30":1.425774097442627,"31":-0.11365155875682831,"32":-0.23619148135185242,"33":-0.3310645818710327,"34":-0.20540477335453033,"35":0.21336083114147186,"36":0.6565906405448914,"37":-1.0408527851104736,"38":-1.5549408197402954,"39":0.07453668862581253,"40":0.2123139500617981,"41":-0.6993537545204163,"42":-4.454944610595703,"43":1.6295199394226074,"44":2.190000295639038,"45":3.3228116035461426,"46":0.31888946890830994,"47":-1.6019301414489746,"48":-0.07532114535570145,"49":-1.4818415641784668,"50":-0.9433224201202393,"51":-0.6267670392990112,"52":0.27779173851013184,"53":1.5611672401428223,"54":-1.4202334880828857,"55":-0.2044409215450287,"56":-2.9469211101531982,"57":3.6823368072509766,"58":-1.7066007852554321,"59":1.701809048652649,"60":-0.6606858968734741,"61":-0.4059893786907196,"62":2.2295961380004883,"63":0.650888979434967,"64":-0.563747227191925,"65":-1.0158623456954956,"66":-0.8421542644500732,"67":-0.8287138938903809,"68":-0.9467076659202576,"69":0.7165719866752625,"70":-0.7681184411048889,"71":-1.2104085683822632,"72":-0.99602210521698,"73":0.24569323658943176,"74":-0.03351813554763794,"75":0.28564774990081787,"76":1.5913317203521729,"77":-3.0081074237823486,"78":-1.0555322170257568,"79":-0.9987230896949768,"80":1.8301888704299927,"81":-1.4700919389724731,"82":-0.6282638907432556,"83":-0.7725995779037476,"84":1.731425404548645,"85":2.592857599258423,"86":2.445291757583618,"87":-1.032019853591919,"88":-2.8296055793762207,"89":-1.4602694511413574,"90":-2.3870110511779785,"91":-0.7081471085548401,"92":-2.4489753246307373,"93":4.777510643005371,"94":-0.8007380366325378,"95":-1.343115210533142,"96":-4.548234939575195,"97":3.271353006362915,"98":2.0312578678131104,"99":0.7420340776443481,"100":-2.1513092517852783,"101":-2.773059606552124,"102":1.4974358081817627,"103":-1.365992784500122,"104":-1.7781245708465576,"105":-0.7792003750801086,"106":0.7844336628913879,"107":3.0197458267211914,"108":-3.171933650970459,"109":3.5845155715942383,"110":1.3351657390594482,"111":0.49568602442741394,"112":-2.54658842086792,"113":-3.0104660987854004,"114":0.293083131313324,"115":1.5004246234893799,"116":2.389024496078491,"117":-3.5086052417755127,"118":0.3958089351654053,"119":-1.1799455881118774,"120":-2.4109413623809814,"121":-0.9680535793304443,"122":1.416710376739502,"123":-0.9073368906974792,"124":-3.597381591796875,"125":0.2817906439304352,"126":0.8985446095466614,"127":0.4572524130344391,"128":-0.8083844780921936,"129":1.0096529722213745,"130":3.136300563812256,"131":-0.5425243973731995,"132":-2.8657569885253906,"133":-0.5974032282829285,"134":-1.9611676931381226,"135":2.032078266143799,"136":2.7639334201812744,"137":-2.319213390350342,"138":-2.903156280517578,"139":-2.294538736343384,"140":-0.021739711984992027,"141":1.2881778478622437,"142":1.172907829284668,"143":-1.723434567451477,"144":-0.8007104396820068,"145":-0.4047982692718506,"146":-0.09533126652240753,"147":1.2624151706695557,"148":-1.1947146654129028,"149":-0.41092395782470703,"150":0.24564826488494873,"151":-1.4130421876907349,"152":-0.16435347497463226,"153":-2.0262842178344727,"154":-1.3934603929519653,"155":0.9476239681243896,"156":0.4426659941673279,"157":-0.3801766335964203,"158":1.3444098234176636,"159":-0.4949171543121338,"160":0.13155052065849304,"161":1.7795459032058716,"162":3.038623571395874,"163":0.4960996210575104,"164":-0.9549023509025574,"165":-2.3443708419799805,"166":-2.2516539096832275,"167":0.9470083713531494,"168":-0.8925907015800476,"169":-0.5811936855316162,"170":1.3880152702331543,"171":1.4964829683303833,"172":2.9526562690734863,"173":-0.6403394341468811,"174":-1.482591152191162,"175":0.8050046563148499,"176":2.8064541816711426,"177":-0.35621583461761475,"178":-0.47631245851516724,"179":-0.7244395613670349,"180":-0.6196014285087585,"181":0.23065385222434998,"182":-2.2766172885894775,"183":0.36829426884651184,"184":1.4203357696533203,"185":1.5863990783691406,"186":0.7785247564315796,"187":1.4619426727294922,"188":0.1881668120622635,"189":-1.491240382194519,"190":-1.0862027406692505,"191":0.070363350212574,"192":0.011585710570216179,"193":0.6758094429969788,"194":-1.398093819618225,"195":-3.1576578617095947,"196":-0.969248354434967,"197":2.613677501678467,"198":-0.269214004278183,"199":0.10069198161363602,"200":0.30539917945861816,"201":-2.228567600250244,"202":0.5356646776199341,"203":0.5297653079032898,"204":-0.41681942343711853,"205":0.2686968743801117,"206":-0.2405693531036377,"207":-1.4668004512786865,"208":-2.723355293273926,"209":0.5688859820365906,"210":-1.7112765312194824,"211":0.5119457840919495,"212":-3.3227720260620117,"213":-0.9694918990135193,"214":-1.2529830932617188,"215":4.454827785491943,"216":-2.6259632110595703,"217":1.3740662336349487,"218":-0.24094605445861816,"219":-2.310950756072998,"220":-1.724579930305481,"221":0.11544898897409439,"222":0.6872531771659851,"223":0.6485008001327515,"224":-1.1556463241577148,"225":0.5947144627571106,"226":-0.6972970962524414,"227":-0.5562050938606262,"228":-0.17357657849788666,"229":0.47207632660865784,"230":1.4817672967910767,"231":0.3927430212497711,"232":0.7526054978370667,"233":-0.6098372936248779,"234":-0.041557811200618744,"235":1.1400740146636963,"236":0.552544891834259,"237":-1.5627529621124268,"238":-0.6725059151649475,"239":-1.167307734489441,"240":-3.9749035835266113,"241":1.1985514163970947,"242":0.7056307792663574,"243":0.42797380685806274,"244":-0.5826743245124817,"245":-3.030787706375122,"246":0.6019333600997925,"247":-1.3172171115875244,"248":0.15825818479061127,"249":2.4298453330993652,"250":3.6296987533569336,"251":-1.848049283027649,"252":-2.728792428970337,"253":1.585668683052063,"254":0.7075450420379639,"255":1.1721991300582886,"256":1.7032146453857422,"257":-1.2414159774780273,"258":0.5738086104393005,"259":-2.3219568729400635,"260":-0.9399335384368896,"261":0.8918728232383728,"262":2.2264838218688965,"263":0.7737753987312317,"264":1.2399276494979858,"265":-0.9180573225021362,"266":-0.7252147793769836,"267":-1.87397038936615,"268":0.6996353268623352,"269":-0.8229912519454956,"270":-0.021400123834609985,"271":2.1522345542907715,"272":-0.0830628052353859,"273":-1.5009382963180542,"274":-2.4875340461730957,"275":-2.2789978981018066,"276":0.7643066644668579,"277":-1.0717933177947998,"278":0.5902866721153259,"279":-0.2900006175041199,"280":-0.25007039308547974,"281":0.2882423400878906,"282":1.1837713718414307,"283":1.5293786525726318,"284":-2.054767370223999,"285":1.2426339387893677,"286":-1.4401121139526367,"287":0.023937270045280457,"288":0.6518096923828125,"289":2.1522979736328125,"290":2.233496904373169,"291":1.603676199913025,"292":2.1753296852111816,"293":-0.694980800151825,"294":-0.9921988844871521,"295":0.8684201836585999,"296":2.4467499256134033,"297":-2.3386785984039307,"298":-1.1771458387374878,"299":-1.6066653728485107,"300":-0.3100431263446808,"301":1.222302794456482,"302":0.7392598986625671,"303":-0.7368917465209961,"304":-2.936528205871582,"305":-1.2716070413589478,"306":-1.4189203977584839,"307":0.3667943775653839,"308":0.06786809116601944,"309":1.1194928884506226,"310":2.449003219604492,"311":0.14392144978046417,"312":-0.30067184567451477,"313":1.9477061033248901,"314":-2.8158810138702393,"315":0.04374822601675987,"316":2.526251792907715,"317":-1.0971055030822754,"318":-0.3986629545688629,"319":-1.3205748796463013,"320":-0.9203030467033386,"321":-1.4053641557693481,"322":-2.549766778945923,"323":0.44525352120399475,"324":-0.2551848590373993,"325":0.9387797117233276,"326":4.354433536529541,"327":0.9007141590118408,"328":-1.6649527549743652,"329":1.85578453540802,"330":0.9860488176345825,"331":0.24437524378299713,"332":-3.5820088386535645,"333":2.5760903358459473,"334":1.7114615440368652,"335":2.521381378173828,"336":-0.03411632776260376,"337":-0.34339866042137146,"338":1.3093714714050293,"339":-0.2044675201177597,"340":-1.4142566919326782,"341":-3.3947293758392334,"342":-1.6654478311538696,"343":1.4834671020507812,"344":-1.0825172662734985,"345":-1.2659680843353271,"346":1.742660403251648,"347":2.013568878173828,"348":-2.575129985809326,"349":1.4926813840866089,"350":0.4138551652431488,"351":0.15708258748054504,"352":-2.421482801437378,"353":0.3640074133872986,"354":0.2365761399269104,"355":0.6675583720207214,"356":1.388120174407959,"357":-0.5836097002029419,"358":-0.8128117322921753,"359":-0.06406652927398682,"360":-0.5141569375991821,"361":-2.2128751277923584,"362":-0.9607152938842773,"363":2.2607810497283936,"364":-0.39497700333595276,"365":-0.48151156306266785,"366":0.9152993559837341,"367":-0.02991344779729843,"368":-1.166943073272705,"369":0.6050629615783691,"370":0.9344993233680725,"371":1.4245517253875732,"372":1.5136507749557495,"373":2.687211275100708,"374":0.5908698439598083,"375":0.38611844182014465,"376":-0.27176764607429504,"377":1.1345075368881226,"378":-0.2151353508234024,"379":-0.42418354749679565,"380":-1.7198938131332397,"381":-2.6438944339752197,"382":3.2058699131011963,"383":1.2131589651107788,"384":1.9857304096221924,"385":-3.7818679809570312,"386":0.3576878607273102,"387":1.7497224807739258,"388":-1.162111520767212,"389":1.4012889862060547,"390":0.1805812567472458,"391":-0.9315145015716553,"392":-1.8705066442489624,"393":0.5411136150360107,"394":2.0585196018218994,"395":0.623195469379425,"396":0.1331499069929123,"397":-1.6151493787765503,"398":-2.5492048263549805,"399":1.8578802347183228}},"forgetBias":{"rows":20,"columns":1,"weights":{"0":0,"1":0,"2":0,"3":0,"4":0,"5":0,"6":0,"7":0,"8":0,"9":0,"10":0,"11":0,"12":0,"13":0,"14":0,"15":0,"16":0,"17":0,"18":0,"19":0}},"outputMatrix":{"rows":20,"columns":9,"weights":{"0":0.17372643947601318,"1":2.961725950241089,"2":-0.2671642005443573,"3":-0.32849448919296265,"4":0.1747831106185913,"5":1.502871036529541,"6":1.260764718055725,"7":-0.5236359238624573,"8":-1.9648168087005615,"9":1.7985793352127075,"10":-3.701453685760498,"11":3.300001621246338,"12":2.4368114471435547,"13":-0.8095942735671997,"14":-1.811072826385498,"15":-1.4472522735595703,"16":2.96455717086792,"17":2.1008667945861816,"18":0.9782288670539856,"19":0.034860629588365555,"20":0.11800840497016907,"21":-1.175073504447937,"22":0.3697729706764221,"23":-1.6394197940826416,"24":0.14466364681720734,"25":-1.078420877456665,"26":-2.5625691413879395,"27":0.7522497177124023,"28":-3.5785305500030518,"29":-0.4568769335746765,"30":1.8233174085617065,"31":2.5540738105773926,"32":1.1858515739440918,"33":0.976046085357666,"34":-0.09385180473327637,"35":1.8632417917251587,"36":-4.111819744110107,"37":0.08818481862545013,"38":0.05166815221309662,"39":0.5306738018989563,"40":-1.9471074342727661,"41":-0.25256481766700745,"42":-0.5589308142662048,"43":-2.5777618885040283,"44":-1.8364808559417725,"45":-1.0466758012771606,"46":3.30365252494812,"47":0.17766593396663666,"48":-1.391371250152588,"49":-1.331037998199463,"50":-1.0273162126541138,"51":-0.798873245716095,"52":-2.7857491970062256,"53":-4.528013706207275,"54":0.35018160939216614,"55":-1.0018845796585083,"56":0.1845468282699585,"57":2.484431266784668,"58":1.2946351766586304,"59":1.2996701002120972,"60":0.9353477358818054,"61":4.476517677307129,"62":-1.9969820976257324,"63":3.406888246536255,"64":-0.6196148991584778,"65":0.7273674607276917,"66":0.2545230984687805,"67":0.17405007779598236,"68":-0.1591276079416275,"69":-0.5917852520942688,"70":2.453747034072876,"71":0.37401488423347473,"72":-2.2339401245117188,"73":1.8103214502334595,"74":1.577394723892212,"75":-2.769160509109497,"76":-1.4318052530288696,"77":-0.8513450622558594,"78":-0.1934766322374344,"79":-1.6735992431640625,"80":-3.119662284851074,"81":-3.31538724899292,"82":2.8667359352111816,"83":1.468885064125061,"84":-1.5174109935760498,"85":-3.1551575660705566,"86":-1.152941346168518,"87":-1.320404291152954,"88":-2.744075059890747,"89":-2.056082010269165,"90":-1.6867161989212036,"91":-2.516608953475952,"92":2.3248250484466553,"93":1.747464895248413,"94":-0.2897372245788574,"95":-1.4769319295883179,"96":1.4118428230285645,"97":-0.25095006823539734,"98":-0.3982354700565338,"99":1.5714094638824463,"100":0.9540964961051941,"101":-3.029834032058716,"102":0.10118009150028229,"103":1.8863614797592163,"104":2.382004737854004,"105":3.0747742652893066,"106":-1.5807911157608032,"107":-1.1559627056121826,"108":-2.131394147872925,"109":-0.7956249713897705,"110":2.2396368980407715,"111":0.9102656841278076,"112":-2.766226053237915,"113":-2.8942251205444336,"114":-3.003018617630005,"115":0.23246967792510986,"116":0.4233326315879822,"117":1.6769336462020874,"118":-1.2798954248428345,"119":1.213637113571167,"120":2.173964262008667,"121":0.5829609036445618,"122":-0.5333981513977051,"123":-1.2560062408447266,"124":0.09054221957921982,"125":-0.7517232894897461,"126":6.281595706939697,"127":-0.2993175983428955,"128":0.8495270013809204,"129":-0.19183002412319183,"130":-1.2202389240264893,"131":-1.5674666166305542,"132":0.043318383395671844,"133":1.3508124351501465,"134":-0.8922643661499023,"135":-1.119688630104065,"136":3.13460636138916,"137":1.7232755422592163,"138":-5.5561299324035645,"139":-1.101823329925537,"140":0.47603553533554077,"141":-1.6290898323059082,"142":-2.6862876415252686,"143":-4.199648380279541,"144":0.7260175347328186,"145":2.984964370727539,"146":-2.071195363998413,"147":-2.72116756439209,"148":3.0331554412841797,"149":3.1848206520080566,"150":2.0687265396118164,"151":-3.718602180480957,"152":-0.5282534956932068,"153":-0.576525866985321,"154":0.5687318444252014,"155":-0.07992404699325562,"156":0.2606847882270813,"157":1.0606555938720703,"158":0.801961362361908,"159":2.5597074031829834,"160":-0.5011281371116638,"161":-0.5855612754821777,"162":-0.07601609826087952,"163":-4.10376501083374,"164":-0.4206181764602661,"165":1.0641556978225708,"166":1.4026259183883667,"167":1.2734135389328003,"168":-1.2088582515716553,"169":1.0388028621673584,"170":2.086801767349243,"171":-4.0646772384643555,"172":1.2095074653625488,"173":-0.09939725697040558,"174":-0.3301529288291931,"175":0.8237788677215576,"176":0.6212056875228882,"177":-2.4285080432891846,"178":-3.096590042114258,"179":-0.903815507888794}},"outputHidden":{"rows":20,"columns":20,"weights":{"0":2.6410233974456787,"1":2.776244878768921,"2":-0.09792767465114594,"3":-0.7539010047912598,"4":3.35543155670166,"5":1.8785935640335083,"6":-0.0012454668758437037,"7":-0.4205995500087738,"8":0.01940310187637806,"9":-3.397505760192871,"10":-3.875474691390991,"11":1.0264978408813477,"12":-2.0107247829437256,"13":-3.032294988632202,"14":-1.3629885911941528,"15":-1.3152985572814941,"16":-0.6773400902748108,"17":0.9686981439590454,"18":0.1872350126504898,"19":2.1644983291625977,"20":2.448275089263916,"21":0.3795127868652344,"22":0.0811324194073677,"23":-3.103076934814453,"24":-2.197561264038086,"25":-0.9834638833999634,"26":0.972361147403717,"27":1.9064993858337402,"28":1.0705573558807373,"29":1.8826371431350708,"30":-0.03439832106232643,"31":-2.0635454654693604,"32":1.4045535326004028,"33":1.7671700716018677,"34":1.5302060842514038,"35":1.788547158241272,"36":0.8702395558357239,"37":-0.5452799797058105,"38":3.8308608531951904,"39":1.1975975036621094,"40":1.257015585899353,"41":2.0452377796173096,"42":0.40615636110305786,"43":1.3167040348052979,"44":3.6229703426361084,"45":1.1295133829116821,"46":-2.4621174335479736,"47":3.024895429611206,"48":3.161903142929077,"49":-2.725390672683716,"50":1.7132093906402588,"51":0.31132662296295166,"52":-1.0425958633422852,"53":2.4917898178100586,"54":-2.0530388355255127,"55":-4.30222749710083,"56":0.6612731218338013,"57":0.23139546811580658,"58":-0.4729166030883789,"59":1.8718560934066772,"60":-0.8651029467582703,"61":0.22509923577308655,"62":-1.6851533651351929,"63":-0.17819127440452576,"64":1.4958640336990356,"65":0.892645537853241,"66":2.5619726181030273,"67":-0.04181964695453644,"68":-1.041219711303711,"69":-0.2792623043060303,"70":2.9365429878234863,"71":-0.22093777358531952,"72":2.390615224838257,"73":0.8417154550552368,"74":-0.6151632070541382,"75":0.4871712625026703,"76":-0.4343034029006958,"77":0.09640959650278091,"78":0.40728503465652466,"79":-1.3079286813735962,"80":1.3299837112426758,"81":-0.3821311593055725,"82":-2.201667308807373,"83":-2.9243552684783936,"84":4.324177265167236,"85":0.6345600485801697,"86":1.3684648275375366,"87":-1.1589584350585938,"88":0.7290350198745728,"89":-1.177147388458252,"90":-0.007725868374109268,"91":-0.6344516277313232,"92":-0.9904621243476868,"93":0.5344934463500977,"94":1.9491947889328003,"95":-2.09040904045105,"96":-2.3223934173583984,"97":-0.1106584370136261,"98":0.3660927414894104,"99":1.831278920173645,"100":-1.809659481048584,"101":5.125535488128662,"102":-2.053353786468506,"103":-1.5045679807662964,"104":0.7054073810577393,"105":-0.053905609995126724,"106":-0.7844521999359131,"107":-1.2701786756515503,"108":-2.1153416633605957,"109":-0.8140385746955872,"110":-0.3239480257034302,"111":2.3357138633728027,"112":2.9601054191589355,"113":-0.8163617253303528,"114":0.589535653591156,"115":-0.9180547595024109,"116":0.3486524522304535,"117":-1.2102999687194824,"118":1.9305235147476196,"119":1.7056792974472046,"120":-0.2787057161331177,"121":-0.80014568567276,"122":-1.595730185508728,"123":-0.24428026378154755,"124":-0.15013982355594635,"125":-1.83108389377594,"126":-4.547097682952881,"127":-2.4784903526306152,"128":-1.6534780263900757,"129":1.0236830711364746,"130":0.01900349371135235,"131":0.24892467260360718,"132":-3.3936030864715576,"133":1.5672496557235718,"134":-1.9141408205032349,"135":-0.20516212284564972,"136":-0.4180908799171448,"137":0.7118275165557861,"138":-2.766263723373413,"139":-2.4017863273620605,"140":1.7578718662261963,"141":-1.7058025598526,"142":1.2705808877944946,"143":-2.7852702140808105,"144":2.1613588333129883,"145":0.6761675477027893,"146":0.9741243720054626,"147":3.0192368030548096,"148":2.577885627746582,"149":-1.3937371969223022,"150":-2.487300395965576,"151":0.523952841758728,"152":-0.09316436201334,"153":-0.19374002516269684,"154":0.13874000310897827,"155":-1.9249181747436523,"156":-1.4476454257965088,"157":3.5286171436309814,"158":1.319782018661499,"159":3.9494779109954834,"160":-1.576145052909851,"161":-3.3665974140167236,"162":1.1434030532836914,"163":0.08741289377212524,"164":-1.7229422330856323,"165":-1.8273409605026245,"166":2.2175650596618652,"167":0.4682699739933014,"168":-0.7007960677146912,"169":1.751205563545227,"170":1.6637042760849,"171":0.8902429342269897,"172":-2.5840237140655518,"173":1.9016621112823486,"174":1.0165941715240479,"175":-1.2741796970367432,"176":-0.24379120767116547,"177":0.9536580443382263,"178":3.737603187561035,"179":-2.6074748039245605,"180":0.04502793401479721,"181":-0.20378857851028442,"182":-1.6248955726623535,"183":1.3269912004470825,"184":-0.11928094923496246,"185":1.1004003286361694,"186":-1.4643504619598389,"187":-1.0049587488174438,"188":0.36654868721961975,"189":-1.2802910804748535,"190":1.1116074323654175,"191":1.045981526374817,"192":0.15093904733657837,"193":1.2064414024353027,"194":0.7846146821975708,"195":1.394872784614563,"196":-0.8745867013931274,"197":0.8145632743835449,"198":-0.4398990571498871,"199":0.23908516764640808,"200":0.11085628718137741,"201":0.3407190442085266,"202":0.3185887932777405,"203":-0.3732790946960449,"204":0.4883292615413666,"205":4.396730422973633,"206":1.0328155755996704,"207":-0.33574989438056946,"208":0.11570905148983002,"209":-3.0362744331359863,"210":-3.2863259315490723,"211":-0.6862685680389404,"212":-1.999819040298462,"213":0.3649404048919678,"214":-0.22005245089530945,"215":-3.841254711151123,"216":-3.889920234680176,"217":3.1943893432617188,"218":1.7669427394866943,"219":2.5200653076171875,"220":2.211153984069824,"221":-1.3796528577804565,"222":2.209878921508789,"223":-0.9927295446395874,"224":0.40803202986717224,"225":2.5006048679351807,"226":-0.271402508020401,"227":0.94729083776474,"228":-0.7821760177612305,"229":1.3111613988876343,"230":-0.049864742904901505,"231":1.5172698497772217,"232":-0.6382254958152771,"233":0.16877250373363495,"234":0.1105235368013382,"235":2.213942766189575,"236":-1.145206093788147,"237":0.8753922581672668,"238":0.49801838397979736,"239":-0.22714929282665253,"240":-1.4278264045715332,"241":0.5862049460411072,"242":1.8529692888259888,"243":-2.765532970428467,"244":-0.7472237348556519,"245":-0.34946367144584656,"246":0.9447141885757446,"247":-0.8236528038978577,"248":0.24355174601078033,"249":1.9556854963302612,"250":0.7993612289428711,"251":0.288094162940979,"252":-5.033840179443359,"253":-0.0755828320980072,"254":0.8687605261802673,"255":0.1525183618068695,"256":1.6306904554367065,"257":-3.081953525543213,"258":1.9605613946914673,"259":-0.7455183863639832,"260":1.0050984621047974,"261":4.736128330230713,"262":3.4411840438842773,"263":-2.0275211334228516,"264":-1.7894595861434937,"265":-1.3431504964828491,"266":-2.9689342975616455,"267":-2.026409864425659,"268":-0.7283654808998108,"269":-0.8546638488769531,"270":-0.5358232855796814,"271":2.178105115890503,"272":2.7081143856048584,"273":-1.517112135887146,"274":-3.5862112045288086,"275":0.05498337745666504,"276":2.415783405303955,"277":-2.4490978717803955,"278":-0.6564377546310425,"279":0.7931740283966064,"280":1.4002745151519775,"281":3.2476627826690674,"282":0.7536048293113708,"283":-3.0328481197357178,"284":3.100440740585327,"285":-0.6476658582687378,"286":-1.3618228435516357,"287":1.8464791774749756,"288":-2.6367859840393066,"289":0.4642221927642822,"290":1.653883934020996,"291":0.7025540471076965,"292":2.2679872512817383,"293":0.23482345044612885,"294":-1.1243306398391724,"295":-0.5748194456100464,"296":2.095285654067993,"297":-1.122922420501709,"298":0.41242116689682007,"299":-2.136852979660034,"300":0.08477423340082169,"301":2.4148356914520264,"302":-1.234399437904358,"303":-0.09524796903133392,"304":-0.6045452952384949,"305":-1.5830506086349487,"306":-0.9870210886001587,"307":-2.950205087661743,"308":-1.6134990453720093,"309":-2.0495383739471436,"310":-3.823744058609009,"311":1.2750089168548584,"312":-0.6580448746681213,"313":0.4782184064388275,"314":0.4475201368331909,"315":-1.3947237730026245,"316":-1.8002780675888062,"317":0.4768378734588623,"318":0.21836692094802856,"319":-0.6418036818504333,"320":-1.047649621963501,"321":-1.1315251588821411,"322":0.48281633853912354,"323":1.3719147443771362,"324":-1.8951449394226074,"325":-1.6125106811523438,"326":-0.02533874846994877,"327":-0.3875082731246948,"328":1.1588878631591797,"329":0.8644062876701355,"330":1.48654043674469,"331":2.0545644760131836,"332":-0.890380322933197,"333":0.18936306238174438,"334":0.2648790776729584,"335":0.5189055800437927,"336":0.49054980278015137,"337":-0.27472132444381714,"338":-2.6394147872924805,"339":0.667701780796051,"340":2.2401347160339355,"341":2.141392469406128,"342":0.12911923229694366,"343":-1.2956020832061768,"344":0.1152399331331253,"345":2.8004918098449707,"346":1.6129727363586426,"347":2.523402452468872,"348":3.693044900894165,"349":-2.7938318252563477,"350":-2.3658881187438965,"351":2.597825527191162,"352":1.551040530204773,"353":1.3178832530975342,"354":1.1617746353149414,"355":-3.9313995838165283,"356":-1.6858913898468018,"357":3.804617404937744,"358":3.056853771209717,"359":2.8062474727630615,"360":0.4867929518222809,"361":2.800323963165283,"362":0.3866714537143707,"363":0.0316891111433506,"364":0.9130032062530518,"365":1.0382587909698486,"366":-1.1686335802078247,"367":-2.033238410949707,"368":0.9110954999923706,"369":-0.9018723964691162,"370":0.46463340520858765,"371":0.3259885609149933,"372":2.452273368835449,"373":-2.161914587020874,"374":-2.0333993434906006,"375":-1.711764931678772,"376":-0.6684631705284119,"377":-0.017114924266934395,"378":1.292090892791748,"379":2.40213680267334,"380":3.0992484092712402,"381":0.41720834374427795,"382":-1.0234819650650024,"383":-2.5358479022979736,"384":0.0789329931139946,"385":2.774683952331543,"386":0.27616992592811584,"387":-0.8161961436271667,"388":1.2831289768218994,"389":-2.2514660358428955,"390":-0.5136479139328003,"391":0.6108482480049133,"392":1.4311370849609375,"393":-2.299166679382324,"394":0.5369105935096741,"395":-2.9563374519348145,"396":0.15358920395374298,"397":2.026106119155884,"398":1.0896494388580322,"399":1.9024486541748047}},"outputBias":{"rows":20,"columns":1,"weights":{"0":0.9346708059310913,"1":0.8280889987945557,"2":1.4056233167648315,"3":0.774313747882843,"4":1.3747851848602295,"5":-1.4875942468643188,"6":-0.2803567051887512,"7":3.2516443729400635,"8":1.014998197555542,"9":1.1757334470748901,"10":-2.3332717418670654,"11":-0.39069947600364685,"12":0.022414663806557655,"13":0.9982580542564392,"14":4.344808101654053,"15":-1.1166359186172485,"16":-0.032777536660432816,"17":-0.12690326571464539,"18":-0.5582441091537476,"19":-0.8076874613761902}},"cellActivationMatrix":{"rows":20,"columns":9,"weights":{"0":-1.1496272087097168,"1":-0.3806915879249573,"2":-1.5345195531845093,"3":0.29025912284851074,"4":0.9171358942985535,"5":0.7603749632835388,"6":2.283496618270874,"7":-0.5512335896492004,"8":1.4337211847305298,"9":-1.1686931848526,"10":-0.71573805809021,"11":1.0617090463638306,"12":-0.6042133569717407,"13":-1.5118107795715332,"14":-1.1756374835968018,"15":-2.49299955368042,"16":0.5868043303489685,"17":-0.9933724403381348,"18":-2.5716514587402344,"19":-0.8830465078353882,"20":1.4760560989379883,"21":0.9546982049942017,"22":-0.02002914994955063,"23":-0.24537424743175507,"24":-2.290398359298706,"25":1.3877662420272827,"26":1.8031175136566162,"27":0.35196349024772644,"28":-0.3431464731693268,"29":1.3290789127349854,"30":1.1645125150680542,"31":-0.1377718448638916,"32":-1.3711909055709839,"33":-0.724875807762146,"34":1.1841185092926025,"35":1.9126365184783936,"36":-1.7367342710494995,"37":1.6986266374588013,"38":0.600386917591095,"39":-0.8986517786979675,"40":-1.4750856161117554,"41":-1.2717723846435547,"42":-0.6133261322975159,"43":-2.5132553577423096,"44":-1.8735193014144897,"45":-2.6798815727233887,"46":2.8052608966827393,"47":0.7997593283653259,"48":-1.2834138870239258,"49":-1.5746338367462158,"50":-0.4863131642341614,"51":-1.76055109500885,"52":-3.3996870517730713,"53":-3.350574254989624,"54":0.6513325572013855,"55":-0.10456754267215729,"56":-3.0449302196502686,"57":0.30251768231391907,"58":2.390681266784668,"59":3.2019171714782715,"60":2.7727057933807373,"61":-0.4779365360736847,"62":0.18651604652404785,"63":-2.190150737762451,"64":0.20641052722930908,"65":-0.9382956027984619,"66":2.2459797859191895,"67":0.32771167159080505,"68":2.0738208293914795,"69":0.2128606140613556,"70":0.7486937046051025,"71":2.4305405616760254,"72":-3.8324620723724365,"73":0.6610419750213623,"74":-0.6413601636886597,"75":2.220928430557251,"76":0.9157990217208862,"77":1.4916296005249023,"78":-0.45822930335998535,"79":0.23332670331001282,"80":2.2029640674591064,"81":2.4025986194610596,"82":0.03534901142120361,"83":-1.1275620460510254,"84":-0.0888645276427269,"85":3.169005870819092,"86":2.1027581691741943,"87":-0.46326202154159546,"88":-0.508131206035614,"89":-0.36066412925720215,"90":0.5488021969795227,"91":1.1010091304779053,"92":1.8270081281661987,"93":-1.9347198009490967,"94":-3.2323553562164307,"95":-0.3006601929664612,"96":-1.9117729663848877,"97":-0.05074038356542587,"98":-0.7776870727539062,"99":-2.185462236404419,"100":2.7424910068511963,"101":1.394375205039978,"102":-3.2072103023529053,"103":-2.175546169281006,"104":-0.8742890954017639,"105":-1.3980895280838013,"106":-3.2359161376953125,"107":-1.7290587425231934,"108":-1.6956392526626587,"109":1.9283283948898315,"110":-0.7126933932304382,"111":-0.9642635583877563,"112":-0.06248259171843529,"113":-0.2994474172592163,"114":-0.18347589671611786,"115":-1.834883451461792,"116":-1.1420608758926392,"117":0.3694683313369751,"118":1.4963619709014893,"119":-0.9297870993614197,"120":-2.016828775405884,"121":0.024392513558268547,"122":1.0484619140625,"123":1.0850600004196167,"124":-1.1196588277816772,"125":-2.0709166526794434,"126":-0.6880851984024048,"127":0.7350342273712158,"128":-0.9539033770561218,"129":-0.4144165515899658,"130":2.246628522872925,"131":4.146999359130859,"132":3.7641923427581787,"133":-0.24185748398303986,"134":0.24701979756355286,"135":0.7013337016105652,"136":-1.893336534500122,"137":-1.5196130275726318,"138":-0.8200708031654358,"139":2.3765621185302734,"140":2.9274466037750244,"141":1.4010087251663208,"142":1.755374789237976,"143":0.13709983229637146,"144":1.5416251420974731,"145":-0.7087462544441223,"146":1.1405338048934937,"147":1.8534590005874634,"148":-0.7296944856643677,"149":-0.5222739577293396,"150":-0.7388266324996948,"151":1.6857521533966064,"152":1.072563886642456,"153":1.0484050512313843,"154":1.8940049409866333,"155":-1.5822876691818237,"156":0.9488129615783691,"157":2.1592354774475098,"158":2.158052682876587,"159":2.4835047721862793,"160":-1.4291800260543823,"161":3.48179292678833,"162":-1.1692379713058472,"163":-0.4793575406074524,"164":-1.6856064796447754,"165":0.19483152031898499,"166":2.943798780441284,"167":3.838895082473755,"168":1.5088887214660645,"169":-0.28823769092559814,"170":0.45366644859313965,"171":-4.851500988006592,"172":0.27937638759613037,"173":-1.9042227268218994,"174":0.6052610278129578,"175":-0.11060291528701782,"176":-0.059887632727622986,"177":1.8102706670761108,"178":-1.3019365072250366,"179":1.8594614267349243}},"cellActivationHidden":{"rows":20,"columns":20,"weights":{"0":1.9064207077026367,"1":-1.6346510648727417,"2":-0.805993914604187,"3":1.0030605792999268,"4":6.147551536560059,"5":-0.9680175185203552,"6":1.2312893867492676,"7":0.1466357558965683,"8":2.021912097930908,"9":-0.6479554772377014,"10":-2.097862482070923,"11":-0.5058289766311646,"12":1.1855090856552124,"13":0.0834515392780304,"14":2.978835344314575,"15":-0.20906668901443481,"16":-1.4180471897125244,"17":1.2680644989013672,"18":2.1026458740234375,"19":2.9775443077087402,"20":0.6772879362106323,"21":-0.17189741134643555,"22":0.442025363445282,"23":-0.4194104075431824,"24":-1.3456127643585205,"25":0.46290966868400574,"26":0.20748662948608398,"27":0.2549165189266205,"28":1.7153315544128418,"29":-0.9991894364356995,"30":-0.67316734790802,"31":0.18350540101528168,"32":1.9171503782272339,"33":-0.33433812856674194,"34":0.9202154278755188,"35":-1.3932015895843506,"36":0.5578659772872925,"37":-0.3205414116382599,"38":-0.33515870571136475,"39":0.4100484251976013,"40":-2.2226898670196533,"41":1.170340895652771,"42":-2.1056323051452637,"43":1.6756926774978638,"44":-0.14549878239631653,"45":1.8615883588790894,"46":1.8453047275543213,"47":-0.03979513794183731,"48":-0.2615794539451599,"49":0.0531565397977829,"50":1.100908637046814,"51":0.818169116973877,"52":2.0049140453338623,"53":0.7031769156455994,"54":1.280984878540039,"55":2.805405616760254,"56":0.6223589777946472,"57":1.5229138135910034,"58":-0.40333372354507446,"59":0.36122751235961914,"60":-3.1934635639190674,"61":1.7130619287490845,"62":3.2076921463012695,"63":-1.4373633861541748,"64":-2.3363280296325684,"65":-2.7277650833129883,"66":-1.5166642665863037,"67":-0.27013927698135376,"68":-0.20531262457370758,"69":1.1738425493240356,"70":2.785703420639038,"71":1.1532095670700073,"72":-1.5498143434524536,"73":-0.6421929001808167,"74":-1.8148218393325806,"75":1.110079050064087,"76":1.2654517889022827,"77":-1.7741872072219849,"78":-1.7744297981262207,"79":-2.513646125793457,"80":1.4147586822509766,"81":0.25622594356536865,"82":-2.162912607192993,"83":-2.2035536766052246,"84":1.3509303331375122,"85":1.4242597818374634,"86":2.060201406478882,"87":0.9434878826141357,"88":1.9334722757339478,"89":1.6747844219207764,"90":-1.5502911806106567,"91":0.9282870292663574,"92":0.8359675407409668,"93":0.4821431338787079,"94":1.5454319715499878,"95":0.5195515155792236,"96":-2.589660167694092,"97":0.4694836437702179,"98":0.7216792106628418,"99":1.959403157234192,"100":-1.1722899675369263,"101":-0.0017981185810640454,"102":-0.7304925918579102,"103":-0.14586947858333588,"104":-0.0038304985500872135,"105":-0.3924597501754761,"106":1.2376437187194824,"107":0.6647234559059143,"108":0.14753712713718414,"109":-0.7183821797370911,"110":-0.07075691968202591,"111":-0.20735636353492737,"112":0.9685642123222351,"113":-1.489612340927124,"114":0.14866682887077332,"115":-0.741524338722229,"116":-0.1811755895614624,"117":-1.6218074560165405,"118":0.11754658818244934,"119":0.3674028217792511,"120":0.5513920187950134,"121":0.1427275687456131,"122":0.2199949026107788,"123":-0.8570711016654968,"124":0.1703844964504242,"125":-0.16381031274795532,"126":0.01861613802611828,"127":-0.6266128420829773,"128":0.7279198169708252,"129":1.2600332498550415,"130":-0.9271798133850098,"131":1.1246898174285889,"132":-0.41449233889579773,"133":0.26036760210990906,"134":-0.6426634192466736,"135":1.0317338705062866,"136":-0.1919153481721878,"137":-0.5175064206123352,"138":0.387541800737381,"139":-0.3207324743270874,"140":-0.012251093983650208,"141":0.5084699988365173,"142":-5.291609764099121,"143":-2.4679207801818848,"144":-3.863661527633667,"145":-4.179678440093994,"146":1.7439440488815308,"147":0.3637741208076477,"148":0.8884941339492798,"149":2.5717949867248535,"150":-0.47541284561157227,"151":1.4094672203063965,"152":-3.5152487754821777,"153":2.7975947856903076,"154":-1.23689866065979,"155":3.3230361938476562,"156":0.8690991997718811,"157":1.76735258102417,"158":1.14435613155365,"159":-1.0137231349945068,"160":2.413865566253662,"161":-1.1208868026733398,"162":-0.1998336762189865,"163":-0.9310657978057861,"164":1.0202604532241821,"165":0.3830512762069702,"166":1.2013291120529175,"167":1.9621076583862305,"168":-0.8237923383712769,"169":-0.2012099325656891,"170":-1.1094363927841187,"171":0.7666742205619812,"172":-0.4992215633392334,"173":-0.04303043708205223,"174":2.8497138023376465,"175":0.3549785912036896,"176":-0.1079520508646965,"177":1.1991764307022095,"178":0.615753173828125,"179":0.08090489357709885,"180":-2.26493239402771,"181":2.5952670574188232,"182":2.4847254753112793,"183":-1.168749451637268,"184":-3.238044261932373,"185":-3.2801430225372314,"186":-2.778779983520508,"187":-0.6094433665275574,"188":3.248154640197754,"189":-1.3241432905197144,"190":0.1937878131866455,"191":0.5244780778884888,"192":1.510055661201477,"193":-1.4838906526565552,"194":-1.957019329071045,"195":-0.8036416172981262,"196":2.114854574203491,"197":-2.518160820007324,"198":-1.901460886001587,"199":-0.5763569474220276,"200":-3.0129823684692383,"201":0.2631808817386627,"202":-0.40910613536834717,"203":0.4959951639175415,"204":-0.9772698283195496,"205":0.39137643575668335,"206":-0.7641105651855469,"207":-0.750968873500824,"208":0.23653902113437653,"209":-1.4971445798873901,"210":1.2304221391677856,"211":-0.8316694498062134,"212":-0.4323938488960266,"213":-0.5311093330383301,"214":-3.979868173599243,"215":-0.696636438369751,"216":0.7911344170570374,"217":-1.1605371236801147,"218":-1.3435457944869995,"219":-3.777829647064209,"220":1.1462042331695557,"221":1.621000051498413,"222":0.5616371035575867,"223":2.4526069164276123,"224":0.21664367616176605,"225":1.4705443382263184,"226":-1.27853524684906,"227":-1.1066324710845947,"228":-0.45675575733184814,"229":-1.5223230123519897,"230":-1.2945393323898315,"231":-0.9738001823425293,"232":0.4547693431377411,"233":0.09973178803920746,"234":-1.1235181093215942,"235":0.22586262226104736,"236":-1.0346158742904663,"237":-0.17723461985588074,"238":-0.6764249801635742,"239":0.349678099155426,"240":-1.9808522462844849,"241":0.1487114131450653,"242":1.1996064186096191,"243":1.3491939306259155,"244":1.9610625505447388,"245":0.8443180918693542,"246":-0.34457671642303467,"247":-2.024864673614502,"248":-0.8698020577430725,"249":-1.0366277694702148,"250":-0.9339874982833862,"251":-0.530073881149292,"252":-2.2715582847595215,"253":-1.5782512426376343,"254":-0.925173282623291,"255":0.5895913243293762,"256":2.5945563316345215,"257":-1.1493414640426636,"258":-1.1535136699676514,"259":-1.1130809783935547,"260":-1.865632176399231,"261":2.308683395385742,"262":1.6230781078338623,"263":-0.23567593097686768,"264":-0.9738855957984924,"265":-2.465000867843628,"266":-2.6120247840881348,"267":-1.100548505783081,"268":1.7651251554489136,"269":-0.29713577032089233,"270":0.7377271056175232,"271":1.3446550369262695,"272":1.6455326080322266,"273":-1.136911153793335,"274":-1.3614779710769653,"275":-0.7795944213867188,"276":1.2595558166503906,"277":-1.6527390480041504,"278":-1.107399344444275,"279":0.2893916666507721,"280":-0.2470412701368332,"281":-0.7841586470603943,"282":0.018247615545988083,"283":-0.5116774439811707,"284":-0.12933744490146637,"285":-1.9812995195388794,"286":-0.6536993980407715,"287":0.39966362714767456,"288":0.06714586168527603,"289":1.751948595046997,"290":-0.7624958157539368,"291":0.1269817352294922,"292":-1.4424898624420166,"293":1.528153896331787,"294":-1.8661415576934814,"295":0.8477903008460999,"296":-0.5969347953796387,"297":0.4050430357456207,"298":-1.806123971939087,"299":-0.9474883675575256,"300":-0.24171337485313416,"301":0.4472978115081787,"302":-1.3856879472732544,"303":-1.6386114358901978,"304":0.5196308493614197,"305":0.2166326344013214,"306":1.7080532312393188,"307":0.6916221976280212,"308":0.8932761549949646,"309":0.8313503861427307,"310":-0.4186653792858124,"311":-0.20282644033432007,"312":1.9862617254257202,"313":0.5587422847747803,"314":-1.0328584909439087,"315":-0.9161419868469238,"316":-0.275375097990036,"317":-0.0139875877648592,"318":1.12511146068573,"319":0.3832141160964966,"320":-0.917691171169281,"321":-1.6265254020690918,"322":1.389814853668213,"323":0.4996531307697296,"324":-0.33491426706314087,"325":-1.544047236442566,"326":-0.8694923520088196,"327":-0.09580302238464355,"328":-0.43698179721832275,"329":0.9453909993171692,"330":0.08416397124528885,"331":-1.2480300664901733,"332":-1.569324016571045,"333":0.7568411231040955,"334":0.004192564636468887,"335":0.9526791572570801,"336":0.028295213356614113,"337":-1.3888468742370605,"338":-1.4070252180099487,"339":-0.44618985056877136,"340":0.5022343993186951,"341":2.704705238342285,"342":-0.5724626779556274,"343":0.4541894197463989,"344":-0.3956954777240753,"345":1.8126459121704102,"346":1.0736855268478394,"347":-1.2238798141479492,"348":1.5861550569534302,"349":-1.1709407567977905,"350":0.1134289875626564,"351":1.261161208152771,"352":2.638193368911743,"353":-0.04559367895126343,"354":0.7561947107315063,"355":-0.31306424736976624,"356":-0.22863797843456268,"357":-0.3131310045719147,"358":2.1982011795043945,"359":0.8999705910682678,"360":0.6645840406417847,"361":0.9149585366249084,"362":-3.3935017585754395,"363":0.8629525303840637,"364":1.5657705068588257,"365":0.6807631850242615,"366":0.8389756679534912,"367":0.23663412034511566,"368":-1.6601263284683228,"369":0.28719523549079895,"370":0.22422805428504944,"371":-0.5930628180503845,"372":-2.368767023086548,"373":0.20415836572647095,"374":-1.2858145236968994,"375":-0.03466218709945679,"376":0.32716742157936096,"377":-0.8535748720169067,"378":-0.8161777257919312,"379":0.7854781746864319,"380":0.2983190417289734,"381":-0.3595409691333771,"382":0.9656909108161926,"383":-0.9237267374992371,"384":-0.5878468155860901,"385":0.6191748380661011,"386":0.2603297233581543,"387":0.5446130633354187,"388":2.5426814556121826,"389":-0.5099151730537415,"390":-0.02829558216035366,"391":-0.0012150744441896677,"392":1.587316632270813,"393":-0.8982330560684204,"394":2.282468795776367,"395":-0.45704227685928345,"396":0.1449504941701889,"397":1.3842742443084717,"398":0.8290935754776001,"399":2.2212677001953125}},"cellActivationBias":{"rows":20,"columns":1,"weights":{"0":-1.297080636024475,"1":-0.2122448980808258,"2":0.8739305734634399,"3":0.4557495415210724,"4":-0.5452967286109924,"5":0.652782678604126,"6":-0.20717275142669678,"7":1.121113657951355,"8":-0.026235047727823257,"9":-0.44249024987220764,"10":1.0836127996444702,"11":-0.5542024374008179,"12":-1.6213295459747314,"13":-0.6889894604682922,"14":0.4092332422733307,"15":0.2995452880859375,"16":0.030046822503209114,"17":-0.45483893156051636,"18":-0.5853962898254395,"19":-0.9033632278442383}}},{"inputMatrix":{"rows":20,"columns":20,"weights":{"0":0.2371029257774353,"1":-0.5301369428634644,"2":0.3177364766597748,"3":-1.1448330879211426,"4":1.8383334875106812,"5":-3.06491756439209,"6":2.5320985317230225,"7":5.497105121612549,"8":-3.3818089962005615,"9":3.0389504432678223,"10":0.876725435256958,"11":0.6383684873580933,"12":-2.1798107624053955,"13":1.575826644897461,"14":2.477816343307495,"15":1.8063634634017944,"16":1.80780827999115,"17":-1.157253384590149,"18":0.6340770721435547,"19":-0.7915598154067993,"20":-2.8956127166748047,"21":0.7243995666503906,"22":3.4436538219451904,"23":-0.1589558869600296,"24":-4.345848083496094,"25":-2.325749397277832,"26":-0.6544332504272461,"27":-0.12136533111333847,"28":2.075439214706421,"29":0.7467780709266663,"30":0.3824884593486786,"31":0.19863200187683105,"32":0.7360451221466064,"33":-1.1585034132003784,"34":-1.2963424921035767,"35":3.762953519821167,"36":2.761648416519165,"37":-3.4442105293273926,"38":-4.190151691436768,"39":0.2508185803890228,"40":1.402471661567688,"41":-2.381873846054077,"42":0.9097478985786438,"43":-2.055427074432373,"44":-1.306090235710144,"45":-1.2494789361953735,"46":0.7583461999893188,"47":0.750282883644104,"48":0.4820016324520111,"49":0.22997340559959412,"50":-0.6098906397819519,"51":-1.0797966718673706,"52":1.7084051370620728,"53":0.9035715460777283,"54":2.859205961227417,"55":-1.1683520078659058,"56":-2.554377555847168,"57":2.6097631454467773,"58":2.8681464195251465,"59":1.103032112121582,"60":3.2984607219696045,"61":-0.7856513261795044,"62":1.1670608520507812,"63":2.966244697570801,"64":2.1531569957733154,"65":1.622105360031128,"66":0.11888480931520462,"67":-0.6380341649055481,"68":-1.3127589225769043,"69":-0.6211952567100525,"70":0.9479911923408508,"71":2.411890983581543,"72":-0.17484381794929504,"73":0.8138568997383118,"74":0.020840244367718697,"75":-1.940811038017273,"76":-2.2786617279052734,"77":3.1685168743133545,"78":-0.9603058695793152,"79":-0.0403112955391407,"80":1.7372803688049316,"81":2.1819112300872803,"82":-1.3133140802383423,"83":-2.553457498550415,"84":2.4149343967437744,"85":0.32705050706863403,"86":1.6676197052001953,"87":0.059042226523160934,"88":0.6352290511131287,"89":-2.4888076782226562,"90":-0.10589466989040375,"91":-0.8721070289611816,"92":0.5080723166465759,"93":-1.524074912071228,"94":-2.406744956970215,"95":-0.35064637660980225,"96":1.3499575853347778,"97":0.2571970522403717,"98":0.3324511647224426,"99":0.5244548320770264,"100":-1.9393556118011475,"101":2.7229182720184326,"102":2.8588318824768066,"103":0.7665069103240967,"104":2.557562828063965,"105":-0.36655524373054504,"106":-1.1976680755615234,"107":-1.4113632440567017,"108":1.2087122201919556,"109":-0.5471970438957214,"110":0.7267846465110779,"111":-0.33318138122558594,"112":1.5048516988754272,"113":-3.1149063110351562,"114":-0.6792384386062622,"115":-3.2288644313812256,"116":0.30302852392196655,"117":1.5812804698944092,"118":-3.0655882358551025,"119":-0.16207261383533478,"120":-1.3852235078811646,"121":0.2965777516365051,"122":4.815664291381836,"123":-1.7249845266342163,"124":-1.854261040687561,"125":-1.3288586139678955,"126":0.0925396978855133,"127":3.90444278717041,"128":2.281465530395508,"129":3.0517141819000244,"130":3.0334737300872803,"131":-1.3846607208251953,"132":-1.1506307125091553,"133":-2.8619112968444824,"134":-2.5680501461029053,"135":-1.8337769508361816,"136":2.6832351684570312,"137":-2.1514663696289062,"138":4.13100528717041,"139":1.1302837133407593,"140":-2.468393325805664,"141":3.439136028289795,"142":0.42561638355255127,"143":0.01754007674753666,"144":-2.4131834506988525,"145":1.9443249702453613,"146":1.6776005029678345,"147":-1.9634051322937012,"148":2.727678060531616,"149":-0.9556788802146912,"150":1.2078115940093994,"151":-3.332263231277466,"152":-1.2910487651824951,"153":2.248131275177002,"154":0.6752364635467529,"155":0.3174665868282318,"156":-0.6857181787490845,"157":-1.2891252040863037,"158":0.34350699186325073,"159":-1.854880452156067,"160":2.3588104248046875,"161":2.63570499420166,"162":1.5648221969604492,"163":-0.9065082669258118,"164":-2.258701801300049,"165":-3.1506705284118652,"166":-1.0503281354904175,"167":-1.9891493320465088,"168":-0.348135769367218,"169":3.22135066986084,"170":-1.2475484609603882,"171":0.21968981623649597,"172":-3.6588082313537598,"173":0.29197391867637634,"174":-1.9048079252243042,"175":3.9448015689849854,"176":3.1783392429351807,"177":-4.003472805023193,"178":-3.208656072616577,"179":-2.295053720474243,"180":2.9238803386688232,"181":0.9030516743659973,"182":2.012287139892578,"183":-0.7884030342102051,"184":-0.4606624245643616,"185":-1.3032060861587524,"186":-1.4500136375427246,"187":-0.14919449388980865,"188":4.820237636566162,"189":-0.5874006748199463,"190":-0.5530458688735962,"191":0.40088990330696106,"192":-0.2327256053686142,"193":-0.1399523764848709,"194":-0.19190429151058197,"195":-4.327531337738037,"196":0.6635818481445312,"197":1.1865845918655396,"198":-3.502652168273926,"199":1.1435264348983765,"200":1.5090864896774292,"201":1.3851039409637451,"202":-1.135923981666565,"203":3.135598659515381,"204":2.312119722366333,"205":3.2420616149902344,"206":0.08504696190357208,"207":-1.1616367101669312,"208":0.31485411524772644,"209":-1.510632872581482,"210":-2.7631301879882812,"211":0.6675716042518616,"212":-0.9721393585205078,"213":1.1951324939727783,"214":-1.2469671964645386,"215":2.748619556427002,"216":-2.7127885818481445,"217":2.4791643619537354,"218":-3.225761890411377,"219":0.5439951419830322,"220":-1.2292087078094482,"221":2.131317615509033,"222":3.8951094150543213,"223":-3.0409226417541504,"224":-1.8971009254455566,"225":0.06079476326704025,"226":-1.1093344688415527,"227":0.43778279423713684,"228":4.601295471191406,"229":2.54544997215271,"230":-2.60330867767334,"231":-1.3711825609207153,"232":0.7558233141899109,"233":-1.3064427375793457,"234":-0.8566142320632935,"235":-2.263045072555542,"236":1.9662708044052124,"237":-2.999547243118286,"238":-4.15997838973999,"239":0.3847247064113617,"240":0.5389952659606934,"241":-0.5822538733482361,"242":4.080437660217285,"243":-1.7531535625457764,"244":-0.7607293725013733,"245":-3.4614577293395996,"246":2.9230661392211914,"247":-1.5985572338104248,"248":3.0777060985565186,"249":1.6706851720809937,"250":0.9530153274536133,"251":-2.290487051010132,"252":-4.177677631378174,"253":0.0212591253221035,"254":-0.7232584953308105,"255":0.4095284938812256,"256":-0.951812744140625,"257":1.6582310199737549,"258":-1.9740606546401978,"259":-1.3065871000289917,"260":0.3527648448944092,"261":0.5549252033233643,"262":-2.186020612716675,"263":-2.4069790840148926,"264":0.4419436752796173,"265":3.4729623794555664,"266":3.2773542404174805,"267":-0.3706197440624237,"268":-0.5564936995506287,"269":-1.3454314470291138,"270":-1.2333844900131226,"271":1.260499119758606,"272":0.6847177147865295,"273":1.4596728086471558,"274":0.7218565344810486,"275":-1.4257313013076782,"276":-1.7913873195648193,"277":-0.17809434235095978,"278":0.7735764384269714,"279":1.5520751476287842,"280":0.6707459688186646,"281":1.36142098903656,"282":3.25358510017395,"283":0.3589642345905304,"284":-3.474153995513916,"285":-1.9083236455917358,"286":-3.056544542312622,"287":-0.6136505603790283,"288":0.6433021426200867,"289":0.19758524000644684,"290":-1.7686874866485596,"291":-0.7718839645385742,"292":-1.596564531326294,"293":-1.2599685192108154,"294":-1.360679268836975,"295":-1.6613250970840454,"296":2.3193345069885254,"297":-2.590907335281372,"298":-2.617097854614258,"299":-1.7812851667404175,"300":-4.477785587310791,"301":1.3425257205963135,"302":3.342319965362549,"303":1.3650524616241455,"304":5.22538423538208,"305":-1.2972321510314941,"306":2.917842388153076,"307":1.1798890829086304,"308":0.5728287100791931,"309":1.010181188583374,"310":0.33742770552635193,"311":0.2278481274843216,"312":-1.3075491189956665,"313":0.9879774451255798,"314":2.621278762817383,"315":-6.582319736480713,"316":-1.7160221338272095,"317":1.0388867855072021,"318":3.5765492916107178,"319":-2.0066213607788086,"320":0.5777280926704407,"321":4.939127445220947,"322":0.7691461443901062,"323":-0.3844960331916809,"324":-1.9432538747787476,"325":2.6187870502471924,"326":-0.8483564257621765,"327":-0.29641178250312805,"328":4.5221405029296875,"329":-1.3840553760528564,"330":-0.6593197584152222,"331":0.2603118419647217,"332":1.5974435806274414,"333":-6.83322286605835,"334":-0.4523180425167084,"335":-0.5837315917015076,"336":0.2457914501428604,"337":0.6064996123313904,"338":0.272759348154068,"339":-0.6207270622253418,"340":-1.01094388961792,"341":1.9480477571487427,"342":0.42123979330062866,"343":-1.1172040700912476,"344":2.9788150787353516,"345":-0.08136750012636185,"346":-1.4062690734863281,"347":-0.2591593861579895,"348":3.951439380645752,"349":0.06107630208134651,"350":-0.9316557049751282,"351":0.422002911567688,"352":2.9533302783966064,"353":-0.8817381262779236,"354":-1.250407338142395,"355":-1.9853928089141846,"356":-2.4380738735198975,"357":0.12739001214504242,"358":-1.2852716445922852,"359":-0.17456361651420593,"360":0.12968608736991882,"361":1.4318395853042603,"362":0.34910163283348083,"363":-2.9740612506866455,"364":-1.1364588737487793,"365":0.5479848384857178,"366":0.830509603023529,"367":-0.9092398881912231,"368":-2.2432243824005127,"369":0.26503634452819824,"370":0.5492153167724609,"371":0.6862737536430359,"372":-0.337733656167984,"373":-1.2257863283157349,"374":-0.5614316463470459,"375":-0.1662537157535553,"376":0.6640912294387817,"377":-1.7028254270553589,"378":-1.5646226406097412,"379":-1.838988184928894,"380":0.46428290009498596,"381":-2.861647844314575,"382":-0.5956102013587952,"383":-0.0744893029332161,"384":-1.8255196809768677,"385":1.2932703495025635,"386":1.5872493982315063,"387":-2.080503225326538,"388":-0.8261723518371582,"389":0.7425214648246765,"390":-0.9400383830070496,"391":-0.9031587839126587,"392":-4.508161544799805,"393":-0.6570183634757996,"394":0.6776666045188904,"395":0.8289849758148193,"396":-0.9198951721191406,"397":1.5804082155227661,"398":2.0050063133239746,"399":0.8463335633277893}},"inputHidden":{"rows":20,"columns":20,"weights":{"0":1.054529070854187,"1":0.9444313049316406,"2":-0.49699851870536804,"3":-2.673398494720459,"4":-2.900261402130127,"5":0.8549766540527344,"6":-1.1999642848968506,"7":-4.539567947387695,"8":-2.550544261932373,"9":1.6608564853668213,"10":-2.2149386405944824,"11":1.392197608947754,"12":-2.335500478744507,"13":-1.5574920177459717,"14":-1.5158451795578003,"15":2.209301471710205,"16":0.5855993032455444,"17":2.109342098236084,"18":3.0515682697296143,"19":3.775378704071045,"20":0.6899309158325195,"21":-1.5845805406570435,"22":-2.6889326572418213,"23":-1.1474957466125488,"24":-0.9937973618507385,"25":0.20318782329559326,"26":3.733527421951294,"27":-1.5280041694641113,"28":-1.7432082891464233,"29":1.619787335395813,"30":0.8093443512916565,"31":1.262040376663208,"32":2.9515419006347656,"33":-2.671929359436035,"34":-1.8099799156188965,"35":-3.398346424102783,"36":2.587334394454956,"37":-1.7669954299926758,"38":-0.04808684065937996,"39":0.30337101221084595,"40":2.7148263454437256,"41":0.3764500916004181,"42":1.6777584552764893,"43":2.591353416442871,"44":2.4223544597625732,"45":3.8265023231506348,"46":-0.17667193710803986,"47":-1.7931522130966187,"48":-2.624415874481201,"49":4.767412185668945,"50":1.9540239572525024,"51":0.7328612208366394,"52":-1.0336084365844727,"53":6.927178382873535,"54":-1.6083239316940308,"55":1.6020647287368774,"56":-1.0929787158966064,"57":2.6588470935821533,"58":0.8988525867462158,"59":0.2886298894882202,"60":0.6259201169013977,"61":1.454993486404419,"62":-0.5423087477684021,"63":5.711654186248779,"64":0.7190235257148743,"65":-0.7269027829170227,"66":1.5695194005966187,"67":-2.1852004528045654,"68":0.3675050735473633,"69":-0.444533109664917,"70":-0.7813519835472107,"71":-1.486649513244629,"72":-1.3157559633255005,"73":1.8410439491271973,"74":-4.9291486740112305,"75":1.4426666498184204,"76":-3.879025936126709,"77":-0.35870105028152466,"78":1.4408690929412842,"79":-2.2965738773345947,"80":1.399899959564209,"81":-2.2416086196899414,"82":-1.398779034614563,"83":0.6039739847183228,"84":4.731377124786377,"85":-2.1890029907226562,"86":-0.1882566213607788,"87":1.1411268711090088,"88":1.3610659837722778,"89":-1.1276848316192627,"90":-3.067572832107544,"91":-1.2130310535430908,"92":1.7786024808883667,"93":-1.4480814933776855,"94":-1.0091960430145264,"95":-2.302072048187256,"96":-1.0311392545700073,"97":-4.592534065246582,"98":-2.6550679206848145,"99":-2.4978041648864746,"100":-0.5900213718414307,"101":-1.4897468090057373,"102":-3.499624729156494,"103":3.902151584625244,"104":0.1163908839225769,"105":-0.5448176860809326,"106":-0.4441167116165161,"107":-0.5074325799942017,"108":1.3125290870666504,"109":-2.865898609161377,"110":-0.6005871891975403,"111":-2.0483407974243164,"112":3.2714905738830566,"113":-1.9226478338241577,"114":-2.4944941997528076,"115":-1.5039575099945068,"116":-0.7247228026390076,"117":-0.9432933330535889,"118":-0.5675754547119141,"119":-2.0855488777160645,"120":0.28185343742370605,"121":2.0993666648864746,"122":1.7803772687911987,"123":-3.787848711013794,"124":-0.6756980419158936,"125":2.1228458881378174,"126":-0.26270291209220886,"127":-0.7431737184524536,"128":1.5104011297225952,"129":-0.35282430052757263,"130":-0.689628541469574,"131":0.5827211737632751,"132":-1.74390709400177,"133":0.9926583170890808,"134":-1.0647013187408447,"135":-0.4057290256023407,"136":-0.16817684471607208,"137":0.5944166779518127,"138":0.986784040927887,"139":0.6327397227287292,"140":0.9703200459480286,"141":-1.4995197057724,"142":-0.5063043832778931,"143":2.1028876304626465,"144":0.34819895029067993,"145":-0.8356899619102478,"146":2.116330146789551,"147":1.6103639602661133,"148":2.9392647743225098,"149":-1.3585352897644043,"150":-2.0117204189300537,"151":-0.13449786603450775,"152":-0.7064629793167114,"153":0.970708966255188,"154":-4.113655090332031,"155":0.40309906005859375,"156":-3.6194987297058105,"157":-3.9229509830474854,"158":1.1881322860717773,"159":0.06963521242141724,"160":-3.362243413925171,"161":-1.3727885484695435,"162":0.9725484251976013,"163":-0.038163866847753525,"164":-3.0868496894836426,"165":1.6741445064544678,"166":-0.2597067952156067,"167":-1.2321218252182007,"168":-2.3350141048431396,"169":3.1957602500915527,"170":-0.4691283702850342,"171":-0.8757395148277283,"172":-0.18974913656711578,"173":1.8470070362091064,"174":2.7314767837524414,"175":3.6408393383026123,"176":1.8243107795715332,"177":2.0405824184417725,"178":-1.4135076999664307,"179":0.4896344542503357,"180":-1.5974074602127075,"181":-1.9059978723526,"182":0.6314868927001953,"183":0.45848503708839417,"184":3.311511516571045,"185":-1.5760910511016846,"186":0.2866900861263275,"187":-0.8318437933921814,"188":-2.2536985874176025,"189":-0.8240031599998474,"190":-0.9880890846252441,"191":-2.5254390239715576,"192":-0.1741689145565033,"193":8.946223258972168,"194":-0.2541334927082062,"195":-4.7240824699401855,"196":-0.3896658718585968,"197":-1.8823798894882202,"198":1.2815544605255127,"199":-0.020617948845028877,"200":3.25293231010437,"201":1.6496447324752808,"202":1.782465934753418,"203":2.611133337020874,"204":3.240422010421753,"205":-1.336883306503296,"206":-2.066178560256958,"207":-1.2972973585128784,"208":0.5916687846183777,"209":-0.356532484292984,"210":0.5638853311538696,"211":-0.4042064845561981,"212":-1.9208035469055176,"213":1.2984057664871216,"214":2.7892916202545166,"215":7.869038105010986,"216":1.1194466352462769,"217":-3.8575940132141113,"218":-1.7745561599731445,"219":-4.110780715942383,"220":2.4230940341949463,"221":0.48266592621803284,"222":-1.0942918062210083,"223":2.3036653995513916,"224":-0.164725199341774,"225":2.638950824737549,"226":4.2996625900268555,"227":0.5510157942771912,"228":-0.4586021304130554,"229":1.022323489189148,"230":-1.2449452877044678,"231":-3.310281276702881,"232":3.7414865493774414,"233":0.5736878514289856,"234":-2.3909804821014404,"235":-0.3463338315486908,"236":0.31281182169914246,"237":-1.709532618522644,"238":-0.09670102596282959,"239":3.7833096981048584,"240":1.0828478336334229,"241":-3.1408851146698,"242":4.142115592956543,"243":0.8444064855575562,"244":0.8510758876800537,"245":0.7982449531555176,"246":4.82090950012207,"247":2.163625717163086,"248":-2.7035624980926514,"249":0.5005335211753845,"250":2.5259134769439697,"251":2.3531854152679443,"252":3.034773826599121,"253":0.2324700504541397,"254":-2.3821640014648438,"255":0.7176287174224854,"256":0.9869735836982727,"257":-1.2413783073425293,"258":-1.734023928642273,"259":3.110849618911743,"260":3.997236728668213,"261":0.7228291034698486,"262":-3.025148868560791,"263":-3.898287773132324,"264":0.2780873775482178,"265":-4.170306205749512,"266":1.590263843536377,"267":-0.7397608160972595,"268":-3.0627527236938477,"269":1.257859706878662,"270":1.5579288005828857,"271":-0.6759682297706604,"272":1.4128144979476929,"273":1.2871053218841553,"274":1.7889822721481323,"275":-3.9211068153381348,"276":0.7272725105285645,"277":0.018861927092075348,"278":-0.14389444887638092,"279":1.4495378732681274,"280":-2.193020820617676,"281":-1.3027969598770142,"282":-1.6468065977096558,"283":-0.20782384276390076,"284":0.09554331004619598,"285":-0.1474267691373825,"286":3.5658087730407715,"287":-1.4585456848144531,"288":-1.1024999618530273,"289":3.0748085975646973,"290":-1.244991660118103,"291":4.818408012390137,"292":1.3596327304840088,"293":3.8344757556915283,"294":-2.0995516777038574,"295":2.791703701019287,"296":2.0722296237945557,"297":2.9007465839385986,"298":-1.818052053451538,"299":0.9593720436096191,"300":2.1966183185577393,"301":-0.11171595752239227,"302":1.0415387153625488,"303":-2.531817674636841,"304":0.7379892468452454,"305":-1.0055850744247437,"306":1.1014573574066162,"307":1.3271738290786743,"308":3.906085729598999,"309":-1.515072226524353,"310":-3.3191604614257812,"311":2.3125381469726562,"312":-1.2475014925003052,"313":-0.6797253489494324,"314":-1.8166472911834717,"315":2.961353063583374,"316":-0.9174967408180237,"317":1.4661672115325928,"318":3.0479698181152344,"319":-0.4929099380970001,"320":2.6172478199005127,"321":6.1382060050964355,"322":0.5678699612617493,"323":1.134223222732544,"324":-1.2627290487289429,"325":-0.8205035924911499,"326":0.5955038070678711,"327":0.7130522131919861,"328":-1.3084547519683838,"329":-2.2299065589904785,"330":-3.1198692321777344,"331":2.6102030277252197,"332":1.6641618013381958,"333":1.8900766372680664,"334":-1.34708833694458,"335":1.1435543298721313,"336":3.6849677562713623,"337":0.40801653265953064,"338":1.7587594985961914,"339":0.29992902278900146,"340":2.409306526184082,"341":0.5550463199615479,"342":-4.858506202697754,"343":-4.924836158752441,"344":-2.1055824756622314,"345":1.9677858352661133,"346":1.9667595624923706,"347":-2.2205355167388916,"348":-3.3543055057525635,"349":0.2474726289510727,"350":0.7828394770622253,"351":0.10418359935283661,"352":3.515779733657837,"353":-4.56539249420166,"354":-2.735811710357666,"355":-0.1747255176305771,"356":1.3099802732467651,"357":1.4315739870071411,"358":2.8024470806121826,"359":-0.05150654911994934,"360":-0.9167140126228333,"361":-1.0493512153625488,"362":2.276939868927002,"363":1.9090534448623657,"364":-2.043468713760376,"365":6.200887680053711,"366":-0.33830001950263977,"367":-0.7747215628623962,"368":-1.83371901512146,"369":3.0388245582580566,"370":2.496084451675415,"371":1.0780563354492188,"372":0.7977800369262695,"373":-0.9831643104553223,"374":-4.172375202178955,"375":0.8769543766975403,"376":0.5064035654067993,"377":4.098203659057617,"378":0.6854735016822815,"379":0.8170134425163269,"380":-2.3167760372161865,"381":-1.4373055696487427,"382":0.9613074064254761,"383":4.301124572753906,"384":1.62637197971344,"385":-3.293907403945923,"386":-1.26421058177948,"387":2.980055809020996,"388":0.6064215302467346,"389":-3.9473047256469727,"390":-2.599985361099243,"391":-1.8836930990219116,"392":-0.07526297867298126,"393":1.092840313911438,"394":1.5144189596176147,"395":-1.6852279901504517,"396":-2.5515542030334473,"397":-0.054984837770462036,"398":-3.4569461345672607,"399":1.6397205591201782}},"inputBias":{"rows":20,"columns":1,"weights":{"0":5.713573932647705,"1":0.5834553241729736,"2":-0.02616952918469906,"3":0.5979601740837097,"4":-0.14423391222953796,"5":-1.3920085430145264,"6":2.118231773376465,"7":0.7968066334724426,"8":3.7173452377319336,"9":1.4557182788848877,"10":-3.483828544616699,"11":-0.35091572999954224,"12":-0.5902909636497498,"13":2.9180731773376465,"14":-0.3556615114212036,"15":0.5910711884498596,"16":-1.0961652994155884,"17":2.4364545345306396,"18":0.678647518157959,"19":1.4841694831848145}},"forgetMatrix":{"rows":20,"columns":20,"weights":{"0":0.5322819352149963,"1":-0.5430409908294678,"2":1.9104350805282593,"3":-1.6975553035736084,"4":-1.8151241540908813,"5":1.086167812347412,"6":-0.6306005120277405,"7":0.6224598288536072,"8":-4.576756954193115,"9":0.9833191633224487,"10":1.8015971183776855,"11":-1.6166139841079712,"12":-2.083932638168335,"13":-0.7542898654937744,"14":-1.2635130882263184,"15":1.940751552581787,"16":2.735400438308716,"17":-2.3781239986419678,"18":-2.1181910037994385,"19":-0.8525118231773376,"20":-1.743920087814331,"21":0.8421082496643066,"22":0.48473042249679565,"23":1.2032521963119507,"24":-0.07706902176141739,"25":-0.7984775900840759,"26":1.389128565788269,"27":1.1766116619110107,"28":-0.07047980278730392,"29":-0.8806138634681702,"30":1.359209656715393,"31":0.6843520998954773,"32":-2.856888771057129,"33":1.1472539901733398,"34":0.06089424714446068,"35":1.4092615842819214,"36":1.3579055070877075,"37":-0.8760954141616821,"38":-1.2938586473464966,"39":-0.8132523894309998,"40":-0.023864608258008957,"41":2.1590499877929688,"42":4.150984764099121,"43":1.6373358964920044,"44":-4.020473957061768,"45":1.1305391788482666,"46":-0.7298812866210938,"47":-0.08669701218605042,"48":1.5789400339126587,"49":-0.48048126697540283,"50":3.7885501384735107,"51":-1.0586109161376953,"52":0.2591114640235901,"53":-1.0526677370071411,"54":1.40825617313385,"55":0.6781449317932129,"56":2.6103944778442383,"57":-2.1452739238739014,"58":0.11311867833137512,"59":0.34482499957084656,"60":0.4545489251613617,"61":0.49342450499534607,"62":2.3741555213928223,"63":-1.183107614517212,"64":-0.7543345093727112,"65":-0.5296293497085571,"66":1.2539807558059692,"67":1.1273609399795532,"68":2.0719990730285645,"69":1.6992965936660767,"70":1.1598999500274658,"71":-0.7778770327568054,"72":-0.08266910165548325,"73":3.929248571395874,"74":2.2837815284729004,"75":3.38867449760437,"76":1.4827027320861816,"77":-1.2676386833190918,"78":3.1606221199035645,"79":1.7729941606521606,"80":0.15647810697555542,"81":2.346336841583252,"82":-0.24378657341003418,"83":-0.8875494599342346,"84":-0.7301236987113953,"85":-2.0598037242889404,"86":-3.493077278137207,"87":8.328484535217285,"88":2.374375820159912,"89":0.029808927327394485,"90":-2.5990514755249023,"91":2.464360237121582,"92":2.818236827850342,"93":-1.096611499786377,"94":0.3633516728878021,"95":2.673085927963257,"96":-0.15208928287029266,"97":1.3665624856948853,"98":3.7699790000915527,"99":2.8487191200256348,"100":-1.132293939590454,"101":-1.2610979080200195,"102":1.1122674942016602,"103":3.208829164505005,"104":0.37394434213638306,"105":-0.8236309885978699,"106":-0.1113768145442009,"107":-3.6634185314178467,"108":-1.2943809032440186,"109":-1.8616187572479248,"110":2.7701239585876465,"111":-0.4865371882915497,"112":5.343681335449219,"113":1.2552571296691895,"114":-1.668444037437439,"115":2.2056026458740234,"116":0.2500171661376953,"117":0.6985958814620972,"118":-2.294567108154297,"119":-2.199000120162964,"120":-1.617318868637085,"121":-2.896141290664673,"122":-1.4610769748687744,"123":2.512544631958008,"124":0.8586925864219666,"125":1.0853071212768555,"126":0.8118926286697388,"127":-3.3015453815460205,"128":0.10960619151592255,"129":0.13804754614830017,"130":1.3688132762908936,"131":1.3307640552520752,"132":0.5968182682991028,"133":0.23805034160614014,"134":2.753732919692993,"135":0.16187618672847748,"136":-0.07116886973381042,"137":-0.20025843381881714,"138":-0.5960931181907654,"139":-1.5634311437606812,"140":-0.9279392957687378,"141":1.6760430335998535,"142":0.05300791189074516,"143":0.3744598627090454,"144":-1.1378878355026245,"145":0.4836999773979187,"146":0.7635332345962524,"147":-1.4400453567504883,"148":2.3662002086639404,"149":-1.3011165857315063,"150":-1.0014684200286865,"151":-3.076111316680908,"152":0.5267796516418457,"153":1.3428914546966553,"154":0.42797258496284485,"155":-1.2310760021209717,"156":-0.08646697551012039,"157":1.2003885507583618,"158":0.3533935546875,"159":0.0350627563893795,"160":-0.2679981291294098,"161":2.06058931350708,"162":-0.22895707190036774,"163":-0.8329687714576721,"164":1.3842915296554565,"165":0.8114469051361084,"166":-1.689530372619629,"167":-0.3328111171722412,"168":0.8089529871940613,"169":1.066361427307129,"170":0.8796469569206238,"171":-0.28742361068725586,"172":-1.0002180337905884,"173":0.4623795449733734,"174":-0.492229700088501,"175":-0.08771144598722458,"176":-1.4382591247558594,"177":-0.03133119270205498,"178":-1.9603345394134521,"179":-0.6465895175933838,"180":-2.307628631591797,"181":0.27642056345939636,"182":-1.1822940111160278,"183":1.4681918621063232,"184":0.9846031069755554,"185":-1.1664690971374512,"186":-2.5628702640533447,"187":-1.4431006908416748,"188":-2.2296178340911865,"189":3.5763494968414307,"190":-1.927291750907898,"191":1.1463375091552734,"192":0.7771705985069275,"193":-2.227670431137085,"194":-1.7551913261413574,"195":-1.3418110609054565,"196":0.7642912268638611,"197":-2.6026511192321777,"198":-3.04996919631958,"199":-1.9853817224502563,"200":-0.4684179127216339,"201":0.9881526827812195,"202":-0.1725054532289505,"203":-1.0314221382141113,"204":-3.014108657836914,"205":-0.39111754298210144,"206":-0.3910834789276123,"207":-4.506709098815918,"208":1.0209604501724243,"209":0.3890607953071594,"210":-0.11735501140356064,"211":-2.6076855659484863,"212":4.276182174682617,"213":-0.18855515122413635,"214":2.501889944076538,"215":2.6398565769195557,"216":-0.224425807595253,"217":0.003899971954524517,"218":-2.8259925842285156,"219":2.273793935775757,"220":0.027037814259529114,"221":1.1096769571304321,"222":-0.5990806818008423,"223":-0.2840224802494049,"224":0.6300283074378967,"225":1.603743553161621,"226":-0.969775378704071,"227":-0.8698089122772217,"228":1.822469711303711,"229":1.281347632408142,"230":-2.7844600677490234,"231":3.813978910446167,"232":0.5099236369132996,"233":-1.3541520833969116,"234":0.31271636486053467,"235":-1.089203953742981,"236":-2.2918596267700195,"237":1.5551329851150513,"238":-1.2896664142608643,"239":-0.18505360186100006,"240":-0.6804897785186768,"241":0.6958863735198975,"242":3.1280081272125244,"243":0.11975798010826111,"244":-0.5763044953346252,"245":0.20693087577819824,"246":1.6152031421661377,"247":2.7292747497558594,"248":2.54803729057312,"249":0.7256714701652527,"250":-0.5424085259437561,"251":-0.9261602163314819,"252":0.23530074954032898,"253":2.083606004714966,"254":-0.5605574250221252,"255":1.7384812831878662,"256":0.5496046543121338,"257":-1.1994775533676147,"258":-3.059823989868164,"259":0.10481126606464386,"260":-1.4358783960342407,"261":-1.4547443389892578,"262":0.4020865559577942,"263":0.2760184705257416,"264":-1.5566637516021729,"265":0.5285636186599731,"266":2.810152530670166,"267":-1.4159575700759888,"268":0.6213473677635193,"269":1.304053544998169,"270":2.9137120246887207,"271":-1.2465518712997437,"272":-0.9144013524055481,"273":1.001973032951355,"274":0.8544521927833557,"275":3.456723690032959,"276":0.442284494638443,"277":-1.2322087287902832,"278":0.32577165961265564,"279":0.188504159450531,"280":-1.9341353178024292,"281":2.273723602294922,"282":-0.3925088346004486,"283":0.3533930480480194,"284":-2.2736244201660156,"285":-2.9041972160339355,"286":-3.09911847114563,"287":1.1818689107894897,"288":0.318183571100235,"289":0.8398639559745789,"290":0.40994223952293396,"291":0.9515111446380615,"292":-0.8163511157035828,"293":0.541597306728363,"294":-1.8562787771224976,"295":1.6208372116088867,"296":1.9771720170974731,"297":-3.8699724674224854,"298":-2.142958641052246,"299":-1.4589354991912842,"300":-2.6043906211853027,"301":-1.8441922664642334,"302":-2.35024094581604,"303":0.46331241726875305,"304":6.091285228729248,"305":1.087722659111023,"306":2.224536180496216,"307":-9.09457778930664,"308":-2.571131944656372,"309":-0.009856408461928368,"310":-1.6723377704620361,"311":2.4970200061798096,"312":-1.6981103420257568,"313":-1.4150420427322388,"314":0.43793046474456787,"315":0.9436671733856201,"316":-0.2720874845981598,"317":-0.2613396644592285,"318":-0.9161112904548645,"319":-1.3420428037643433,"320":-0.32774442434310913,"321":4.150636196136475,"322":1.6383479833602905,"323":-0.44429290294647217,"324":2.226271152496338,"325":3.68086576461792,"326":-1.191877841949463,"327":-0.3555369973182678,"328":3.4879846572875977,"329":-3.7105395793914795,"330":-1.8776921033859253,"331":0.6308809518814087,"332":0.4371286928653717,"333":0.9828705787658691,"334":-6.277222633361816,"335":-0.8187335729598999,"336":-0.650268018245697,"337":1.4153190851211548,"338":-4.385044097900391,"339":3.071432590484619,"340":-0.6237470507621765,"341":1.3253250122070312,"342":-3.1276495456695557,"343":1.0600736141204834,"344":1.0102301836013794,"345":1.3514831066131592,"346":0.07619921863079071,"347":0.3428705930709839,"348":3.8923916816711426,"349":1.319080114364624,"350":1.1005903482437134,"351":0.4669724702835083,"352":0.5719916820526123,"353":1.8315399885177612,"354":0.7725055813789368,"355":-1.7170227766036987,"356":-1.6253933906555176,"357":1.071361780166626,"358":0.17732298374176025,"359":1.6707264184951782,"360":-2.776005268096924,"361":-1.5630959272384644,"362":1.0347274541854858,"363":-0.4803217053413391,"364":-1.0188920497894287,"365":0.49981507658958435,"366":0.07855414599180222,"367":-0.6684408783912659,"368":-0.7390363216400146,"369":1.112937092781067,"370":2.18182373046875,"371":0.48503103852272034,"372":-0.15933898091316223,"373":-0.15553471446037292,"374":0.8598362803459167,"375":1.1217809915542603,"376":0.6194779872894287,"377":-0.9197635054588318,"378":0.42287901043891907,"379":-0.18302564322948456,"380":-7.599273681640625,"381":-0.31181666254997253,"382":4.201611518859863,"383":1.9118454456329346,"384":-5.572973728179932,"385":3.6137166023254395,"386":0.13912686705589294,"387":1.5098425149917603,"388":2.4289605617523193,"389":0.9644534587860107,"390":1.861325740814209,"391":-0.9535126686096191,"392":2.1229488849639893,"393":2.1168293952941895,"394":-0.6125174760818481,"395":-0.5258767008781433,"396":0.9753138422966003,"397":1.1620670557022095,"398":-2.2108099460601807,"399":-0.5959463119506836}},"forgetHidden":{"rows":20,"columns":20,"weights":{"0":0.2469376027584076,"1":2.4241762161254883,"2":1.6469635963439941,"3":1.4738233089447021,"4":0.9762423038482666,"5":0.5475221872329712,"6":-0.17924469709396362,"7":-0.7003248333930969,"8":0.3799664080142975,"9":1.3549895286560059,"10":-1.2900645732879639,"11":-0.4350762963294983,"12":1.5205833911895752,"13":1.100495457649231,"14":-3.252805709838867,"15":3.034585952758789,"16":2.5389533042907715,"17":1.236586332321167,"18":-2.4825780391693115,"19":1.7592633962631226,"20":0.8692235350608826,"21":-0.10333159565925598,"22":0.7822751998901367,"23":0.37709784507751465,"24":6.166449069976807,"25":-0.2424069195985794,"26":2.214040756225586,"27":0.041291527450084686,"28":2.588751792907715,"29":-2.589259624481201,"30":-3.6928977966308594,"31":-0.9304497241973877,"32":-0.2408348172903061,"33":-1.3861525058746338,"34":-0.8356181979179382,"35":0.9215064644813538,"36":-0.8349557518959045,"37":-2.4107515811920166,"38":1.7646970748901367,"39":1.0181249380111694,"40":-2.7182505130767822,"41":-2.2983169555664062,"42":2.791907787322998,"43":-1.4779235124588013,"44":3.4152402877807617,"45":0.6199350953102112,"46":-1.3239216804504395,"47":0.060039859265089035,"48":0.049948886036872864,"49":-0.5852739214897156,"50":-2.343217134475708,"51":-1.5530260801315308,"52":-1.1657052040100098,"53":-1.9000619649887085,"54":1.9231479167938232,"55":1.0399588346481323,"56":1.5156090259552002,"57":0.1617540419101715,"58":1.7181196212768555,"59":0.9388372302055359,"60":1.338037371635437,"61":3.7679922580718994,"62":1.856400966644287,"63":-1.0700777769088745,"64":2.9655094146728516,"65":-0.3169727921485901,"66":1.4995404481887817,"67":-0.892508864402771,"68":-0.839262068271637,"69":0.46010056138038635,"70":-0.5088979005813599,"71":2.058316707611084,"72":0.15009751915931702,"73":-1.8403255939483643,"74":0.25813236832618713,"75":-1.0013526678085327,"76":1.1233419179916382,"77":1.342241883277893,"78":3.4076035022735596,"79":0.9215812087059021,"80":0.8143389821052551,"81":-1.4447839260101318,"82":-1.9010852575302124,"83":-2.5582988262176514,"84":4.002910614013672,"85":0.39818084239959717,"86":2.650737762451172,"87":1.7436461448669434,"88":3.235137939453125,"89":-3.5874266624450684,"90":-5.449597358703613,"91":-2.4188263416290283,"92":1.7633728981018066,"93":-2.3555221557617188,"94":2.1712934970855713,"95":1.6241455078125,"96":2.8513944149017334,"97":-1.0565221309661865,"98":2.014862537384033,"99":1.7871869802474976,"100":-1.761077642440796,"101":1.1126844882965088,"102":-0.5506617426872253,"103":-0.008863810449838638,"104":-1.3638867139816284,"105":-1.3299325704574585,"106":0.46298864483833313,"107":2.5834462642669678,"108":2.9807939529418945,"109":-2.707789182662964,"110":-1.5197036266326904,"111":-0.512202799320221,"112":4.194552421569824,"113":0.9774253964424133,"114":-1.5184639692306519,"115":-1.2591222524642944,"116":-2.115460157394409,"117":-2.3403398990631104,"118":-1.2846899032592773,"119":1.3958688974380493,"120":-0.26481837034225464,"121":1.867746353149414,"122":-1.2092726230621338,"123":-4.358366966247559,"124":-2.0559611320495605,"125":-2.304570198059082,"126":1.9378679990768433,"127":0.788753867149353,"128":-0.2816086411476135,"129":0.9288582801818848,"130":5.703981399536133,"131":1.0061008930206299,"132":-0.4942624866962433,"133":0.5188219547271729,"134":0.2144942432641983,"135":-1.5103312730789185,"136":-0.8905459642410278,"137":0.3873212933540344,"138":-1.9146641492843628,"139":-0.7166240215301514,"140":-2.9891257286071777,"141":-1.503159761428833,"142":-0.9794272184371948,"143":-0.2104049175977707,"144":1.4694064855575562,"145":-3.121793270111084,"146":0.355305939912796,"147":3.010423183441162,"148":2.4491465091705322,"149":-1.9547115564346313,"150":-1.1555267572402954,"151":-0.18782217800617218,"152":-0.21717305481433868,"153":-0.8706085681915283,"154":-1.450364351272583,"155":-1.6177818775177002,"156":-2.870250701904297,"157":-2.4803318977355957,"158":-0.8274484872817993,"159":-0.7708396911621094,"160":-1.6728955507278442,"161":-0.7256481647491455,"162":0.29352256655693054,"163":1.2603453397750854,"164":-2.362910270690918,"165":0.5672673583030701,"166":-1.1479827165603638,"167":-0.46908631920814514,"168":0.223973348736763,"169":1.1308759450912476,"170":1.2464582920074463,"171":-0.621843695640564,"172":1.7753604650497437,"173":-0.49543923139572144,"174":-0.24165813624858856,"175":3.33489990234375,"176":1.2414911985397339,"177":-2.468799352645874,"178":0.021936887875199318,"179":2.6524763107299805,"180":0.5470970273017883,"181":3.3329756259918213,"182":-2.227234125137329,"183":-4.645688056945801,"184":0.466247022151947,"185":-1.140592098236084,"186":-1.5627756118774414,"187":-1.788441777229309,"188":-0.8005974292755127,"189":0.7489563226699829,"190":-1.8255205154418945,"191":-3.4042716026306152,"192":4.874185085296631,"193":-1.242687463760376,"194":-0.8552408218383789,"195":-0.9050459861755371,"196":0.5094863176345825,"197":-3.110680341720581,"198":-1.8374333381652832,"199":1.1732548475265503,"200":1.5447602272033691,"201":0.6279594302177429,"202":-0.5982686877250671,"203":3.5464043617248535,"204":1.3016947507858276,"205":1.0463917255401611,"206":0.5215597152709961,"207":-3.113929033279419,"208":0.6288129091262817,"209":0.4144500195980072,"210":-2.508445978164673,"211":4.228313446044922,"212":-2.9004533290863037,"213":-2.0449070930480957,"214":-1.4005162715911865,"215":-0.05580272153019905,"216":0.3681010603904724,"217":2.5288965702056885,"218":0.06466600298881531,"219":-1.431766152381897,"220":-0.4704592823982239,"221":-3.225504159927368,"222":-0.717138946056366,"223":2.682053804397583,"224":-2.954652786254883,"225":0.9750625491142273,"226":0.9151169061660767,"227":-0.6917303204536438,"228":-1.8646495342254639,"229":1.3187248706817627,"230":0.7058919072151184,"231":3.395381450653076,"232":-2.450037956237793,"233":1.398813009262085,"234":-2.234051465988159,"235":-0.05052165314555168,"236":-1.5751497745513916,"237":0.3709830343723297,"238":-0.5157870054244995,"239":-0.8979984521865845,"240":-1.6091805696487427,"241":-0.3568408787250519,"242":1.5001981258392334,"243":-2.8451526165008545,