{"type":"LSTM","options":{"inputSize":8,"inputRange":8,"hiddenLayers":[20,20],"outputSize":8,"decayRate":0.999,"smoothEps":1e-8,"regc":0.000001,"clipval":5,"maxPredictionLength":100,"dataFormatter":{"indexTable":{"h":0,"e":1,"l":2,"o":3,"i":4,"stop-input":5,"start-output":6,"unrecognized":7},"characterTable":{"0":"h","1":"e","2":"l","3":"o","4":"i","5":null,"6":null,"7":null},"values":["hello","hi"],"characters":["h","e","l","o","i","stop-input","start-output","unrecognized"],"specialIndexes":[5,6,7]}},"input":{"rows":9,"columns":8,"weights":{"0":-0.7089676260948181,"1":-0.5785265564918518,"2":0.1368872970342636,"3":-0.7708558440208435,"4":0.8221428394317627,"5":1.2841631174087524,"6":1.3470335006713867,"7":-0.6845952868461609,"8":-0.3860308825969696,"9":-1.6674326658248901,"10":-1.4160873889923096,"11":-0.450567364692688,"12":0.7380653619766235,"13":0.374953955411911,"14":-0.307829350233078,"15":-1.195141077041626,"16":0.2217368185520172,"17":-0.8531346321105957,"18":-0.2038150280714035,"19":-0.1661507487297058,"20":0.054569922387599945,"21":1.495760440826416,"22":-0.026557965204119682,"23":-0.5800492763519287,"24":0.38808467984199524,"25":-2.005122661590576,"26":0.20298738777637482,"27":1.0981415510177612,"28":-0.5058472752571106,"29":1.4979702234268188,"30":-1.026882529258728,"31":0.3557841181755066,"32":0.04132042080163956,"33":-1.0953400135040283,"34":-0.12393222004175186,"35":-0.13243204355239868,"36":0.3012487590312958,"37":-0.675112247467041,"38":0.38312557339668274,"39":-0.04283731058239937,"40":-0.6875216960906982,"41":0.058938588947057724,"42":0.5559037923812866,"43":-1.0697228908538818,"44":0.7407246232032776,"45":-0.4619026184082031,"46":0.7232796549797058,"47":-0.7104830741882324,"48":-0.20459552109241486,"49":2.633584499359131,"50":0.7796846628189087,"51":-0.5993223190307617,"52":0.4333900511264801,"53":-0.8958056569099426,"54":0.8877412676811218,"55":-0.17916041612625122,"56":0.47634363174438477,"57":2.032203435897827,"58":0.9159466624259949,"59":0.5255430936813354,"60":-0.3595243990421295,"61":-1.8163766860961914,"62":-0.30146220326423645,"63":1.0920839309692383,"64":-1.7137812376022339,"65":0.4043174386024475,"66":-1.6718080043792725,"67":-1.9090064764022827,"68":1.635677456855774,"69":-1.9131932258605957,"70":1.5230125188827515,"71":-1.9642572402954102}},"hiddenLayers":[{"inputMatrix":{"rows":20,"columns":8,"weights":{"0":1.0551282167434692,"1":1.8944319486618042,"2":1.8053909540176392,"3":0.5120729207992554,"4":-0.8383524417877197,"5":-0.6288624405860901,"6":-0.603463351726532,"7":0.8568047285079956,"8":0.5038668513298035,"9":1.3490314483642578,"10":0.3941100537776947,"11":0.2701469659805298,"12":0.010780282318592072,"13":-0.5886688232421875,"14":-0.3836648166179657,"15":0.5829188823699951,"16":0.973563551902771,"17":0.8290963172912598,"18":-0.6506943106651306,"19":-0.16209298372268677,"20":-0.28409650921821594,"21":-0.3899390399456024,"22":-0.050303805619478226,"23":-0.06896442919969559,"24":-0.4623354971408844,"25":1.7669416666030884,"26":-0.7523235082626343,"27":-0.7450406551361084,"28":0.4702166020870209,"29":-2.772089719772339,"30":0.3574349582195282,"31":-0.7838634252548218,"32":-0.317405104637146,"33":-1.3179231882095337,"34":0.1627952754497528,"35":-0.5188342332839966,"36":1.3541334867477417,"37":0.050648417323827744,"38":0.09436541795730591,"39":-0.7363383173942566,"40":0.045162383466959,"41":-0.8092061877250671,"42":0.09401434659957886,"43":-1.3196206092834473,"44":0.2414308339357376,"45":0.36429768800735474,"46":1.4105510711669922,"47":-0.04171197488903999,"48":1.0719506740570068,"49":1.12054443359375,"50":2.5804879665374756,"51":1.1178532838821411,"52":-1.4476079940795898,"53":-0.057161908596754074,"54":-0.40017053484916687,"55":1.9249322414398193,"56":1.5003681182861328,"57":1.7307595014572144,"58":1.4782214164733887,"59":0.28918254375457764,"60":-1.6559526920318604,"61":-0.9846486449241638,"62":-1.2012982368469238,"63":0.8168547749519348,"64":-0.6226604580879211,"65":1.5879709720611572,"66":-0.2801779806613922,"67":-1.1346014738082886,"68":0.433066189289093,"69":-1.044808268547058,"70":-0.5458310842514038,"71":-1.7099483013153076,"72":0.3692634403705597,"73":2.382063150405884,"74":0.3484097123146057,"75":0.3559645712375641,"76":-0.0781714916229248,"77":-0.472116619348526,"78":-0.8300037384033203,"79":0.17052434384822845,"80":-0.4241250157356262,"81":-1.1421756744384766,"82":0.23947617411613464,"83":0.1209750548005104,"84":0.5438700914382935,"85":1.6699038743972778,"86":-0.3995346426963806,"87":-0.6540082097053528,"88":0.8490377068519592,"89":-0.06544659286737442,"90":2.812908887863159,"91":2.000560760498047,"92":-1.3242576122283936,"93":-0.058831844478845596,"94":0.10468093305826187,"95":1.6364085674285889,"96":0.6636192798614502,"97":-0.0019226245349273086,"98":0.20565083622932434,"99":0.05106270685791969,"100":-0.8294520378112793,"101":0.02080227993428707,"102":-0.4489622414112091,"103":-0.46201056241989136,"104":-1.0042730569839478,"105":1.0059927701950073,"106":0.027287105098366737,"107":-1.4615962505340576,"108":1.026106834411621,"109":-0.8269640803337097,"110":0.535635232925415,"111":-0.8735771775245667,"112":0.06668370217084885,"113":0.680871844291687,"114":-0.9907813668251038,"115":-0.16543076932430267,"116":0.029341867193579674,"117":-1.3098528385162354,"118":0.4016338884830475,"119":0.02323506399989128,"120":-0.9894229173660278,"121":1.9337224960327148,"122":0.521013617515564,"123":-1.1692970991134644,"124":0.7841675281524658,"125":-1.206939458847046,"126":0.7860018014907837,"127":-0.7947449088096619,"128":-0.5488138794898987,"129":1.079265832901001,"130":-1.0797709226608276,"131":-0.8042162656784058,"132":0.5605413913726807,"133":-1.2760637998580933,"134":0.4171614348888397,"135":-1.3460007905960083,"136":-0.12655402719974518,"137":1.0093621015548706,"138":-0.5576136112213135,"139":-0.2325890064239502,"140":0.057661689817905426,"141":-1.3705871105194092,"142":0.4131292700767517,"143":-0.08918393403291702,"144":1.29619300365448,"145":-1.6232235431671143,"146":0.2095527946949005,"147":1.1420899629592896,"148":-1.1205247640609741,"149":0.7721467018127441,"150":-0.613492488861084,"151":1.0934269428253174,"152":-0.7297074198722839,"153":0.32358285784721375,"154":-0.9719921946525574,"155":-1.4498032331466675,"156":1.7762905359268188,"157":-0.6315392851829529,"158":1.9576549530029297,"159":-1.4354082345962524}},"inputHidden":{"rows":20,"columns":20,"weights":{"0":-0.22584690153598785,"1":0.656941831111908,"2":0.7620887756347656,"3":0.4728721082210541,"4":0.7348443865776062,"5":0.9192017912864685,"6":0.8043608069419861,"7":-2.5310611724853516,"8":-0.8718840479850769,"9":0.7672860622406006,"10":1.1583200693130493,"11":1.1385011672973633,"12":0.33770501613616943,"13":0.8406876921653748,"14":-0.31715190410614014,"15":1.6597933769226074,"16":0.3607690632343292,"17":0.2953743040561676,"18":1.2557235956192017,"19":-0.699116051197052,"20":-0.1014653667807579,"21":-0.6845149397850037,"22":1.3880069255828857,"23":0.6454135775566101,"24":-0.6777633428573608,"25":0.44384393095970154,"26":0.42814525961875916,"27":-0.07650312781333923,"28":-0.5501667857170105,"29":-0.43967244029045105,"30":1.1891196966171265,"31":-0.13536705076694489,"32":-0.8881434798240662,"33":-1.1121156215667725,"34":-1.4492568969726562,"35":-0.17909455299377441,"36":-1.1075738668441772,"37":1.22786283493042,"38":0.8932660222053528,"39":0.0047877137549221516,"40":-1.161358118057251,"41":-0.2770334482192993,"42":-0.09236866235733032,"43":-1.357445478439331,"44":-0.1794007569551468,"45":-2.3008909225463867,"46":0.2019367665052414,"47":-0.7326439023017883,"48":1.8591114282608032,"49":1.1734639406204224,"50":-1.6943823099136353,"51":0.9963652491569519,"52":0.8219075202941895,"53":-2.5735971927642822,"54":-0.6883536577224731,"55":1.2835320234298706,"56":-0.41050153970718384,"57":0.6152780055999756,"58":-1.283589482307434,"59":-2.079862117767334,"60":-0.7572864294052124,"61":1.104142189025879,"62":-0.6722759008407593,"63":-1.4579389095306396,"64":1.5138630867004395,"65":0.04069947823882103,"66":1.422589898109436,"67":-0.7954612374305725,"68":-0.21891148388385773,"69":1.213863730430603,"70":-0.5962563753128052,"71":1.001345157623291,"72":0.662524402141571,"73":0.7386469841003418,"74":1.1175000667572021,"75":-0.728797435760498,"76":1.5120638608932495,"77":-1.366458535194397,"78":0.788336455821991,"79":0.2649732530117035,"80":-0.6239567995071411,"81":0.7490584850311279,"82":1.0606697797775269,"83":-0.40020403265953064,"84":0.9540561437606812,"85":-0.9991855025291443,"86":0.8312928080558777,"87":1.091691017150879,"88":-0.5093250274658203,"89":1.1219412088394165,"90":0.5020179748535156,"91":-0.49682602286338806,"92":-0.38163086771965027,"93":-0.39504751563072205,"94":-0.6263058185577393,"95":-0.04966365173459053,"96":0.6912544369697571,"97":-0.06746657937765121,"98":0.5323829054832458,"99":-0.9813206791877747,"100":1.3150293827056885,"101":-0.3391280472278595,"102":0.7284578680992126,"103":1.713693618774414,"104":-0.29922375082969666,"105":0.8506255745887756,"106":-0.9051597118377686,"107":2.2556872367858887,"108":-0.7817444801330566,"109":-0.2847893238067627,"110":-1.5284613370895386,"111":-0.21843166649341583,"112":-0.29821422696113586,"113":0.01636805385351181,"114":0.36148548126220703,"115":0.3218543529510498,"116":0.8017935156822205,"117":-0.7968510389328003,"118":0.8224945068359375,"119":-1.0044772624969482,"120":0.5518725514411926,"121":-0.5811702013015747,"122":-0.7404913902282715,"123":0.4604484438896179,"124":-0.3710331618785858,"125":1.388567566871643,"126":0.19453765451908112,"127":0.3793770968914032,"128":0.2658482491970062,"129":0.29921025037765503,"130":0.2274579107761383,"131":-0.7440242767333984,"132":-0.3856396973133087,"133":-0.3578779399394989,"134":-0.09294696152210236,"135":-1.3898431062698364,"136":-0.3900558054447174,"137":-0.31281331181526184,"138":-0.4282160699367523,"139":-1.1670942306518555,"140":-0.9059686660766602,"141":0.1447642594575882,"142":0.20622316002845764,"143":1.424209475517273,"144":-0.26274827122688293,"145":2.203070640563965,"146":2.035140037536621,"147":-0.3715684413909912,"148":-0.27365386486053467,"149":0.5576146841049194,"150":-1.2236601114273071,"151":1.1332930326461792,"152":-0.7253513932228088,"153":1.6480220556259155,"154":0.5807958841323853,"155":-0.8936945199966431,"156":0.6722228527069092,"157":-0.7337505221366882,"158":-0.6168341636657715,"159":-0.5242881178855896,"160":1.4020588397979736,"161":0.21970334649085999,"162":-0.7788407802581787,"163":0.33272653818130493,"164":1.891750454902649,"165":-0.9874908328056335,"166":-0.2812648415565491,"167":1.0115646123886108,"168":-1.3667787313461304,"169":-0.3860783874988556,"170":-0.0338398814201355,"171":-1.2667381763458252,"172":-0.6763840913772583,"173":1.7911890745162964,"174":0.9648560285568237,"175":-0.6647980809211731,"176":1.1220014095306396,"177":-1.019319772720337,"178":0.7516737580299377,"179":-0.3757111132144928,"180":-2.440441370010376,"181":-0.10842739790678024,"182":-0.09514186531305313,"183":-0.8341403603553772,"184":-0.09697751700878143,"185":0.8855383992195129,"186":-0.7253553867340088,"187":-0.3590410649776459,"188":-0.7214213013648987,"189":0.5695486664772034,"190":-0.09246732294559479,"191":-0.3631446659564972,"192":-0.46240925788879395,"193":-0.8372295498847961,"194":-0.010740588419139385,"195":-1.9842034578323364,"196":-0.724539577960968,"197":0.5635647773742676,"198":0.8152103424072266,"199":-0.11463887244462967,"200":1.0723901987075806,"201":0.43931540846824646,"202":-0.47543054819107056,"203":-1.3258202075958252,"204":0.5488970279693604,"205":-0.6890195608139038,"206":-1.3562201261520386,"207":1.92929208278656,"208":0.22125066816806793,"209":0.4224325120449066,"210":0.46866708993911743,"211":-1.1655453443527222,"212":0.11766918003559113,"213":-1.06889009475708,"214":-0.07163125276565552,"215":-1.9954206943511963,"216":-0.6693737506866455,"217":0.03317298740148544,"218":0.6274397969245911,"219":1.035428524017334,"220":1.5050362348556519,"221":0.1634809374809265,"222":-0.2073136419057846,"223":-0.10992555320262909,"224":-0.746706485748291,"225":1.2396485805511475,"226":0.8214291930198669,"227":1.626465916633606,"228":-0.6820892691612244,"229":1.1158134937286377,"230":-0.8341283202171326,"231":0.22626473009586334,"232":-1.2315852642059326,"233":0.00033251283457502723,"234":-0.18168272078037262,"235":-0.984557032585144,"236":0.10084683448076248,"237":-0.5209766626358032,"238":0.005639276467263699,"239":-0.13456973433494568,"240":0.08696673065423965,"241":0.40268903970718384,"242":0.13401730358600616,"243":0.6683351397514343,"244":-0.5947464108467102,"245":-0.5882705450057983,"246":0.015589805319905281,"247":-0.3977189064025879,"248":0.3727476894855499,"249":0.2595681846141815,"250":-0.0770164281129837,"251":1.1001238822937012,"252":-0.1911681592464447,"253":-0.4831318259239197,"254":-0.4610390067100525,"255":-0.348073273897171,"256":-1.155505895614624,"257":0.4981754422187805,"258":0.3306559920310974,"259":0.02031085081398487,"260":0.21486468613147736,"261":0.9727470874786377,"262":-1.4023642539978027,"263":0.515059769153595,"264":1.7060531377792358,"265":-0.2984996736049652,"266":-0.7846448421478271,"267":-0.1313614398241043,"268":-0.18612372875213623,"269":-0.13362564146518707,"270":-0.9527491927146912,"271":-1.2824811935424805,"272":-0.6262399554252625,"273":1.1123689413070679,"274":0.8280110359191895,"275":-1.4713935852050781,"276":1.668738603591919,"277":-0.7285290956497192,"278":0.048527564853429794,"279":0.4150484800338745,"280":-2.401090383529663,"281":0.03312554210424423,"282":-0.2886713445186615,"283":-2.1372671127319336,"284":-1.2324379682540894,"285":-0.48893940448760986,"286":0.8014299869537354,"287":-1.6511963605880737,"288":2.8393561840057373,"289":0.10451265424489975,"290":1.3698770999908447,"291":-1.09199059009552,"292":1.1192104816436768,"293":-1.8094860315322876,"294":-0.9625738859176636,"295":-0.07016851007938385,"296":-1.2482519149780273,"297":1.05997896194458,"298":1.0819916725158691,"299":1.530387043952942,"300":-0.5749585032463074,"301":-0.6127707362174988,"302":-0.5780779719352722,"303":-0.5787017345428467,"304":-0.29623791575431824,"305":-0.6913199424743652,"306":0.3623450696468353,"307":0.24919873476028442,"308":-0.503169596195221,"309":0.42793434858322144,"310":-0.7134276032447815,"311":-0.385299414396286,"312":-0.7603996992111206,"313":-0.22770582139492035,"314":1.1643157005310059,"315":-1.9235349893569946,"316":0.1780783087015152,"317":-1.0746666193008423,"318":-0.542235791683197,"319":-0.674791157245636,"320":-0.5384860634803772,"321":0.3378285765647888,"322":-1.2113178968429565,"323":-0.35636207461357117,"324":0.8593863248825073,"325":1.6136574745178223,"326":-0.2905178964138031,"327":-0.4762922525405884,"328":0.1885187178850174,"329":0.014810554683208466,"330":0.27988681197166443,"331":-0.9676094651222229,"332":0.5962538123130798,"333":0.6175772547721863,"334":0.2983139157295227,"335":-0.6544991731643677,"336":0.5579240918159485,"337":-0.1696232408285141,"338":1.3453075885772705,"339":-1.3781520128250122,"340":-1.5393130779266357,"341":-1.3754138946533203,"342":0.13005730509757996,"343":-1.990409016609192,"344":-0.5358496308326721,"345":-0.6427360773086548,"346":0.7893154621124268,"347":-1.1847089529037476,"348":2.368248462677002,"349":1.0235477685928345,"350":1.3596216440200806,"351":-0.49535641074180603,"352":0.5653544068336487,"353":-1.861668348312378,"354":-0.6686757206916809,"355":-0.00010074509191326797,"356":-1.5059716701507568,"357":1.1761623620986938,"358":0.24224410951137543,"359":0.9643808603286743,"360":-0.1681847870349884,"361":0.5940449833869934,"362":-0.9636116027832031,"363":0.8452114462852478,"364":-0.6314220428466797,"365":0.2530137002468109,"366":-0.6486113667488098,"367":-0.38045766949653625,"368":0.7421799302101135,"369":0.9457705020904541,"370":-1.351241111755371,"371":1.0939407348632812,"372":-0.04957037791609764,"373":0.03870958834886551,"374":1.2939711809158325,"375":-0.9830921292304993,"376":0.11063020676374435,"377":-1.0829558372497559,"378":0.3965302109718323,"379":-0.09269250929355621,"380":-0.02869543805718422,"381":-0.9280543327331543,"382":0.7678437829017639,"383":-0.1058599203824997,"384":-0.8379840850830078,"385":-0.3938358426094055,"386":0.35056906938552856,"387":-0.19005484879016876,"388":-0.5147227048873901,"389":-0.4695243537425995,"390":0.44035112857818604,"391":0.019589463248848915,"392":0.4373681843280792,"393":-0.9867120981216431,"394":-0.8428635001182556,"395":0.4376208484172821,"396":-0.7339975833892822,"397":0.6407026648521423,"398":0.18772326409816742,"399":0.3436553180217743}},"inputBias":{"rows":20,"columns":1,"weights":{"0":-0.9372798204421997,"1":1.0508830547332764,"2":-0.6080181002616882,"3":-1.6409591436386108,"4":1.2469151020050049,"5":1.3968555927276611,"6":-0.4674314260482788,"7":-0.7911405563354492,"8":-1.711133360862732,"9":-0.5386329889297485,"10":-0.31968918442726135,"11":-0.19238032400608063,"12":-1.6356420516967773,"13":-0.9989747405052185,"14":-1.3332301378250122,"15":-0.2016654908657074,"16":-1.6001498699188232,"17":-0.9987402558326721,"18":-0.23180188238620758,"19":0.5412080883979797}},"forgetMatrix":{"rows":20,"columns":8,"weights":{"0":-0.11896234005689621,"1":0.0450400747358799,"2":0.7938166856765747,"3":-0.018651524558663368,"4":-0.10250096768140793,"5":0.14935347437858582,"6":0.9806596040725708,"7":-0.0379941500723362,"8":0.15487836301326752,"9":0.849614679813385,"10":-0.00615596491843462,"11":0.1824508160352707,"12":0.1937212347984314,"13":-1.101926565170288,"14":0.021721607074141502,"15":0.05326037481427193,"16":-1.1085805892944336,"17":0.6096233129501343,"18":-1.0278593301773071,"19":-0.8652881979942322,"20":0.6715969443321228,"21":-0.6499642133712769,"22":0.5903953313827515,"23":-0.9629448056221008,"24":0.9604435563087463,"25":-0.07340672612190247,"26":1.164476990699768,"27":1.1339777708053589,"28":-1.078461766242981,"29":0.4121871292591095,"30":-0.7336204051971436,"31":1.1849923133850098,"32":-0.8336564898490906,"33":1.7632474899291992,"34":-0.23542217910289764,"35":-0.8924193978309631,"36":0.5831836462020874,"37":-1.97603440284729,"38":1.3958874940872192,"39":-0.4677053987979889,"40":0.49465295672416687,"41":-0.47001057863235474,"42":0.283261239528656,"43":1.2677395343780518,"44":-1.0837520360946655,"45":0.5525851845741272,"46":-1.5025542974472046,"47":0.741154134273529,"48":-0.21129393577575684,"49":0.3898298740386963,"50":-0.6038723587989807,"51":-0.15704825520515442,"52":0.17517146468162537,"53":1.0298832654953003,"54":0.31204134225845337,"55":0.27197763323783875,"56":-0.6947930455207825,"57":0.9286117553710938,"58":1.2788264751434326,"59":-0.48262903094291687,"60":0.21130059659481049,"61":-1.1243648529052734,"62":0.859503448009491,"63":1.0427316427230835,"64":0.23914532363414764,"65":-0.6962648630142212,"66":0.07931160926818848,"67":0.3492479622364044,"68":-0.41738736629486084,"69":0.9579635262489319,"70":-0.013744150288403034,"71":0.31595829129219055,"72":0.5891531109809875,"73":0.15367768704891205,"74":0.17445549368858337,"75":0.42268913984298706,"76":-0.5768120884895325,"77":0.7551954388618469,"78":-0.5805395245552063,"79":0.4726690351963043,"80":0.15362349152565002,"81":1.1200921535491943,"82":0.7842715382575989,"83":0.6274385452270508,"84":-0.9010079503059387,"85":1.1635345220565796,"86":0.41690924763679504,"87":0.6240518689155579,"88":-0.3798536956310272,"89":-1.6185624599456787,"90":-0.8806647062301636,"91":0.19825343787670135,"92":0.21995538473129272,"93":1.4194269180297852,"94":-0.35438305139541626,"95":-0.17813284695148468,"96":0.13126908242702484,"97":-0.6325802803039551,"98":0.1642000675201416,"99":0.18915866315364838,"100":-0.30854687094688416,"101":0.6328298449516296,"102":-0.03146590664982796,"103":0.09608437120914459,"104":0.01063672173768282,"105":0.4758601486682892,"106":0.10863941162824631,"107":0.03337247669696808,"108":-0.1840578019618988,"109":0.5371471643447876,"110":0.05671825259923935,"111":0.28315097093582153,"112":0.5833591818809509,"113":0.786177933216095,"114":-0.7396718859672546,"115":-0.17766737937927246,"116":0.25510138273239136,"117":0.6738685965538025,"118":0.1610454022884369,"119":0.044955603778362274,"120":-0.7921292185783386,"121":-0.9602206349372864,"122":-2.267399549484253,"123":-0.5180478692054749,"124":1.0828529596328735,"125":1.6251862049102783,"126":0.8438684940338135,"127":-2.735276937484741,"128":-0.5946221947669983,"129":0.3208729326725006,"130":-0.5267673134803772,"131":-0.40505450963974,"132":0.6564052104949951,"133":-1.7459940910339355,"134":1.0521245002746582,"135":-0.35318583250045776,"136":-0.3206671476364136,"137":-0.5255364179611206,"138":-0.6995420455932617,"139":-0.0121872927993536,"140":-0.03271086513996124,"141":0.08574680984020233,"142":0.747753918170929,"143":-0.42318689823150635,"144":-1.2721240520477295,"145":-0.6900356411933899,"146":0.17865660786628723,"147":-1.1552529335021973,"148":1.285904884338379,"149":-0.033614084124565125,"150":0.8886783719062805,"151":-1.3788630962371826,"152":-0.15399900078773499,"153":-1.0503679513931274,"154":0.5555213093757629,"155":0.2776896059513092,"156":-0.008080110885202885,"157":0.41854169964790344,"158":0.8074111938476562,"159":-0.008155596442520618}},"forgetHidden":{"rows":20,"columns":20,"weights":{"0":1.4739680290222168,"1":-0.4175819456577301,"2":0.8665470480918884,"3":0.19717395305633545,"4":-0.66474848985672,"5":-0.6287953853607178,"6":-0.5709307789802551,"7":1.5797162055969238,"8":0.5898513197898865,"9":-0.3416518568992615,"10":-0.5868580341339111,"11":-0.7599511742591858,"12":-0.3827313780784607,"13":0.10360801219940186,"14":0.2822779715061188,"15":0.89594966173172,"16":-0.00184537167660892,"17":-0.47627726197242737,"18":-0.7525172829627991,"19":-1.0606207847595215,"20":0.8770105838775635,"21":-0.48589181900024414,"22":-1.4473912715911865,"23":0.4551527798175812,"24":-0.013316856697201729,"25":0.46148353815078735,"26":0.017210932448506355,"27":0.733625590801239,"28":0.24257612228393555,"29":-1.100788950920105,"30":0.3082734942436218,"31":-0.019663674756884575,"32":0.18292704224586487,"33":0.25555408000946045,"34":0.33560487627983093,"35":0.5815962553024292,"36":0.3954903483390808,"37":-0.14311794936656952,"38":0.48955661058425903,"39":1.1493862867355347,"40":0.491322785615921,"41":-0.37324172258377075,"42":0.46738412976264954,"43":-1.1176668405532837,"44":-0.044929321855306625,"45":-1.1907031536102295,"46":1.101048231124878,"47":-0.03728809207677841,"48":0.3090480864048004,"49":1.4091216325759888,"50":-1.1376787424087524,"51":1.4552866220474243,"52":0.8175932168960571,"53":-1.2235735654830933,"54":-0.8850688934326172,"55":1.4371867179870605,"56":-1.020769715309143,"57":0.4446658492088318,"58":-0.0026931671891361475,"59":-0.4034081697463989,"60":-0.16852469742298126,"61":-0.6330887675285339,"62":1.0529887676239014,"63":-1.0625097751617432,"64":-0.5562005639076233,"65":-1.1880842447280884,"66":0.26352307200431824,"67":0.6233452558517456,"68":-0.45267021656036377,"69":-0.2886599898338318,"70":0.45871442556381226,"71":-0.2552664577960968,"72":-0.9749453663825989,"73":-0.07327323406934738,"74":-0.3514590263366699,"75":-0.23309485614299774,"76":-1.126906394958496,"77":0.5577918887138367,"78":0.17536582052707672,"79":-0.3449297547340393,"80":0.29287633299827576,"81":-1.2347825765609741,"82":-0.7231932282447815,"83":-0.07341774553060532,"84":-1.2192941904067993,"85":0.40070173144340515,"86":0.2601868808269501,"87":-0.7906904816627502,"88":-0.1982865184545517,"89":-0.061388272792100906,"90":0.604934573173523,"91":0.5278615951538086,"92":0.4052469730377197,"93":-0.5449542999267578,"94":-0.5026475191116333,"95":1.0720289945602417,"96":0.39018499851226807,"97":0.08900652825832367,"98":0.7504743933677673,"99":0.25812044739723206,"100":0.03920465335249901,"101":-0.23344475030899048,"102":0.4339336156845093,"103":-0.5060487985610962,"104":-0.2590041756629944,"105":-0.7770419716835022,"106":-0.43270352482795715,"107":-1.717628002166748,"108":0.7486155033111572,"109":0.6778532266616821,"110":-0.05889057740569115,"111":1.084562063217163,"112":0.9706827402114868,"113":-0.7699480652809143,"114":-1.0919034481048584,"115":-0.11607340723276138,"116":-1.0221290588378906,"117":0.7397764325141907,"118":0.7232131958007812,"119":0.6341843008995056,"120":-0.330245703458786,"121":1.5364717245101929,"122":-1.1211735010147095,"123":-2.1970725059509277,"124":0.8300884366035461,"125":-1.6349188089370728,"126":0.5107025504112244,"127":0.7967076897621155,"128":-1.0049911737442017,"129":1.089115023612976,"130":0.06655558943748474,"131":-0.11143548786640167,"132":0.22395320236682892,"133":0.3577202260494232,"134":0.05602584034204483,"135":-0.9446598887443542,"136":0.22883938252925873,"137":-0.3612005412578583,"138":-0.22703969478607178,"139":1.2699508666992188,"140":0.449078768491745,"141":0.08714987337589264,"142":0.44535449147224426,"143":0.5994448661804199,"144":0.24135777354240417,"145":1.332346796989441,"146":-1.4537571668624878,"147":0.4489767551422119,"148":-1.1469696760177612,"149":-0.3738133907318115,"150":-0.966261625289917,"151":-0.9018732905387878,"152":0.0674881860613823,"153":1.1943089962005615,"154":0.30027148127555847,"155":0.10866829007863998,"156":0.10961951315402985,"157":-0.24059170484542847,"158":-0.4946814477443695,"159":0.4603574573993683,"160":-2.01328706741333,"161":-1.0213196277618408,"162":1.0159682035446167,"163":-0.6723499298095703,"164":-0.9151383638381958,"165":-1.0435682535171509,"166":-0.14391228556632996,"167":-1.7326645851135254,"168":0.5951998829841614,"169":-0.06040339916944504,"170":0.31366977095603943,"171":1.134355068206787,"172":0.492903470993042,"173":-0.9891834259033203,"174":-0.8811033964157104,"175":0.6489503383636475,"176":-0.8132532835006714,"177":0.8793075084686279,"178":-0.7225854396820068,"179":0.2756906747817993,"180":-0.05262007191777229,"181":-0.615056574344635,"182":-0.1458468735218048,"183":0.6483055353164673,"184":-0.4380643665790558,"185":2.698350191116333,"186":0.7699890732765198,"187":-0.468988835811615,"188":-0.7968880534172058,"189":-0.21826118230819702,"190":0.05174269899725914,"191":-0.430132657289505,"192":-0.6113495230674744,"193":0.6830387115478516,"194":-0.0762941986322403,"195":-1.2240403890609741,"196":0.22747622430324554,"197":-0.15513195097446442,"198":0.5957295894622803,"199":1.3022568225860596,"200":-0.21438410878181458,"201":1.0158846378326416,"202":-0.2617935538291931,"203":-0.8155055046081543,"204":-1.1284469366073608,"205":-0.044236019253730774,"206":1.0288161039352417,"207":0.2387390285730362,"208":-1.2901721000671387,"209":1.3421562910079956,"210":0.5351459383964539,"211":0.11988015472888947,"212":-0.9429234862327576,"213":0.25584009289741516,"214":0.31105121970176697,"215":-1.5018707513809204,"216":-0.4595258831977844,"217":-0.2106258124113083,"218":-0.08976506441831589,"219":0.9046499133110046,"220":-0.6520828008651733,"221":-0.21952658891677856,"222":0.6273292899131775,"223":-0.36146849393844604,"224":0.3252088725566864,"225":-0.16892674565315247,"226":-0.9581111669540405,"227":-1.9337788820266724,"228":-0.2855217754840851,"229":0.2802552282810211,"230":0.33311885595321655,"231":-0.3792749345302582,"232":0.1856788694858551,"233":-0.5491190552711487,"234":-0.47249099612236023,"235":-0.7221810221672058,"236":-0.6468811631202698,"237":1.250172734260559,"238":0.9394697546958923,"239":0.7468103170394897,"240":-0.017896439880132675,"241":-0.39797329902648926,"242":0.15211917459964752,"243":-0.4054454565048218,"244":-0.37267303466796875,"245":-0.7019137144088745,"246":-1.0466994047164917,"247":0.22997801005840302,"248":0.4011601209640503,"249":-0.6521239280700684,"250":0.5659752488136292,"251":-0.4243846833705902,"252":0.6601200699806213,"253":-0.537156879901886,"254":-0.6214204430580139,"255":0.6145185232162476,"256":-0.6731799244880676,"257":0.4056220054626465,"258":0.1558941751718521,"259":0.12753477692604065,"260":-1.3964622020721436,"261":-0.8736358880996704,"262":0.6066108345985413,"263":-0.6075540781021118,"264":-0.8202448487281799,"265":0.01640898734331131,"266":-0.110065758228302,"267":-1.253779649734497,"268":0.7092481851577759,"269":0.6025850772857666,"270":0.6376658082008362,"271":0.8572307825088501,"272":0.7659391760826111,"273":-0.7044621706008911,"274":-0.4000674784183502,"275":-0.07954896241426468,"276":-1.2682420015335083,"277":0.6426052451133728,"278":0.4520525634288788,"279":1.1881111860275269,"280":-0.24520356953144073,"281":-0.18862253427505493,"282":-0.36369529366493225,"283":-0.4232911467552185,"284":-0.7955681681632996,"285":-0.32194507122039795,"286":-0.31469348073005676,"287":-1.284216284751892,"288":0.7320517301559448,"289":0.8571404218673706,"290":0.23526178300380707,"291":2.3179941177368164,"292":0.9028237462043762,"293":-1.0014989376068115,"294":-1.0951294898986816,"295":0.36522141098976135,"296":-0.9774886965751648,"297":0.9810327291488647,"298":0.5874707698822021,"299":0.3144628405570984,"300":-1.0068832635879517,"301":-0.7421855926513672,"302":-0.03658111393451691,"303":-1.50064218044281,"304":0.6744404435157776,"305":-0.7945751547813416,"306":0.22694969177246094,"307":0.5908318161964417,"308":0.3502213656902313,"309":-0.08245943486690521,"310":-0.6017172336578369,"311":-1.4490302801132202,"312":1.2859035730361938,"313":0.12166588753461838,"314":0.3150603771209717,"315":-0.8927899599075317,"316":-0.06505454331636429,"317":-0.3299141228199005,"318":0.08008285611867905,"319":-0.35019251704216003,"320":-0.25970926880836487,"321":-0.5333665609359741,"322":0.05252481997013092,"323":-0.410887748003006,"324":-0.27018439769744873,"325":-0.7089319825172424,"326":0.17088563740253448,"327":0.24282105267047882,"328":0.1252584010362625,"329":-0.08692395687103271,"330":1.0525753498077393,"331":0.14621317386627197,"332":0.7141092419624329,"333":-0.8338514566421509,"334":-1.6381237506866455,"335":2.18880558013916,"336":-0.2803474962711334,"337":1.220881700515747,"338":0.46048417687416077,"339":-0.4023941159248352,"340":-0.6925800442695618,"341":-0.7526352405548096,"342":-0.6458224058151245,"343":-1.2035059928894043,"344":-0.533000111579895,"345":-0.7731552124023438,"346":-0.1487361639738083,"347":-0.5161828994750977,"348":0.6104028224945068,"349":0.7801946401596069,"350":0.3739832043647766,"351":0.6146153807640076,"352":0.27110230922698975,"353":-0.612799882888794,"354":-0.7125219702720642,"355":0.1491587609052658,"356":-0.8735389709472656,"357":0.6112588047981262,"358":0.0024415894877165556,"359":0.26895201206207275,"360":0.8722259998321533,"361":-0.08886449784040451,"362":0.4742591083049774,"363":0.007805480156093836,"364":1.097783088684082,"365":-1.3161638975143433,"366":-0.9837315678596497,"367":1.4218181371688843,"368":-0.3474993109703064,"369":0.05729758366942406,"370":-0.5891403555870056,"371":-0.5383562445640564,"372":-0.7880951762199402,"373":0.1695491522550583,"374":0.18029780685901642,"375":-0.24529744684696198,"376":0.4048154056072235,"377":-0.3013988137245178,"378":0.00912315584719181,"379":-0.5653058886528015,"380":2.110031843185425,"381":-1.153931975364685,"382":-0.9384236335754395,"383":1.1851401329040527,"384":0.7238066792488098,"385":1.6609328985214233,"386":0.15317684412002563,"387":-0.231770321726799,"388":-0.544280469417572,"389":-0.8237166404724121,"390":0.6107343435287476,"391":0.31132733821868896,"392":-1.0307327508926392,"393":1.0034948587417603,"394":1.161144733428955,"395":-0.7518882751464844,"396":2.046699047088623,"397":-0.7413428425788879,"398":-1.06019127368927,"399":-1.6516499519348145}},"forgetBias":{"rows":20,"columns":1,"weights":{"0":0,"1":0,"2":0,"3":0,"4":0,"5":0,"6":0,"7":0,"8":0,"9":0,"10":0,"11":0,"12":0,"13":0,"14":0,"15":0,"16":0,"17":0,"18":0,"19":0}},"outputMatrix":{"rows":20,"columns":8,"weights":{"0":0.6720137000083923,"1":1.392540693283081,"2":1.4964607954025269,"3":0.5166053771972656,"4":-0.7606675624847412,"5":-1.1073070764541626,"6":-0.19513441622257233,"7":1.0297571420669556,"8":0.19555780291557312,"9":0.2873568832874298,"10":0.7063776254653931,"11":0.2202366143465042,"12":0.04887476563453674,"13":0.6003103256225586,"14":-0.018146302551031113,"15":0.1270403116941452,"16":1.447515606880188,"17":-1.0316627025604248,"18":0.38796916604042053,"19":0.473358154296875,"20":-0.6055012941360474,"21":0.4383627474308014,"22":-0.6992179155349731,"23":0.530625581741333,"24":-0.47441625595092773,"25":2.4940385818481445,"26":-0.3002997636795044,"27":-0.6028731465339661,"28":0.017625004053115845,"29":-1.9222131967544556,"30":0.7077845931053162,"31":0.338520884513855,"32":-0.6697681546211243,"33":-1.237130045890808,"34":-1.2149367332458496,"35":-0.7534423470497131,"36":1.347557783126831,"37":0.11740540713071823,"38":0.5409666895866394,"39":-1.3759713172912598,"40":-0.5775852203369141,"41":-0.13365013897418976,"42":-1.339945912361145,"43":-1.343623399734497,"44":0.8949957489967346,"45":0.19962681829929352,"46":1.5493279695510864,"47":-1.1967610120773315,"48":0.041909605264663696,"49":1.8626856803894043,"50":1.2149605751037598,"51":0.3322792053222656,"52":-0.4270533621311188,"53":-0.8843110799789429,"54":-0.015127912163734436,"55":0.5755875110626221,"56":1.9831533432006836,"57":1.1232450008392334,"58":0.865679144859314,"59":0.921911358833313,"60":-1.7755976915359497,"61":-0.8249763250350952,"62":-1.7399907112121582,"63":1.4065858125686646,"64":-0.8441897630691528,"65":0.4332779347896576,"66":-0.04606722295284271,"67":-2.0865726470947266,"68":0.3121234178543091,"69":0.27760204672813416,"70":-0.15601542592048645,"71":-2.0961365699768066,"72":0.5597583055496216,"73":1.5258311033248901,"74":1.5972545146942139,"75":0.4774942100048065,"76":-0.41642525792121887,"77":-0.25226619839668274,"78":-0.8330684304237366,"79":0.59132981300354,"80":-0.3879678547382355,"81":-0.5306435823440552,"82":0.2752753496170044,"83":-0.15405836701393127,"84":0.508597195148468,"85":2.0454940795898438,"86":-0.6154767274856567,"87":-0.45762965083122253,"88":1.0007047653198242,"89":0.16057440638542175,"90":0.9962893724441528,"91":1.6405056715011597,"92":-1.70270574092865,"93":0.18430356681346893,"94":-1.796739101409912,"95":2.2657363414764404,"96":0.23773062229156494,"97":1.3675659894943237,"98":-0.29372256994247437,"99":0.33071649074554443,"100":-0.3664577603340149,"101":-0.26897507905960083,"102":-0.5290579795837402,"103":-0.200362429022789,"104":-0.8790100812911987,"105":-0.3040043115615845,"106":-2.2029900550842285,"107":-0.8638917207717896,"108":1.107882022857666,"109":-1.1558200120925903,"110":0.690138041973114,"111":-0.9731239676475525,"112":-0.1629435271024704,"113":0.7696284651756287,"114":-0.7810807824134827,"115":-0.5145226716995239,"116":0.3266630470752716,"117":-0.7620137929916382,"118":0.6123660206794739,"119":-0.23549233376979828,"120":-0.10396518558263779,"121":-0.3326467275619507,"122":0.3615267872810364,"123":-0.8121259212493896,"124":0.5399912595748901,"125":-0.5281260013580322,"126":0.7771700024604797,"127":-0.5831268429756165,"128":-0.8184757232666016,"129":0.7602257132530212,"130":-0.8135943412780762,"131":-1.1424862146377563,"132":0.9395137429237366,"133":-1.7447872161865234,"134":0.6401621699333191,"135":-1.0363703966140747,"136":-0.1464250683784485,"137":0.7860641479492188,"138":-0.3367069363594055,"139":-0.3815224766731262,"140":0.03546860069036484,"141":-1.3974791765213013,"142":0.35378795862197876,"143":0.02318291738629341,"144":0.8535953164100647,"145":-1.9664510488510132,"146":0.39848098158836365,"147":0.9635722041130066,"148":-0.9345926642417908,"149":1.084503173828125,"150":-0.8498715162277222,"151":0.7597643733024597,"152":-1.592754602432251,"153":-0.12381288409233093,"154":0.08729637414216995,"155":-1.6166704893112183,"156":1.6915299892425537,"157":-0.7249811291694641,"158":1.808524489402771,"159":-1.3896905183792114}},"outputHidden":{"rows":20,"columns":20,"weights":{"0":0.6019447445869446,"1":0.528778076171875,"2":0.6426312923431396,"3":0.20940394699573517,"4":0.4576002359390259,"5":0.7946358919143677,"6":0.7798179388046265,"7":-1.5176135301589966,"8":-0.8448102474212646,"9":0.82025545835495,"10":0.6223723292350769,"11":1.1368658542633057,"12":0.23890134692192078,"13":0.8164153099060059,"14":-0.25363028049468994,"15":1.4659088850021362,"16":0.31611862778663635,"17":-0.4715697765350342,"18":1.0712603330612183,"19":-1.3905800580978394,"20":0.12060365825891495,"21":-1.3992782831192017,"22":-0.6175782084465027,"23":1.619624137878418,"24":-1.7025394439697266,"25":2.653043746948242,"26":0.5056276917457581,"27":-0.7069631218910217,"28":-0.15870457887649536,"29":-0.1693248748779297,"30":0.6555753946304321,"31":0.43585050106048584,"32":-0.5850716233253479,"33":-0.16444328427314758,"34":-0.49160292744636536,"35":-0.5201868414878845,"36":-0.31751173734664917,"37":0.2503354847431183,"38":0.6699825525283813,"39":-0.485625684261322,"40":-0.14363525807857513,"41":-0.11787229031324387,"42":0.5540361404418945,"43":-1.2696348428726196,"44":-0.513851523399353,"45":-2.09171724319458,"46":0.46023598313331604,"47":-1.59813392162323,"48":0.8289647698402405,"49":0.5171639323234558,"50":-1.1790765523910522,"51":0.8327731490135193,"52":0.8339787125587463,"53":-2.006880044937134,"54":-0.9374701976776123,"55":0.849992036819458,"56":-0.3346991539001465,"57":0.9002450704574585,"58":-1.4515117406845093,"59":-1.860252022743225,"60":-0.2448091208934784,"61":0.5009075403213501,"62":-1.2328994274139404,"63":-2.0009841918945312,"64":1.2220916748046875,"65":-0.14199620485305786,"66":1.0181591510772705,"67":-0.8422061204910278,"68":0.6079365015029907,"69":1.0098612308502197,"70":0.1362079530954361,"71":1.434973955154419,"72":0.8792198896408081,"73":0.6772416830062866,"74":1.0069540739059448,"75":-1.3134640455245972,"76":-0.1791166067123413,"77":-0.7818788886070251,"78":0.6694110631942749,"79":0.13331305980682373,"80":0.023200802505016327,"81":-0.4506450593471527,"82":0.6789007186889648,"83":-0.1756114363670349,"84":0.617186427116394,"85":-0.6889752149581909,"86":0.42778488993644714,"87":-0.06667111814022064,"88":0.14781546592712402,"89":0.604157030582428,"90":0.4364718198776245,"91":-0.9258413910865784,"92":-0.46744218468666077,"93":0.24597761034965515,"94":-1.2747081518173218,"95":0.29725879430770874,"96":-0.6306231021881104,"97":1.2679665088653564,"98":0.10627167671918869,"99":-1.6025261878967285,"100":-0.7025724053382874,"101":-0.5728607773780823,"102":1.5230419635772705,"103":0.4384668171405792,"104":0.0351346991956234,"105":0.9283015727996826,"106":-0.3236502707004547,"107":-0.48743075132369995,"108":-0.39106446504592896,"109":1.4657267332077026,"110":-2.0492711067199707,"111":1.339625597000122,"112":0.20196181535720825,"113":-0.6794787049293518,"114":-0.44618043303489685,"115":0.47716978192329407,"116":-0.49727556109428406,"117":0.4337359368801117,"118":-0.037729859352111816,"119":-1.4180413484573364,"120":0.7436597347259521,"121":-1.293821096420288,"122":-1.126841425895691,"123":-0.9423596858978271,"124":0.15905730426311493,"125":0.4831342399120331,"126":0.4856337010860443,"127":1.1309962272644043,"128":-0.2603744566440582,"129":-0.12130504101514816,"130":-0.7723675966262817,"131":-0.09724555164575577,"132":-0.8782352805137634,"133":-0.9116322994232178,"134":0.37755465507507324,"135":-1.9962589740753174,"136":-0.760968804359436,"137":-0.02673916332423687,"138":-0.40787234902381897,"139":0.6655914783477783,"140":0.538997232913971,"141":0.17079907655715942,"142":0.5180822014808655,"143":0.8527354001998901,"144":0.7957042455673218,"145":0.6647253632545471,"146":1.1811933517456055,"147":-0.31599825620651245,"148":-0.4799027740955353,"149":0.19900643825531006,"150":-0.04081685468554497,"151":0.42596951127052307,"152":-0.9010431170463562,"153":0.7227438688278198,"154":-1.0146851539611816,"155":0.45207709074020386,"156":-0.10223213583230972,"157":0.7550960183143616,"158":-0.3449448049068451,"159":-0.38847362995147705,"160":1.1701624393463135,"161":-0.17297545075416565,"162":-1.2611905336380005,"163":0.36509212851524353,"164":1.501960277557373,"165":0.45854452252388,"166":0.04296945407986641,"167":0.3538963496685028,"168":-0.0643448606133461,"169":0.6849265694618225,"170":-0.7719706296920776,"171":-0.21077050268650055,"172":-0.42829620838165283,"173":1.3727810382843018,"174":0.7360582947731018,"175":-0.5906606912612915,"176":1.4498815536499023,"177":-1.0918307304382324,"178":0.5739186406135559,"179":-1.6451165676116943,"180":-0.4920102059841156,"181":-1.3023544549942017,"182":-0.21723857522010803,"183":-0.14689411222934723,"184":0.399951696395874,"185":0.39672258496284485,"186":0.3537326455116272,"187":-1.0035381317138672,"188":-1.0662429332733154,"189":0.330762654542923,"190":-0.3213830590248108,"191":-0.3796662986278534,"192":-1.1031967401504517,"193":-0.5185520052909851,"194":-0.6899884939193726,"195":-1.0302867889404297,"196":-0.12307539582252502,"197":0.3289506137371063,"198":0.6698398590087891,"199":0.6089441776275635,"200":-0.2968173623085022,"201":1.7625484466552734,"202":2.1793134212493896,"203":-2.1449081897735596,"204":1.0142042636871338,"205":-0.8650399446487427,"206":0.20711959898471832,"207":0.07173644751310349,"208":-1.2812726497650146,"209":1.9670058488845825,"210":0.45163771510124207,"211":0.19629748165607452,"212":-0.6369838118553162,"213":-0.8877888917922974,"214":-0.45428168773651123,"215":-1.4308143854141235,"216":-0.21877004206180573,"217":0.3272416889667511,"218":0.40729087591171265,"219":0.6924363970756531,"220":-0.12958841025829315,"221":-0.41242215037345886,"222":-0.6132599115371704,"223":0.9710844159126282,"224":-0.47943612933158875,"225":1.9859397411346436,"226":-0.25972288846969604,"227":-0.31630492210388184,"228":-1.304575800895691,"229":1.0147552490234375,"230":-0.5629705786705017,"231":-0.02245515212416649,"232":-0.814534604549408,"233":0.45315712690353394,"234":-0.5325114727020264,"235":-1.1258585453033447,"236":0.19735200703144073,"237":0.328183650970459,"238":-0.10753004252910614,"239":0.6198983788490295,"240":0.4872819483280182,"241":0.5026687383651733,"242":-0.479885071516037,"243":1.0020081996917725,"244":-0.6674373149871826,"245":0.3450717031955719,"246":0.5761911869049072,"247":-0.13078467547893524,"248":-0.4156195819377899,"249":0.837816059589386,"250":0.06899935752153397,"251":1.2803795337677002,"252":-0.31273096799850464,"253":-1.5546529293060303,"254":-0.6814202666282654,"255":-0.41715002059936523,"256":-0.5406307578086853,"257":-0.16968828439712524,"258":0.14179803431034088,"259":0.48842623829841614,"260":-0.9679524898529053,"261":-0.5200312733650208,"262":-1.2646609544754028,"263":-1.0983363389968872,"264":0.2426033765077591,"265":-0.5180557370185852,"266":-0.556500256061554,"267":0.033652596175670624,"268":0.606113851070404,"269":-0.9891681671142578,"270":0.6815778017044067,"271":-0.6769258379936218,"272":1.7190107107162476,"273":-0.3155343234539032,"274":-0.4804319739341736,"275":0.14631052315235138,"276":-0.8872966766357422,"277":1.4643369913101196,"278":1.0557225942611694,"279":0.7769017219543457,"280":-2.644110679626465,"281":0.023873552680015564,"282":-0.18072372674942017,"283":-1.5760058164596558,"284":-1.3540351390838623,"285":-1.1237642765045166,"286":0.13689687848091125,"287":-1.8867528438568115,"288":1.933654546737671,"289":0.6548171043395996,"290":1.0964868068695068,"291":-0.8976201415061951,"292":1.1886985301971436,"293":-1.1775093078613281,"294":-1.3179669380187988,"295":0.25672435760498047,"296":-1.247915267944336,"297":1.3398520946502686,"298":1.2826199531555176,"299":1.1235884428024292,"300":-1.161902666091919,"301":-1.216271162033081,"302":-0.7796194553375244,"303":-0.5909451246261597,"304":0.46611231565475464,"305":-0.04160955175757408,"306":1.387799620628357,"307":-0.7275696396827698,"308":-0.4992055892944336,"309":1.1026252508163452,"310":-0.24293993413448334,"311":0.7409970164299011,"312":0.49914681911468506,"313":1.1499234437942505,"314":1.02070951461792,"315":0.14796264469623566,"316":2.8464508056640625,"317":-1.9044721126556396,"318":-0.032275713980197906,"319":-2.696706533432007,"320":-0.20170298218727112,"321":0.4722452759742737,"322":-0.7466565370559692,"323":0.39019492268562317,"324":0.2690114676952362,"325":1.0548665523529053,"326":-0.2703093886375427,"327":-0.24756507575511932,"328":-0.12282003462314606,"329":-0.05700070410966873,"330":-0.11984556168317795,"331":-0.8417426347732544,"332":0.0042843944393098354,"333":0.5737298130989075,"334":0.212174654006958,"335":-0.5018779635429382,"336":0.5562588572502136,"337":-0.27704519033432007,"338":0.18851898610591888,"339":-1.5508100986480713,"340":-1.698143482208252,"341":-0.8608496189117432,"342":-0.28753191232681274,"343":-1.4143587350845337,"344":-0.3090580999851227,"345":-1.6934666633605957,"346":0.2361449897289276,"347":-1.0802384614944458,"348":1.7483149766921997,"349":0.5157020092010498,"350":0.6240546703338623,"351":-0.9076165556907654,"352":0.9354876279830933,"353":-0.9067178964614868,"354":-0.9228924512863159,"355":-0.24940738081932068,"356":-1.263446569442749,"357":0.8617542386054993,"358":0.30259832739830017,"359":0.6113092303276062,"360":0.03223145008087158,"361":0.9297772645950317,"362":-0.4315742254257202,"363":0.545841634273529,"364":-0.6898896098136902,"365":0.534656822681427,"366":-0.8378328084945679,"367":0.9417855143547058,"368":0.9444702863693237,"369":2.0787265300750732,"370":-1.1478233337402344,"371":1.2805416584014893,"372":-0.48904410004615784,"373":-0.1313467174768448,"374":0.8638843894004822,"375":-1.8068270683288574,"376":-0.08968717604875565,"377":-0.5213767886161804,"378":-0.22435151040554047,"379":0.6616824865341187,"380":2.005028486251831,"381":-0.5390441417694092,"382":0.08501575887203217,"383":0.1274985820055008,"384":-0.06579066812992096,"385":-0.8387812376022339,"386":0.32122132182121277,"387":1.4861046075820923,"388":-0.8590458631515503,"389":-0.34396228194236755,"390":-0.008955858647823334,"391":-0.3397693634033203,"392":-1.8208506107330322,"393":-0.2504930794239044,"394":-0.10804476588964462,"395":-1.228512167930603,"396":-0.08705807477235794,"397":0.11762309074401855,"398":-0.8191426396369934,"399":-0.3765565752983093}},"outputBias":{"rows":20,"columns":1,"weights":{"0":-0.9430989027023315,"1":0.9429604411125183,"2":-0.665814220905304,"3":-1.6631771326065063,"4":1.4139190912246704,"5":1.3154044151306152,"6":-0.4104675054550171,"7":-0.7879554629325867,"8":-1.7510795593261719,"9":-0.6048456430435181,"10":0.05432737246155739,"11":-0.17937952280044556,"12":-1.634720802307129,"13":-1.3219079971313477,"14":-1.287365198135376,"15":-0.2563245892524719,"16":-1.7008475065231323,"17":-1.0339845418930054,"18":-0.32127851247787476,"19":1.1862164735794067}},"cellActivationMatrix":{"rows":20,"columns":8,"weights":{"0":-1.980279803276062,"1":-1.71393883228302,"2":-0.2839297354221344,"3":-1.3776800632476807,"4":1.839569091796875,"5":0.87068772315979,"6":0.7787472009658813,"7":-1.527520775794983,"8":0.7465783953666687,"9":0.40613502264022827,"10":1.0967741012573242,"11":0.013157919980585575,"12":-0.47891151905059814,"13":0.8100677728652954,"14":0.4408915340900421,"15":0.8330163359642029,"16":1.97661292552948,"17":-0.7779343724250793,"18":0.17341254651546478,"19":1.5916029214859009,"20":-0.9107514023780823,"21":1.7152857780456543,"22":-2.4263339042663574,"23":0.5687270164489746,"24":-1.0317152738571167,"25":-0.7097873091697693,"26":-1.8545604944229126,"27":-0.9561812281608582,"28":1.112549066543579,"29":-0.6219775676727295,"30":0.3583574891090393,"31":-1.2202837467193604,"32":-0.5511301755905151,"33":0.5317531228065491,"34":0.45777273178100586,"35":-0.510918378829956,"36":0.46956145763397217,"37":-1.1871833801269531,"38":1.2029204368591309,"39":-0.11250230669975281,"40":-0.08431361615657806,"41":1.333115816116333,"42":-1.592871069908142,"43":-0.7987301349639893,"44":0.9394763112068176,"45":-1.7383369207382202,"46":0.1127365380525589,"47":-1.1422992944717407,"48":-0.9471660256385803,"49":0.9827600121498108,"50":-0.7157074809074402,"51":-1.223057746887207,"52":1.1127609014511108,"53":-2.3030507564544678,"54":0.115617536008358,"55":-0.8527843356132507,"56":-0.7174370884895325,"57":-1.3600244522094727,"58":-0.7132672071456909,"59":-0.9022811055183411,"60":1.7269052267074585,"61":0.6978414058685303,"62":1.5828717947006226,"63":-1.403921365737915,"64":1.775997519493103,"65":-1.1020480394363403,"66":0.11880200356245041,"67":1.6852507591247559,"68":-1.4825676679611206,"69":0.7856749296188354,"70":-1.9393566846847534,"71":1.1121894121170044,"72":-0.6248921751976013,"73":0.7163301110267639,"74":1.675825834274292,"75":-0.902290940284729,"76":0.14066027104854584,"77":-0.5656164884567261,"78":-0.5303343534469604,"79":-0.4824064373970032,"80":0.8140498995780945,"81":-0.29634612798690796,"82":0.24359607696533203,"83":1.0108702182769775,"84":-0.7005910873413086,"85":0.16447432339191437,"86":-0.9939275979995728,"87":0.6653603911399841,"88":-0.3697211742401123,"89":0.9269195199012756,"90":0.10772610455751419,"91":-1.070590615272522,"92":0.8034631609916687,"93":-1.3697717189788818,"94":0.38618558645248413,"95":-0.3718299865722656,"96":0.5664573311805725,"97":0.6417675614356995,"98":0.13614042103290558,"99":0.4738985300064087,"100":-0.48523110151290894,"101":-0.47100532054901123,"102":-0.7367817759513855,"103":0.44042763113975525,"104":-1.1688257455825806,"105":0.34673258662223816,"106":-1.0786579847335815,"107":-1.5869020223617554,"108":1.271633267402649,"109":0.05889558792114258,"110":1.676698088645935,"111":-1.3177905082702637,"112":-0.630492627620697,"113":-0.8545517921447754,"114":-0.5558310151100159,"115":-0.7972965836524963,"116":0.8369166254997253,"117":-0.3080827295780182,"118":1.0118604898452759,"119":-0.6151683330535889,"120":0.6245036721229553,"121":-0.01746317557990551,"122":1.779422402381897,"123":0.7749695181846619,"124":-0.8403066396713257,"125":0.14655998349189758,"126":-0.662564754486084,"127":0.6752591729164124,"128":-1.8252538442611694,"129":-0.038861438632011414,"130":-1.6576635837554932,"131":-2.0300283432006836,"132":2.1508097648620605,"133":-0.5386368036270142,"134":0.5786405801773071,"135":-2.4916768074035645,"136":1.195080280303955,"137":0.3836304247379303,"138":1.0706762075424194,"139":0.9987282156944275,"140":-1.9068593978881836,"141":0.5713003873825073,"142":-2.0049216747283936,"143":1.541128158569336,"144":1.605561375617981,"145":-0.14065122604370117,"146":0.9447590708732605,"147":1.7593674659729004,"148":-1.5641356706619263,"149":0.9853564500808716,"150":-1.6382052898406982,"151":1.3823972940444946,"152":0.2768448293209076,"153":0.3858262598514557,"154":1.916053056716919,"155":0.5596681833267212,"156":-0.6565431952476501,"157":0.44660553336143494,"158":0.5578394532203674,"159":0.6221914291381836}},"cellActivationHidden":{"rows":20,"columns":20,"weights":{"0":0.2749108076095581,"1":0.21202978491783142,"2":-0.491275429725647,"3":-1.0418109893798828,"4":0.19320856034755707,"5":-0.004789494443684816,"6":0.6547195911407471,"7":0.8841403126716614,"8":0.5205566883087158,"9":0.7425423264503479,"10":0.2233184427022934,"11":0.3106800615787506,"12":-0.053782735019922256,"13":-0.33182042837142944,"14":-1.0452255010604858,"15":-1.2481920719146729,"16":0.5001636743545532,"17":1.4651798009872437,"18":-0.6613937020301819,"19":-0.06328228861093521,"20":1.306793451309204,"21":-0.9894136786460876,"22":1.282970666885376,"23":1.739489197731018,"24":-0.6857289671897888,"25":1.05609130859375,"26":1.2712414264678955,"27":-0.5138649344444275,"28":-0.6094043254852295,"29":1.1832185983657837,"30":-1.3723177909851074,"31":3.016731023788452,"32":-0.7090076804161072,"33":0.782651960849762,"34":0.16009491682052612,"35":-1.1001121997833252,"36":-0.9004849791526794,"37":-0.4474151134490967,"38":-0.3431898057460785,"39":-0.7659083008766174,"40":0.0474371537566185,"41":0.45032253861427307,"42":-0.46381378173828125,"43":-0.7864125370979309,"44":0.14185798168182373,"45":-0.7744183540344238,"46":0.7941150665283203,"47":-0.02130473591387272,"48":-1.08151376247406,"49":0.6792271137237549,"50":0.2080802619457245,"51":-0.01417969074100256,"52":-0.1946709305047989,"53":-0.3555013835430145,"54":-0.20552289485931396,"55":0.10955216735601425,"56":-0.004174673929810524,"57":0.6099923253059387,"58":-0.4365192651748657,"59":0.7716957926750183,"60":-0.9806507229804993,"61":1.3311729431152344,"62":-0.11590852588415146,"63":-1.4073379039764404,"64":0.07710137218236923,"65":-1.4068608283996582,"66":-0.8939130306243896,"67":-0.11390599608421326,"68":0.8507383465766907,"69":0.2162666916847229,"70":-0.8154289126396179,"71":0.05700152739882469,"72":0.9235514998435974,"73":-0.7990016341209412,"74":-0.41660964488983154,"75":-0.0007765740156173706,"76":-0.41705387830734253,"77":0.6992510557174683,"78":0.590373694896698,"79":0.9889633655548096,"80":0.9693462252616882,"81":-0.8008907437324524,"82":-0.7181324362754822,"83":1.3262697458267212,"84":-0.6741554141044617,"85":1.5181461572647095,"86":-0.34034815430641174,"87":-0.05751277133822441,"88":-1.0865622758865356,"89":-0.22584208846092224,"90":-0.32364121079444885,"91":0.1390281468629837,"92":-1.0085755586624146,"93":0.6640686988830566,"94":-0.37255409359931946,"95":-0.29622119665145874,"96":0.4198770821094513,"97":-0.6237847208976746,"98":-0.10991266369819641,"99":-0.5388646125793457,"100":-0.6387084722518921,"101":0.7112617492675781,"102":-0.09320516884326935,"103":-1.362533450126648,"104":0.4190686345100403,"105":-2.5331342220306396,"106":0.03444068878889084,"107":-0.26146435737609863,"108":1.815975546836853,"109":0.054081037640571594,"110":-0.41903939843177795,"111":-0.2815462648868561,"112":0.38624927401542664,"113":0.0548318512737751,"114":-0.36823225021362305,"115":0.41206517815589905,"116":-0.35392457246780396,"117":0.8579981923103333,"118":1.4365063905715942,"119":0.43570294976234436,"120":-0.6245157718658447,"121":0.08195412158966064,"122":-0.7638638019561768,"123":-0.8234261274337769,"124":1.408859372138977,"125":-0.5780370831489563,"126":0.38117697834968567,"127":-0.546912670135498,"128":-1.0914849042892456,"129":0.43496525287628174,"130":0.1377968192100525,"131":-0.385079950094223,"132":1.5606917142868042,"133":1.2071291208267212,"134":1.0792218446731567,"135":-0.8230841755867004,"136":1.1953697204589844,"137":-1.255829930305481,"138":0.07026153057813644,"139":-0.4035404622554779,"140":-0.42791205644607544,"141":-0.17491735517978668,"142":0.021034205332398415,"143":0.7769920825958252,"144":-1.0091094970703125,"145":0.8862748742103577,"146":-0.05229901894927025,"147":-1.2509664297103882,"148":0.41498419642448425,"149":-0.1730683594942093,"150":-0.7418716549873352,"151":0.9214025735855103,"152":-0.06840498745441437,"153":-0.16403570771217346,"154":0.035497795790433884,"155":0.683076798915863,"156":0.6219931840896606,"157":-0.252186119556427,"158":-1.354614496231079,"159":-0.9904584884643555,"160":0.554699718952179,"161":0.6284918189048767,"162":0.41317257285118103,"163":-0.2439287155866623,"164":0.7202754020690918,"165":-0.053983524441719055,"166":0.45699670910835266,"167":0.6853659152984619,"168":-1.0137884616851807,"169":0.7042906880378723,"170":-0.4744122624397278,"171":0.8142511248588562,"172":-0.975829005241394,"173":0.5550678372383118,"174":0.4501965641975403,"175":-0.4686344265937805,"176":0.24547287821769714,"177":-0.15840351581573486,"178":-0.3830702006816864,"179":-0.39712291955947876,"180":-0.119664765894413,"181":-0.7391690611839294,"182":-1.2205650806427002,"183":0.6532240509986877,"184":0.8941389918327332,"185":0.37154969573020935,"186":1.0704073905944824,"187":0.5284399390220642,"188":-1.4531497955322266,"189":-0.013709435239434242,"190":-0.34128710627555847,"191":0.10400844365358353,"192":-0.1386452317237854,"193":1.660178542137146,"194":1.3951610326766968,"195":-0.2271619737148285,"196":1.4390047788619995,"197":-1.2658896446228027,"198":-0.6623414754867554,"199":-0.6725184321403503,"200":0.1330995410680771,"201":-0.5001707673072815,"202":0.6222101449966431,"203":1.3067160844802856,"204":1.0563241243362427,"205":-1.379171371459961,"206":-1.553370714187622,"207":0.21206898987293243,"208":0.48279544711112976,"209":-0.09195089340209961,"210":-0.45359522104263306,"211":-0.5372681617736816,"212":-0.7526460886001587,"213":-1.303447961807251,"214":-1.4466673135757446,"215":0.8940973281860352,"216":-0.26683488488197327,"217":0.9209324717521667,"218":0.7900819778442383,"219":-0.6341862678527832,"220":-0.7020853757858276,"221":0.18736915290355682,"222":-0.06839397549629211,"223":-1.3112181425094604,"224":1.1589627265930176,"225":-0.35082387924194336,"226":1.2135992050170898,"227":-0.38106799125671387,"228":-1.4161492586135864,"229":0.5705946087837219,"230":0.4512577950954437,"231":0.2589471638202667,"232":-0.034773338586091995,"233":1.2777576446533203,"234":1.1782538890838623,"235":-1.3846333026885986,"236":0.5230375528335571,"237":-0.7041654586791992,"238":-1.0670174360275269,"239":-0.5091705918312073,"240":1.2152156829833984,"241":-0.9548735022544861,"242":-0.651805579662323,"243":1.0415349006652832,"244":0.9711452722549438,"245":0.6073662638664246,"246":-0.7135135531425476,"247":1.6777245998382568,"248":-0.7613970041275024,"249":-0.6427448391914368,"250":-0.8357954621315002,"251":-0.4284737706184387,"252":-0.17115676403045654,"253":0.960072934627533,"254":0.9036336541175842,"255":0.33851829171180725,"256":1.0423564910888672,"257":-1.5059400796890259,"258":0.4797050952911377,"259":-1.0397450923919678,"260":-1.2215981483459473,"261":-0.9163702726364136,"262":0.3629923462867737,"263":0.2795155346393585,"264":-1.243090033531189,"265":0.8657079935073853,"266":-0.7905383110046387,"267":-0.6946108937263489,"268":0.7595046162605286,"269":0.21481940150260925,"270":1.0128099918365479,"271":0.3627155125141144,"272":1.05314302444458,"273":-0.7009902000427246,"274":-0.8969664573669434,"275":0.26257017254829407,"276":-0.21261414885520935,"277":0.5599138736724854,"278":0.549961507320404,"279":-0.07264644652605057,"280":-2.1723129749298096,"281":-0.46839776635169983,"282":1.2440842390060425,"283":-0.32044994831085205,"284":-1.1564679145812988,"285":0.6359032988548279,"286":-0.7685003876686096,"287":-1.7330150604248047,"288":1.4152737855911255,"289":-0.6463892459869385,"290":1.4932194948196411,"291":-0.7285086512565613,"292":1.1283069849014282,"293":-0.24333497881889343,"294":-0.2857320308685303,"295":0.06991292536258698,"296":-0.6636999249458313,"297":-0.05386342853307724,"298":1.9335604906082153,"299":0.2536938488483429,"300":1.0789449214935303,"301":0.0623462088406086,"302":0.4834636151790619,"303":1.5999085903167725,"304":0.8083764314651489,"305":1.8900573253631592,"306":0.814740777015686,"307":0.5847815871238708,"308":-0.9029858708381653,"309":1.1208372116088867,"310":-2.5590226650238037,"311":1.896924614906311,"312":-1.265013575553894,"313":0.44322988390922546,"314":0.7543072700500488,"315":-2.0439562797546387,"316":-0.02732308954000473,"317":-1.3459405899047852,"318":-1.4955302476882935,"319":-1.7580769062042236,"320":-1.4501152038574219,"321":-0.5808658003807068,"322":-0.284419983625412,"323":0.38590046763420105,"324":0.2902434468269348,"325":0.7536447644233704,"326":-1.0958037376403809,"327":-1.0364867448806763,"328":0.571368396282196,"329":0.47249457240104675,"330":-0.20651182532310486,"331":-0.1390410214662552,"332":1.0272538661956787,"333":0.28503474593162537,"334":0.6907063126564026,"335":0.0025364188477396965,"336":-0.02015804313123226,"337":-0.7140832543373108,"338":1.6352401971817017,"339":-0.43954339623451233,"340":1.1068612337112427,"341":0.12314887344837189,"342":-0.6030309200286865,"343":0.9132431149482727,"344":0.28714075684547424,"345":0.4414500296115875,"346":0.15434996783733368,"347":1.0377018451690674,"348":-0.9248630404472351,"349":0.22379326820373535,"350":-0.6364152431488037,"351":0.521425724029541,"352":-0.6179671287536621,"353":0.14153392612934113,"354":0.05003301426768303,"355":0.2761863172054291,"356":-0.05694939196109772,"357":-0.08517367392778397,"358":-1.2890392541885376,"359":0.6723387241363525,"360":0.7705981731414795,"361":-0.5200930237770081,"362":0.7677796483039856,"363":1.3302589654922485,"364":-0.27875059843063354,"365":1.3894600868225098,"366":0.07910721004009247,"367":0.3272342085838318,"368":-0.4721775949001312,"369":-0.23714521527290344,"370":0.2612993121147156,"371":-0.9679840207099915,"372":-0.8178302645683289,"373":0.16952720284461975,"374":-0.3646804392337799,"375":-0.04357302933931351,"376":-0.1256830096244812,"377":-0.01618712954223156,"378":-1.0689473152160645,"379":0.2774812579154968,"380":-0.06637910008430481,"381":-1.278039574623108,"382":0.4944610893726349,"383":0.25853484869003296,"384":-1.1743247509002686,"385":1.0739580392837524,"386":1.1741995811462402,"387":0.12696638703346252,"388":-0.019898289814591408,"389":0.11071645468473434,"390":-1.8730639219284058,"391":1.0883336067199707,"392":-0.8717637062072754,"393":0.3750355541706085,"394":-0.1872614026069641,"395":-0.6177405118942261,"396":-0.3186592757701874,"397":-0.09874974191188812,"398":-1.347737431526184,"399":-1.5196319818496704}},"cellActivationBias":{"rows":20,"columns":1,"weights":{"0":-0.6626282334327698,"1":1.2114102840423584,"2":0.6783978343009949,"3":-1.2621901035308838,"4":1.8054745197296143,"5":-1.7737997770309448,"6":-1.2215405702590942,"7":-0.5503025650978088,"8":1.1395153999328613,"9":-0.09727874398231506,"10":-0.30318883061408997,"11":-0.010528212413191795,"12":1.0045636892318726,"13":-0.019880590960383415,"14":-0.1831517517566681,"15":0.8262937068939209,"16":-0.5636476874351501,"17":0.21651874482631683,"18":0.7965921759605408,"19":1.2932934761047363}}},{"inputMatrix":{"rows":20,"columns":20,"weights":{"0":-3.6141905784606934,"1":0.7903949022293091,"2":2.004709005355835,"3":-0.30476444959640503,"4":-0.9472394585609436,"5":0.25224071741104126,"6":0.11261003464460373,"7":-3.4516053199768066,"8":0.7074720859527588,"9":1.6333928108215332,"10":1.809070348739624,"11":-0.020604541525244713,"12":0.05212339386343956,"13":-0.5072010159492493,"14":1.4991779327392578,"15":0.994910478591919,"16":-0.28246140480041504,"17":0.02561960369348526,"18":-0.44437992572784424,"19":-0.22233591973781586,"20":-0.2061028629541397,"21":0.02410164847970009,"22":-1.199999213218689,"23":-0.47806623578071594,"24":-1.603330135345459,"25":-0.5763360857963562,"26":-0.5739431977272034,"27":-2.411623001098633,"28":1.669814109802246,"29":-0.3388688266277313,"30":0.5434402227401733,"31":-1.268479585647583,"32":0.39893215894699097,"33":-1.1637394428253174,"34":-0.6845879554748535,"35":-0.17715908586978912,"36":-1.062485933303833,"37":0.8912448287010193,"38":-0.3041371703147888,"39":-0.4258895516395569,"40":0.5034759044647217,"41":0.42191728949546814,"42":0.46237418055534363,"43":0.27935680747032166,"44":-1.6234979629516602,"45":0.16925345361232758,"46":-0.7375729084014893,"47":-1.0308434963226318,"48":0.41988274455070496,"49":-0.4714314043521881,"50":-0.5090247988700867,"51":0.5001524090766907,"52":0.11784667521715164,"53":-0.4252851903438568,"54":-0.8800959587097168,"55":0.5243584513664246,"56":-0.5421623587608337,"57":0.2368927150964737,"58":-0.4484906494617462,"59":-0.0329948253929615,"60":-3.6305394172668457,"61":-0.6882660984992981,"62":1.1358122825622559,"63":-0.800946056842804,"64":-0.6672477722167969,"65":-0.9463426470756531,"66":0.3820122480392456,"67":-2.1653735637664795,"68":0.08818735927343369,"69":0.8230956196784973,"70":-0.11685138940811157,"71":-0.6173755526542664,"72":1.5219993591308594,"73":-0.6933389902114868,"74":0.3906380534172058,"75":-0.6373990178108215,"76":-0.38174867630004883,"77":-0.07753787934780121,"78":2.2144947052001953,"79":0.22073698043823242,"80":-0.5845649242401123,"81":0.32573631405830383,"82":-1.2100896835327148,"83":-0.24574138224124908,"84":0.37597551941871643,"85":-0.4134089946746826,"86":0.5693079233169556,"87":-2.4733550548553467,"88":-2.0848777294158936,"89":0.22614768147468567,"90":0.7791669368743896,"91":0.4745376408100128,"92":-0.47413402795791626,"93":1.0170546770095825,"94":-0.3992847204208374,"95":0.09884248673915863,"96":1.03243088722229,"97":-0.25684767961502075,"98":1.3590961694717407,"99":1.6065387725830078,"100":0.11009040474891663,"101":0.3121383786201477,"102":-0.35396310687065125,"103":-0.38324183225631714,"104":-1.7386894226074219,"105":0.6722947955131531,"106":0.6275842785835266,"107":-0.406057208776474,"108":0.7513907551765442,"109":0.1066780835390091,"110":0.0020190798677504063,"111":0.3914288282394409,"112":-1.1492300033569336,"113":-0.9524869918823242,"114":-0.12583954632282257,"115":0.8653856515884399,"116":-0.3844868838787079,"117":1.0100085735321045,"118":0.6021872162818909,"119":0.8452285528182983,"120":-1.2129088640213013,"121":0.07303109765052795,"122":-0.14835067093372345,"123":0.22901754081249237,"124":0.7034823298454285,"125":0.16269217431545258,"126":0.5906063318252563,"127":1.3810275793075562,"128":-0.1277444064617157,"129":0.84222412109375,"130":0.29881200194358826,"131":-0.4281294345855713,"132":-0.20380890369415283,"133":0.6121912598609924,"134":1.3772815465927124,"135":-0.7900528907775879,"136":1.5483967065811157,"137":-0.9924699664115906,"138":-1.1333253383636475,"139":-0.5263743996620178,"140":0.46998175978660583,"141":0.8458201885223389,"142":2.1088125705718994,"143":2.483581066131592,"144":-1.4066344499588013,"145":1.024247407913208,"146":-0.38426414132118225,"147":0.7128785848617554,"148":-0.6449687480926514,"149":-0.004381313920021057,"150":0.7694510817527771,"151":-0.713291347026825,"152":-0.1297680139541626,"153":1.6747632026672363,"154":1.1593234539031982,"155":-1.277120590209961,"156":0.5269628167152405,"157":-1.3681690692901611,"158":0.9791144132614136,"159":-0.6446014046669006,"160":0.7454811930656433,"161":0.9895654916763306,"162":-0.547315239906311,"163":0.5333292484283447,"164":1.2600420713424683,"165":-1.047982096672058,"166":-0.7048112750053406,"167":2.8586807250976562,"168":0.3336750268936157,"169":0.3202045261859894,"170":-0.7459924817085266,"171":-1.1767016649246216,"172":-0.6480786204338074,"173":0.360870361328125,"174":0.6542395353317261,"175":0.48934417963027954,"176":1.321739912033081,"177":-0.5638223886489868,"178":-1.234290599822998,"179":0.20612554252147675,"180":2.2947728633880615,"181":0.02923404984176159,"182":2.798189640045166,"183":-1.6342381238937378,"184":-0.20292343199253082,"185":-1.9182929992675781,"186":-0.1681094616651535,"187":2.618760585784912,"188":-0.07162506878376007,"189":-0.6186584830284119,"190":-1.0460275411605835,"191":-0.6556206345558167,"192":-0.5266513824462891,"193":-1.576062798500061,"194":-0.7384657859802246,"195":0.3194817900657654,"196":-1.1876393556594849,"197":0.6010401844978333,"198":0.35225412249565125,"199":1.2659447193145752,"200":1.2499210834503174,"201":1.0773171186447144,"202":-0.36077314615249634,"203":0.7181621193885803,"204":0.48180073499679565,"205":0.39949801564216614,"206":-0.5236934423446655,"207":-0.545352578163147,"208":-0.01128382608294487,"209":-0.4933709502220154,"210":-0.46939241886138916,"211":0.7568386793136597,"212":-0.8063132166862488,"213":1.3317245244979858,"214":0.19973504543304443,"215":-2.9697723388671875,"216":-0.19203418493270874,"217":-0.7077329158782959,"218":-2.296483039855957,"219":0.7338953018188477,"220":-1.8984946012496948,"221":1.096138596534729,"222":-1.4047863483428955,"223":0.5769565105438232,"224":-0.9696251153945923,"225":2.6164567470550537,"226":0.2381315380334854,"227":-3.0917444229125977,"228":1.1934309005737305,"229":0.8935171365737915,"230":0.5011972784996033,"231":0.620631992816925,"232":2.116732120513916,"233":0.7736667394638062,"234":-0.16148801147937775,"235":-1.6134415864944458,"236":0.7067513465881348,"237":0.12166035175323486,"238":1.813395380973816,"239":0.25342458486557007,"240":1.948815107345581,"241":-0.6412158608436584,"242":-2.1974663734436035,"243":-0.05292374640703201,"244":-1.0691026449203491,"245":0.062048085033893585,"246":0.42028239369392395,"247":0.4363594353199005,"248":0.32601603865623474,"249":-0.9875514507293701,"250":0.3715323507785797,"251":0.3945743143558502,"252":-0.8833982348442078,"253":-0.2611500918865204,"254":2.660405397415161,"255":-2.6258132457733154,"256":-0.026841728016734123,"257":-2.015087842941284,"258":-0.6728652715682983,"259":0.8821457028388977,"260":-1.9464631080627441,"261":0.37761378288269043,"262":1.9033379554748535,"263":-0.777431309223175,"264":-1.7522263526916504,"265":-0.4964083731174469,"266":-0.4755343496799469,"267":-2.393575668334961,"268":0.4567282795906067,"269":-0.3941694498062134,"270":1.5212148427963257,"271":-0.07140399515628815,"272":0.06370662152767181,"273":-0.9100385904312134,"274":-1.1148476600646973,"275":0.04868558049201965,"276":-1.7341245412826538,"277":1.200369119644165,"278":1.5712943077087402,"279":0.6691198348999023,"280":-0.8657333254814148,"281":0.37780436873435974,"282":-0.35108307003974915,"283":-0.9676628112792969,"284":-0.6732360124588013,"285":0.6653778553009033,"286":-0.07972660660743713,"287":-1.8312671184539795,"288":0.882246196269989,"289":2.017098903656006,"290":0.0650680884718895,"291":1.3429566621780396,"292":0.007602316793054342,"293":-0.08605638891458511,"294":-0.4001576006412506,"295":-0.3821834623813629,"296":-0.8850752711296082,"297":0.9343926906585693,"298":0.7005942463874817,"299":-1.2338720560073853,"300":-0.10839864611625671,"301":0.5909796953201294,"302":0.5995771288871765,"303":-0.2797912657260895,"304":0.5729449391365051,"305":0.9648486971855164,"306":0.8285530209541321,"307":-1.4256138801574707,"308":-1.1849690675735474,"309":0.6680808663368225,"310":1.2009226083755493,"311":0.0461544543504715,"312":-0.45341452956199646,"313":1.2056137323379517,"314":0.569079577922821,"315":1.233022689819336,"316":1.5986272096633911,"317":-0.5741531848907471,"318":1.6664421558380127,"319":-0.3028258681297302,"320":0.41530776023864746,"321":0.25478029251098633,"322":-1.016749620437622,"323":-0.5657106041908264,"324":0.9527011513710022,"325":0.00542571023106575,"326":2.4132959842681885,"327":-0.35412871837615967,"328":-1.0043344497680664,"329":1.0960683822631836,"330":-1.4667539596557617,"331":1.498082160949707,"332":0.10357978940010071,"333":0.7974904179573059,"334":0.1802857220172882,"335":-0.7503299713134766,"336":0.4668736457824707,"337":-0.8312071561813354,"338":-0.285988450050354,"339":-0.9839813709259033,"340":-1.1548972129821777,"341":1.5475409030914307,"342":0.2587122917175293,"343":-1.2063772678375244,"344":1.020633339881897,"345":-0.7977551817893982,"346":-0.28950878977775574,"347":2.3846611976623535,"348":0.3625067174434662,"349":0.5396087765693665,"350":0.6564303040504456,"351":-1.4055007696151733,"352":1.0063310861587524,"353":1.0441598892211914,"354":0.7466028928756714,"355":-1.4215573072433472,"356":0.7459046244621277,"357":-1.1939116716384888,"358":1.5518828630447388,"359":1.6795649528503418,"360":-1.7899047136306763,"361":-0.3147914409637451,"362":0.006107071880251169,"363":-0.677227258682251,"364":-0.0016807601787149906,"365":-0.4219360649585724,"366":0.20549626648426056,"367":-1.2972407341003418,"368":0.3633262813091278,"369":1.430103063583374,"370":-2.0080039501190186,"371":0.6729958057403564,"372":0.7345799803733826,"373":0.6493632197380066,"374":0.048925962299108505,"375":-0.5908396244049072,"376":0.09636502712965012,"377":0.2701159417629242,"378":0.1214703619480133,"379":-1.3019461631774902,"380":0.9202819466590881,"381":0.5979926586151123,"382":0.0017843723762780428,"383":0.34528154134750366,"384":0.9471325278282166,"385":-0.3941904306411743,"386":0.4991343021392822,"387":0.8059879541397095,"388":0.914160966873169,"389":-0.30797699093818665,"390":-0.25814446806907654,"391":-0.2500922679901123,"392":-0.6547015905380249,"393":1.5882821083068848,"394":1.4690935611724854,"395":-1.647416353225708,"396":-0.017920630052685738,"397":-2.0640130043029785,"398":0.19746355712413788,"399":-1.0184540748596191}},"inputHidden":{"rows":20,"columns":20,"weights":{"0":-0.37502792477607727,"1":-0.45567286014556885,"2":-2.4111545085906982,"3":0.9459978342056274,"4":-0.9034395217895508,"5":-0.14217278361320496,"6":-0.23383387923240662,"7":0.22937946021556854,"8":-0.504672110080719,"9":0.21456804871559143,"10":0.9538860321044922,"11":-1.1379075050354004,"12":2.037550687789917,"13":-2.1285226345062256,"14":2.1297264099121094,"15":2.555006504058838,"16":1.411375880241394,"17":-0.47831282019615173,"18":0.6467384099960327,"19":-1.3465780019760132,"20":0.4902220368385315,"21":0.17933441698551178,"22":-0.6090618371963501,"23":-1.689812183380127,"24":-0.28163254261016846,"25":1.0073049068450928,"26":1.0816402435302734,"27":0.1581544131040573,"28":0.4048492908477783,"29":0.2989056706428528,"30":1.7594201564788818,"31":-0.7427067756652832,"32":0.4115106165409088,"33":1.3473273515701294,"34":-0.08229312300682068,"35":1.6962991952896118,"36":-0.5513659715652466,"37":0.5792883634567261,"38":0.206644669175148,"39":-0.9820939302444458,"40":-0.6705297827720642,"41":-2.3987553119659424,"42":-0.32832303643226624,"43":0.5551268458366394,"44":2.779609441757202,"45":1.499950647354126,"46":1.8500083684921265,"47":-0.2564712464809418,"48":-0.23768562078475952,"49":1.218794345855713,"50":-0.14047755300998688,"51":-0.9808331727981567,"52":0.13543841242790222,"53":-0.09231650829315186,"54":0.9538703560829163,"55":0.6318550109863281,"56":-1.8561246395111084,"57":-2.519953727722168,"58":1.2325890064239502,"59":1.8379192352294922,"60":1.1743292808532715,"61":2.5031681060791016,"62":1.1068171262741089,"63":0.867175281047821,"64":-1.7104463577270508,"65":-0.3698778748512268,"66":1.752119541168213,"67":2.8791491985321045,"68":-2.2696030139923096,"69":0.5361440181732178,"70":-0.7453692555427551,"71":-0.09411729872226715,"72":0.41257598996162415,"73":4.010983943939209,"74":1.0903867483139038,"75":-0.7087307572364807,"76":2.9317402839660645,"77":1.933156132698059,"78":-0.331114262342453,"79":-3.686579465866089,"80":1.2066643238067627,"81":0.08765774220228195,"82":-0.7600505352020264,"83":0.9429928064346313,"84":-1.4700989723205566,"85":2.7489283084869385,"86":-0.8374749422073364,"87":-1.4077690839767456,"88":0.10995862632989883,"89":-3.2824623584747314,"90":-0.4098641574382782,"91":0.17853514850139618,"92":2.4886715412139893,"93":1.5024031400680542,"94":-0.3417057991027832,"95":1.245252251625061,"96":1.7696162462234497,"97":0.968960702419281,"98":0.280179500579834,"99":-0.3422512114048004,"100":0.7660296559333801,"101":-2.0848865509033203,"102":-1.3332629203796387,"103":0.26839351654052734,"104":-0.058815352618694305,"105":2.403411626815796,"106":-0.4162196218967438,"107":-2.1011078357696533,"108":-0.03484430909156799,"109":0.29828524589538574,"110":0.35619956254959106,"111":0.5919020175933838,"112":0.6129761934280396,"113":-2.0787479877471924,"114":1.622502088546753,"115":-2.4325203895568848,"116":-0.34223461151123047,"117":0.039643969386816025,"118":-0.27747130393981934,"119":0.5099547505378723,"120":1.3135710954666138,"121":0.858771800994873,"122":2.785764217376709,"123":-1.5143376588821411,"124":-0.4098846912384033,"125":-1.082207441329956,"126":0.8918142914772034,"127":1.5630590915679932,"128":0.4219251573085785,"129":-0.5126745700836182,"130":-0.34013867378234863,"131":-0.12888486683368683,"132":0.16953307390213013,"133":-0.5723804831504822,"134":0.2061520516872406,"135":1.18031644821167,"136":-0.761795699596405,"137":-0.2768786549568176,"138":0.8693150877952576,"139":0.48179787397384644,"140":0.06670281291007996,"141":0.966550350189209,"142":0.6530960202217102,"143":-2.0760092735290527,"144":1.2220008373260498,"145":0.4353438913822174,"146":0.8894949555397034,"147":0.8688536286354065,"148":-0.2416420578956604,"149":-1.2326682806015015,"150":0.18622131645679474,"151":0.3082481622695923,"152":-0.25175371766090393,"153":-0.1842324286699295,"154":0.9591195583343506,"155":1.618333339691162,"156":-0.7625137567520142,"157":0.9681004881858826,"158":2.011162281036377,"159":2.2409791946411133,"160":-1.7750966548919678,"161":0.2996846139431,"162":-1.4183955192565918,"163":0.10700517147779465,"164":0.2575337886810303,"165":1.7460204362869263,"166":-0.004230864811688662,"167":-1.1548349857330322,"168":-0.22397294640541077,"169":0.19922013580799103,"170":0.831506073474884,"171":-1.1621243953704834,"172":0.17461618781089783,"173":0.3936988115310669,"174":2.0532889366149902,"175":1.9552690982818604,"176":-0.23477312922477722,"177":-0.7462908625602722,"178":-0.17726199328899384,"179":1.49685800075531,"180":2.355440616607666,"181":0.9665624499320984,"182":0.07609982788562775,"183":1.3143115043640137,"184":0.23043668270111084,"185":-1.137591004371643,"186":-0.7842238545417786,"187":0.0017293269047513604,"188":-1.9927866458892822,"189":0.28190529346466064,"190":-0.6386958956718445,"191":-1.8396998643875122,"192":-0.3241632580757141,"193":0.32779473066329956,"194":0.8600612878799438,"195":-0.2291414588689804,"196":0.7170044183731079,"197":0.7356473207473755,"198":0.23744550347328186,"199":-0.7436444759368896,"200":0.03895243629813194,"201":-0.22337527573108673,"202":-0.28818315267562866,"203":-1.3658398389816284,"204":0.6970484852790833,"205":1.750439167022705,"206":1.2949728965759277,"207":-0.43305596709251404,"208":0.033817365765571594,"209":0.8934725522994995,"210":1.0481832027435303,"211":-0.47994092106819153,"212":0.8580479621887207,"213":0.07135681807994843,"214":0.28564825654029846,"215":1.663303017616272,"216":0.24587412178516388,"217":-1.4876099824905396,"218":0.5681580901145935,"219":0.7937386631965637,"220":-0.4993732273578644,"221":0.8021520972251892,"222":-0.5437657237052917,"223":0.9349353313446045,"224":0.6289860606193542,"225":2.3607754707336426,"226":1.2376072406768799,"227":-0.2896603047847748,"228":0.6068155169487,"229":-1.9396328926086426,"230":0.37962570786476135,"231":1.4340003728866577,"232":-0.19342605769634247,"233":1.473747968673706,"234":-0.7160278558731079,"235":0.337176650762558,"236":-0.8045023679733276,"237":-1.3773165941238403,"238":-0.8508142232894897,"239":0.9672271609306335,"240":0.9109696745872498,"241":-0.5119648575782776,"242":-1.7898457050323486,"243":-0.3693927824497223,"244":0.36298930644989014,"245":0.19542141258716583,"246":0.5363798141479492,"247":-0.6649280190467834,"248":-1.3625900745391846,"249":-0.041623324155807495,"250":0.730259120464325,"251":0.13583502173423767,"252":2.309001922607422,"253":-1.467826008796692,"254":1.4454052448272705,"255":-0.3259298503398895,"256":0.4983943700790405,"257":-1.501815915107727,"258":2.4611451625823975,"259":-0.25438961386680603,"260":-0.9373782277107239,"261":-0.5298693180084229,"262":-0.6635345816612244,"263":-1.3967307806015015,"264":0.49094003438949585,"265":1.4656658172607422,"266":0.1384287178516388,"267":-1.5584726333618164,"268":0.31283438205718994,"269":-1.4128549098968506,"270":1.3096450567245483,"271":-0.06737034022808075,"272":0.4246140718460083,"273":-0.11850794404745102,"274":-0.027132749557495117,"275":1.1154690980911255,"276":0.3148673474788666,"277":-0.7816710472106934,"278":0.20308740437030792,"279":0.5769146084785461,"280":-2.1869659423828125,"281":-0.5451139211654663,"282":1.0198006629943848,"283":-1.571226716041565,"284":-0.788124680519104,"285":0.7524504065513611,"286":-3.0706894397735596,"287":-0.12913505733013153,"288":1.0023657083511353,"289":-1.200305461883545,"290":-0.16385546326637268,"291":0.49032390117645264,"292":-1.4448267221450806,"293":-0.6844855546951294,"294":-1.2495903968811035,"295":0.16462434828281403,"296":-2.296921491622925,"297":-1.6706993579864502,"298":-0.7453081607818604,"299":-1.3917241096496582,"300":-2.1276938915252686,"301":0.05489232391119003,"302":-0.7793949842453003,"303":2.107440948486328,"304":1.2185189723968506,"305":2.269653797149658,"306":-1.244945764541626,"307":-1.469871163368225,"308":0.3189949691295624,"309":-1.0970511436462402,"310":0.45174849033355713,"311":-0.24835968017578125,"312":-0.4696858525276184,"313":-1.5820868015289307,"314":-1.7736338376998901,"315":0.9822621941566467,"316":1.5997949838638306,"317":-0.5334481596946716,"318":-2.1821608543395996,"319":1.3968446254730225,"320":2.744753122329712,"321":-0.3430210053920746,"322":-0.4547194540500641,"323":2.1642637252807617,"324":-0.00144478480797261,"325":-1.411231279373169,"326":-0.6168273091316223,"327":2.180487632751465,"328":0.1022566482424736,"329":0.4788445234298706,"330":-0.2838289439678192,"331":-1.6941816806793213,"332":0.5854155421257019,"333":1.06156325340271,"334":-1.5748817920684814,"335":-0.17671947181224823,"336":1.100623369216919,"337":1.2244857549667358,"338":-0.7375293970108032,"339":-0.7233012914657593,"340":1.7116037607192993,"341":3.0338499546051025,"342":1.7442916631698608,"343":-1.4722247123718262,"344":0.12209524214267731,"345":0.43683236837387085,"346":-1.6920747756958008,"347":0.1149851605296135,"348":-1.7196003198623657,"349":1.6331814527511597,"350":2.49230694770813,"351":-0.37785854935646057,"352":-1.8111377954483032,"353":3.5618927478790283,"354":-0.12010492384433746,"355":-0.9523229598999023,"356":-0.3961457908153534,"357":-0.8598349690437317,"358":-0.594533383846283,"359":1.1390764713287354,"360":1.7957450151443481,"361":2.274033308029175,"362":2.348052740097046,"363":-0.8009172677993774,"364":-0.18769514560699463,"365":0.1957874745130539,"366":-0.7286863923072815,"367":1.7907299995422363,"368":-0.16970710456371307,"369":-0.204976886510849,"370":-0.18981800973415375,"371":1.769894003868103,"372":-0.42706120014190674,"373":2.054323434829712,"374":-1.2244664430618286,"375":0.24944590032100677,"376":1.5004860162734985,"377":1.5146815776824951,"378":-0.8517811298370361,"379":-1.4243693351745605,"380":-0.30130553245544434,"381":1.1207557916641235,"382":0.538714587688446,"383":-0.07776372134685516,"384":-0.10171807557344437,"385":1.5032438039779663,"386":-0.2898164987564087,"387":-1.1632686853408813,"388":0.5006548762321472,"389":-1.5247968435287476,"390":-0.11545568704605103,"391":1.0243958234786987,"392":-0.48823875188827515,"393":1.6049830913543701,"394":-0.616445004940033,"395":0.2939605116844177,"396":2.08912992477417,"397":1.2220934629440308,"398":-1.1960951089859009,"399":-0.2687114477157593}},"inputBias":{"rows":20,"columns":1,"weights":{"0":1.034387230873108,"1":0.39446619153022766,"2":0.8327087163925171,"3":0.9240877628326416,"4":1.228767991065979,"5":-0.06829327344894409,"6":-0.9418323636054993,"7":-0.15536729991436005,"8":0.5733559131622314,"9":0.2966684401035309,"10":0.7528178691864014,"11":-0.5050274133682251,"12":0.47798073291778564,"13":-0.22445689141750336,"14":-0.908359944820404,"15":-1.532555103302002,"16":0.14321385324001312,"17":1.508212685585022,"18":0.4478103816509247,"19":2.1162400245666504}},"forgetMatrix":{"rows":20,"columns":20,"weights":{"0":1.1455168724060059,"1":-0.681865394115448,"2":-1.2871721982955933,"3":2.8910202980041504,"4":1.0511683225631714,"5":2.0488860607147217,"6":-0.7681924104690552,"7":-1.6575838327407837,"8":-1.4275277853012085,"9":0.35909077525138855,"10":-2.4224674701690674,"11":2.084669351577759,"12":-1.442550539970398,"13":1.4167933464050293,"14":1.2791568040847778,"15":-1.3998032808303833,"16":0.6950914263725281,"17":-0.8308499455451965,"18":-1.659521460533142,"19":-0.2446139007806778,"20":1.1388447284698486,"21":-1.4038013219833374,"22":0.7743268609046936,"23":-0.8262803554534912,"24":1.0033551454544067,"25":-0.9511101245880127,"26":0.46504443883895874,"27":0.37022772431373596,"28":-0.8227967619895935,"29":-0.24996674060821533,"30":-0.15073169767856598,"31":0.0077633969485759735,"32":-0.7867634892463684,"33":0.681121826171875,"34":0.7644461393356323,"35":-0.39774787425994873,"36":0.32231342792510986,"37":-0.7663127779960632,"38":-0.9519110321998596,"39":-1.3309333324432373,"40":-0.5519057512283325,"41":0.051215652376413345,"42":0.09723461419343948,"43":0.1454528123140335,"44":0.8078187108039856,"45":0.5066016912460327,"46":-0.6058512926101685,"47":2.3773696422576904,"48":-0.49146026372909546,"49":1.081483006477356,"50":-1.21468186378479,"51":-0.561394214630127,"52":-0.3533959686756134,"53":0.0832216665148735,"54":0.4533213675022125,"55":-1.0276553630828857,"56":0.2666149437427521,"57":-0.6979195475578308,"58":0.292301744222641,"59":-0.5367050766944885,"60":0.33907827734947205,"61":1.6830601692199707,"62":-0.23948292434215546,"63":1.3280153274536133,"64":0.6907504796981812,"65":-0.6134470105171204,"66":-1.2245523929595947,"67":0.9295476078987122,"68":-1.7919363975524902,"69":-0.42142829298973083,"70":-0.7682427167892456,"71":-0.7006779909133911,"72":-0.980848491191864,"73":0.5299056172370911,"74":1.177692174911499,"75":-0.9532061815261841,"76":1.3755947351455688,"77":-1.7611896991729736,"78":0.937580943107605,"79":0.3691949248313904,"80":0.34018149971961975,"81":-0.7537161111831665,"82":-1.2140693664550781,"83":1.723885416984558,"84":-0.4343927800655365,"85":2.164492607116699,"86":-0.5644367337226868,"87":0.7516738176345825,"88":0.13761059939861298,"89":-0.7213691473007202,"90":-0.14140808582305908,"91":0.5313764214515686,"92":-0.07081710547208786,"93":0.21590754389762878,"94":0.3488578796386719,"95":-1.3586128950119019,"96":0.3969222903251648,"97":-0.15641555190086365,"98":-0.33383065462112427,"99":-0.17730842530727386,"100":0.5094931721687317,"101":-0.2754812240600586,"102":0.5974864363670349,"103":-1.4085724353790283,"104":-0.3135448098182678,"105":-1.5419588088989258,"106":-0.3894018232822418,"107":-0.02129615657031536,"108":0.10374712944030762,"109":0.6240647435188293,"110":-0.34398186206817627,"111":0.37821605801582336,"112":-1.6475646495819092,"113":-1.6495225429534912,"114":-1.998752236366272,"115":-0.4299480617046356,"116":-1.5166798830032349,"117":1.7276291847229004,"118":1.1785755157470703,"119":1.4499855041503906,"120":-0.11270492523908615,"121":-0.3336072564125061,"122":0.39919453859329224,"123":0.5977662205696106,"124":-0.5403897166252136,"125":0.19661490619182587,"126":-0.15374350547790527,"127":1.6540278196334839,"128":-0.5404401421546936,"129":-0.27932098507881165,"130":-0.4831470847129822,"131":0.20033444464206696,"132":-1.1889779567718506,"133":-0.032219335436820984,"134":0.7220185399055481,"135":-0.0915626659989357,"136":0.056720003485679626,"137":-0.9916957020759583,"138":-0.7445898652076721,"139":-1.5169401168823242,"140":0.9867033362388611,"141":-0.6037966012954712,"142":-0.7178491353988647,"143":-0.23697316646575928,"144":1.6658916473388672,"145":-0.4199486970901489,"146":0.29682457447052,"147":-0.031174134463071823,"148":-1.9198640584945679,"149":0.45133543014526367,"150":0.38018614053726196,"151":1.345387578010559,"152":-0.054741304367780685,"153":0.3037000298500061,"154":0.35619473457336426,"155":1.0963364839553833,"156":1.3597792387008667,"157":-0.23289570212364197,"158":-1.8131718635559082,"159":-0.6077044010162354,"160":0.07748713344335556,"161":0.12406404316425323,"162":0.2770145833492279,"163":-0.36345788836479187,"164":-0.689195990562439,"165":-0.47580209374427795,"166":-1.0975526571273804,"167":-1.0536959171295166,"168":-0.6157935261726379,"169":0.7521282434463501,"170":0.09847129136323929,"171":-0.05051403120160103,"172":-0.29095372557640076,"173":-0.6167409420013428,"174":-0.6703709959983826,"175":-0.5605069398880005,"176":-0.6916226744651794,"177":0.32671913504600525,"178":0.7538497447967529,"179":1.2297351360321045,"180":0.25324442982673645,"181":-0.970643937587738,"182":1.358436942100525,"183":0.8874183893203735,"184":-0.5703830122947693,"185":0.49325647950172424,"186":-0.6115109920501709,"187":2.0046074390411377,"188":-0.007580078672617674,"189":-0.785252571105957,"190":0.09773899614810944,"191":-0.851821780204773,"192":0.16053107380867004,"193":-0.3691967725753784,"194":0.4217202663421631,"195":-0.17769916355609894,"196":-0.07250097393989563,"197":-0.7214654684066772,"198":0.43877798318862915,"199":-0.017283275723457336,"200":0.002641846425831318,"201":0.5489306449890137,"202":0.05451252683997154,"203":-0.49797603487968445,"204":0.05647091194987297,"205":-0.3495692014694214,"206":0.2799632251262665,"207":-1.727218508720398,"208":0.5288612842559814,"209":1.181860089302063,"210":-0.04718514531850815,"211":0.5793421268463135,"212":-0.29854100942611694,"213":-0.5151386857032776,"214":-0.7245912551879883,"215":0.8085342645645142,"216":-0.23769456148147583,"217":0.6171574592590332,"218":-1.1613889932632446,"219":-1.1555649042129517,"220":-0.10015653073787689,"221":-1.79972505569458,"222":0.672821044921875,"223":0.7818142771720886,"224":-0.5888584852218628,"225":0.519525945186615,"226":1.0779963731765747,"227":0.5220339298248291,"228":-0.8123220801353455,"229":-0.6498980522155762,"230":0.6325467228889465,"231":0.023299578577280045,"232":-0.5074268579483032,"233":-0.03859784081578255,"234":-0.5204482674598694,"235":3.5450751781463623,"236":0.2515515983104706,"237":0.5836014747619629,"238":-0.6737407445907593,"239":-1.0045102834701538,"240":1.5407222509384155,"241":-0.5889253616333008,"242":-0.05374281853437424,"243":1.233011245727539,"244":0.7217968702316284,"245":0.7369661331176758,"246":-0.936028778553009,"247":0.8510968089103699,"248":-0.43215250968933105,"249":-1.5188264846801758,"250":0.9803850054740906,"251":-1.7199828624725342,"252":-0.0761878564953804,"253":0.43344175815582275,"254":0.5252950191497803,"255":-0.9217372536659241,"256":-0.4786343574523926,"257":-0.607819676399231,"258":1.3612860441207886,"259":0.7038732767105103,"260":1.1147974729537964,"261":-0.8908761143684387,"262":2.2832820415496826,"263":1.9437990188598633,"264":0.26172804832458496,"265":0.2697901427745819,"266":-0.2824469804763794,"267":1.0738401412963867,"268":-1.7882195711135864,"269":0.23239712417125702,"270":0.7394925951957703,"271":-0.9544907212257385,"272":-2.7493343353271484,"273":0.46835872530937195,"274":-1.3381491899490356,"275":0.7480425834655762,"276":0.6715818047523499,"277":-0.46771040558815,"278":-0.03238803893327713,"279":-0.13922132551670074,"280":0.7266006469726562,"281":0.3109342157840729,"282":0.15654821693897247,"283":0.44880205392837524,"284":0.5092862844467163,"285":0.13475780189037323,"286":-0.49114760756492615,"287":1.1191022396087646,"288":-1.0300673246383667,"289":0.043980587273836136,"290":0.8597126603126526,"291":-1.2578649520874023,"292":-0.21754154562950134,"293":-0.1298794001340866,"294":-0.5753533244132996,"295":-0.908348560333252,"296":0.055687058717012405,"297":0.37328651547431946,"298":-0.26656705141067505,"299":0.4975510239601135,"300":-0.6144317388534546,"301":-0.3102230727672577,"302":-0.7511037588119507,"303":0.38611704111099243,"304":-1.242838978767395,"305":1.2680809497833252,"306":2.282426118850708,"307":-1.7291473150253296,"308":-0.1715737283229828,"309":0.9400995373725891,"310":0.061982665210962296,"311":0.7160419821739197,"312":0.974526584148407,"313":0.08929644525051117,"314":0.11744223535060883,"315":-0.9951072931289673,"316":-0.4666293263435364,"317":-0.18492916226387024,"318":0.2097575068473816,"319":0.711599588394165,"320":0.7567134499549866,"321":1.2819899320602417,"322":-1.438655972480774,"323":1.4134986400604248,"324":0.16860462725162506,"325":0.29170146584510803,"326":-0.9567340612411499,"327":0.4555288851261139,"328":-0.691908597946167,"329":-0.9208459258079529,"330":0.5452689528465271,"331":-1.2819682359695435,"332":0.0438934788107872,"333":0.932953417301178,"334":1.207548975944519,"335":-0.8714837431907654,"336":1.7077914476394653,"337":-1.696448802947998,"338":2.257373809814453,"339":1.5717841386795044,"340":0.307465523481369,"341":-0.1466304510831833,"342":-0.7660377025604248,"343":1.3251361846923828,"344":-0.44608914852142334,"345":1.0167850255966187,"346":0.23405291140079498,"347":0.8968498706817627,"348":-0.13706544041633606,"349":0.6734361052513123,"350":-0.45991215109825134,"351":0.4389791190624237,"352":-0.1826425939798355,"353":0.5301198959350586,"354":0.8964864015579224,"355":-1.8303583860397339,"356":0.7750653624534607,"357":-1.1326583623886108,"358":-1.03842031955719,"359":0.7119842171669006,"360":2.094558000564575,"361":0.2239638715982437,"362":0.008255400694906712,"363":0.9932289123535156,"364":0.14763839542865753,"365":-0.07214205712080002,"366":-2.112274408340454,"367":1.8589115142822266,"368":-0.32082369923591614,"369":-1.2990165948867798,"370":1.0527927875518799,"371":-0.42748695611953735,"372":-1.1416808366775513,"373":-0.4455491900444031,"374":-0.3374820947647095,"375":-1.5333586931228638,"376":0.3711376190185547,"377":0.5129498243331909,"378":1.4130779504776,"379":1.9553313255310059,"380":-0.2518889605998993,"381":-1.1183197498321533,"382":-1.5745337009429932,"383":0.938819944858551,"384":1.3801764249801636,"385":1.0923709869384766,"386":0.005659802816808224,"387":0.13776935636997223,"388":-0.9261481761932373,"389":0.3124997019767761,"390":-0.5848916172981262,"391":0.5864002704620361,"392":-0.6713422536849976,"393":0.2622506022453308,"394":0.8655036091804504,"395":1.024065375328064,"396":1.6930434703826904,"397":-1.2677277326583862,"398":-1.1268057823181152,"399":-1.29851496219635}},"forgetHidden":{"rows":20,"columns":20,"weights":{"0":-0.7943415641784668,"1":-0.3092750608921051,"2":-0.45839396119117737,"3":-1.0231508016586304,"4":0.2920621335506439,"5":-0.6197540760040283,"6":0.7297277450561523,"7":-0.14818836748600006,"8":0.06614542752504349,"9":-1.4973605871200562,"10":0.30876627564430237,"11":0.5307263731956482,"12":1.2266666889190674,"13":-0.18062075972557068,"14":0.42013585567474365,"15":0.5805251598358154,"16":-1.1283169984817505,"17":-0.5933991074562073,"18":1.143312931060791,"19":0.38264673948287964,"20":0.5996298789978027,"21":-0.08401414006948471,"22":-0.07201237231492996,"23":1.6402003765106201,"24":-0.5007513761520386,"25":-0.41757524013519287,"26":0.3056766092777252,"27":-0.3122522830963135,"28":-0.17053212225437164,"29":-0.4085588753223419,"30":0.1527586579322815,"31":-0.8873142004013062,"32":0.8225452303886414,"33":0.15470288693904877,"34":0.19172324240207672,"35":0.8302711844444275,"36":1.1536668539047241,"37":0.8023601174354553,"38":-0.10462897270917892,"39":0.14805951714515686,"40":-0.14272065460681915,"41":-0.10201272368431091,"42":1.4748975038528442,"43":-0.5823531746864319,"44":1.1309770345687866,"45":0.5373247861862183,"46":-3.164618730545044,"47":-1.2287492752075195,"48":0.7277941703796387,"49":0.21242427825927734,"50":-0.965978741645813,"51":2.995112895965576,"52":-1.3699896335601807,"53":0.7501698136329651,"54":0.5181015729904175,"55":-1.221062421798706,"56":-0.4231055974960327,"57":1.2710151672363281,"58":-0.9377380013465881,"59":2.5876688957214355,"60":1.2659976482391357,"61":0.2057962566614151,"62":2.144200325012207,"63":-0.19330301880836487,"64":-0.28873223066329956,"65":-0.5400441884994507,"66":-0.3319239616394043,"67":0.29247575998306274,"68":-0.8310302495956421,"69":0.28243136405944824,"70":0.21061289310455322,"71":-0.31107521057128906,"72":-1.2193470001220703,"73":-2.6364269256591797,"74":-0.3199560344219208,"75":-0.5334134101867676,"76":0.7138968706130981,"77":0.29444268345832825,"78":-1.4821698665618896,"79":0.24859552085399628,"80":1.0871696472167969,"81":-0.28068968653678894,"82":0.000052255440095905215,"83":-0.37713131308555603,"84":1.1078534126281738,"85":0.9787132143974304,"86":1.4894194602966309,"87":-0.7942178845405579,"88":-0.8644811511039734,"89":-0.5617358684539795,"90":2.9496052265167236,"91":-1.1290465593338013,"92":1.0400954484939575,"93":-0.046777330338954926,"94":1.211327075958252,"95":0.9222161769866943,"96":0.17278048396110535,"97":-1.5583103895187378,"98":0.8075417280197144,"99":0.8232321739196777,"100":0.9749760031700134,"101":-0.5894640684127808,"102":0.9877486228942871,"103":0.2744544446468353,"104":-0.38783910870552063,"105":-1.2179135084152222,"106":-0.5686347484588623,"107":1.0218193531036377,"108":0.00624464638531208,"109":0.4448392391204834,"110":-0.567892849445343,"111":2.5339343547821045,"112":-1.0239523649215698,"113":-0.15880125761032104,"114":0.3640044629573822,"115":-0.6523655652999878,"116":-0.561224102973938,"117":0.26494669914245605,"118":0.7587114572525024,"119":-0.8047765493392944,"120":1.387602686882019,"121":0.12171420454978943,"122":-0.09385475516319275,"123":-0.2631649374961853,"124":-0.9378901124000549,"125":0.9030876159667969,"126":-0.9633734226226807,"127":-0.52364182472229,"128":-1.419588327407837,"129":-2.551093101501465,"130":0.6857258081436157,"131":-1.7599178552627563,"132":1.0748271942138672,"133":0.2534949779510498,"134":0.9687662720680237,"135":1.5531995296478271,"136":-0.027728190645575523,"137":0.1766253113746643,"138":0.39469024538993835,"139":1.5387825965881348,"140":-0.2894276976585388,"141":-0.6657533049583435,"142":-1.2079010009765625,"143":1.216719627380371,"144":-0.5753695368766785,"145":0.469046413898468,"146":0.1158071979880333,"147":0.8582935929298401,"148":0.8464652299880981,"149":0.47966980934143066,"150":-0.16352345049381256,"151":0.29157760739326477,"152":0.631330132484436,"153":-0.3437357246875763,"154":-1.6920413970947266,"155":-1.8484853506088257,"156":0.6678959131240845,"157":1.252354621887207,"158":-0.34862223267555237,"159":-0.9911088347434998,"160":1.3709369897842407,"161":0.20771470665931702,"162":-1.3410106897354126,"163":0.19792892038822174,"164":-0.0988452136516571,"165":0.6744610071182251,"166":-0.3343436121940613,"167":0.526404619216919,"168":-1.419380784034729,"169":-0.06059844419360161,"170":-0.07234785705804825,"171":-0.46070563793182373,"172":0.8147792220115662,"173":-0.587535560131073,"174":0.2906999886035919,"175":0.1990038901567459,"176":-0.506619393825531,"177":0.467385470867157,"178":0.14077550172805786,"179":-0.657776415348053,"180":-1.284424066543579,"181":-1.0229638814926147,"182":-0.9531386494636536,"183":1.5120748281478882,"184":2.1971733570098877,"185":3.1983771324157715,"186":5.172173500061035,"187":-2.844320058822632,"188":1.7675096988677979,"189":-2.075484037399292,"190":-0.10983061790466309,"191":0.9318343997001648,"192":-0.15137989819049835,"193":-0.4337387979030609,"194":0.53947913646698,"195":0.4450882375240326,"196":0.4288703501224518,"197":-0.8327943086624146,"198":-1.0591853857040405,"199":1.5748273134231567,"200":-4.195533752441406,"201":-1.9610233306884766,"202":-0.6520518064498901,"203":-0.5858573317527771,"204":0.7674700021743774,"205":-0.25998082756996155,"206":0.05971432477235794,"207":0.6899666786193848,"208":2.4570674896240234,"209":1.3366845846176147,"210":0.5566098690032959,"211":-0.06974891573190689,"212":0.37549635767936707,"213":0.07110141962766647,"214":-1.0293657779693604,"215":-1.2938152551651,"216":-1.83661949634552,"217":-0.6999771595001221,"218":0.4213482439517975,"219":-0.4824022054672241,"220":-1.3174830675125122,"221":-1.3073863983154297,"222":-0.022325504571199417,"223":1.5662410259246826,"224":0.8803483247756958,"225":0.08742062002420425,"226":1.3895775079727173,"227":-1.195067048072815,"228":-1.1302210092544556,"229":-0.16722077131271362,"230":0.16680864989757538,"231":-1.4747034311294556,"232":0.8846253156661987,"233":-1.4530900716781616,"234":0.5757595896720886,"235":1.695399522781372,"236":-1.0795434713363647,"237":-0.32660478353500366,"238":1.4220571517944336,"239":2.1372714042663574,"240":-1.7973124980926514,"241":0.5694297552108765,"242":-0.29549556970596313,"243":-0.8042598962783813,"244":-2.1441404819488525,"245":0.030467264354228973,"246":-0.9002038240432739,"247":-0.528927743434906,"248":-1.4925060272216797,"249":-4.391571521759033,"250":0.2910861670970917,"251":-0.9409820437431335,"252":0.20768186450004578,"253":0.9633789658546448,"254":1.5396658182144165,"255":1.4353300333023071,"256":-0.16237086057662964,"257":0.25648337602615356,"258":0.4415472447872162,"259":-1.1771118640899658,"260":0.04797377064824104,"261":-0.18870089948177338,"262":-0.2189757078886032,"263":1.2485344409942627,"264":0.1863013654947281,"265":-0.7438141703605652,"266":1.4059686660766602,"267":0.3840450048446655,"268":0.12201717495918274,"269":0.11774573475122452,"270":-0.42923682928085327,"271":-1.1981804370880127,"272":-0.47718486189842224,"273":-0.9135791659355164,"274":0.26404860615730286,"275":0.8973658680915833,"276":-1.0417410135269165,"277":-2.2486071586608887,"278":0.2656841278076172,"279":1.7019017934799194,"280":-0.18325237929821014,"281":-1.0758609771728516,"282":1.0719245672225952,"283":1.5931122303009033,"284":-0.2816387414932251,"285":0.24508538842201233,"286":0.14951421320438385,"287":-0.8151764869689941,"288":0.486268550157547,"289":0.6208383440971375,"290":1.6452096700668335,"291":0.6245805621147156,"292":0.7097612619400024,"293":-0.3213503956794739,"294":-0.24579809606075287,"295":1.456866979598999,"296":0.7865781784057617,"297":0.6935228109359741,"298":0.21806959807872772,"299":0.4512988328933716,"300":-0.7565854787826538,"301":-2.5985143184661865,"302":-0.3814198076725006,"303":1.5341979265213013,