{"type":"LSTM","options":{"inputSize":9,"inputRange":9,"hiddenLayers":[20,20],"outputSize":9,"decayRate":0.999,"smoothEps":1e-8,"regc":0.000001,"clipval":5,"maxPredictionLength":100,"dataFormatter":{"indexTable":{" ":0,"h":1,"e":2,"l":3,"o":4,"i":5,"stop-input":6,"start-output":7,"unrecognized":8},"characterTable":{"0":" ","1":"h","2":"e","3":"l","4":"o","5":"i","6":null,"7":null,"8":null},"values":[" hello","hi"],"characters":[" ","h","e","l","o","i","stop-input","start-output","unrecognized"],"specialIndexes":[6,7,8]}},"input":{"rows":10,"columns":9,"weights":{"0":0.6910592317581177,"1":-0.4074642062187195,"2":1.3644168376922607,"3":-0.10906793177127838,"4":-0.40784621238708496,"5":-0.5151286125183105,"6":-1.0981950759887695,"7":0.5767797827720642,"8":-0.1943736970424652,"9":-1.481003999710083,"10":2.662957191467285,"11":1.25923490524292,"12":-1.5051389932632446,"13":-0.44445371627807617,"14":-0.8329281210899353,"15":-1.3202186822891235,"16":-2.4806220531463623,"17":-0.8698816299438477,"18":0.01631975546479225,"19":0.7131182551383972,"20":-0.053862959146499634,"21":-0.40355008840560913,"22":-0.07762973755598068,"23":0.017464349046349525,"24":0.1280696839094162,"25":-0.665532648563385,"26":-0.36206355690956116,"27":0.2990865707397461,"28":-0.13231505453586578,"29":-0.708223819732666,"30":-0.3017999231815338,"31":0.4415036737918854,"32":0.5391834378242493,"33":0.6998932957649231,"34":-0.12312962114810944,"35":-0.31793248653411865,"36":0.38905373215675354,"37":-0.5228071808815002,"38":-0.6313931345939636,"39":0.02666136622428894,"40":0.4547867774963379,"41":0.6400275826454163,"42":0.5927545428276062,"43":-0.2170335054397583,"44":-0.08370781689882278,"45":-0.748320996761322,"46":0.6901329755783081,"47":0.37103164196014404,"48":-1.0147472620010376,"49":-0.6573222875595093,"50":-0.40498432517051697,"51":-0.41880717873573303,"52":-0.5289012789726257,"53":-0.39421480894088745,"54":-0.8075006604194641,"55":1.2604914903640747,"56":0.386188268661499,"57":-0.767721951007843,"58":-0.23786921799182892,"59":-0.21628165245056152,"60":-0.455623596906662,"61":-1.1494652032852173,"62":-0.5886691808700562,"63":0.250692218542099,"64":-1.1156716346740723,"65":1.2461153268814087,"66":-0.345821738243103,"67":-0.5850297212600708,"68":-1.5022563934326172,"69":-1.009581446647644,"70":1.5177409648895264,"71":0.27002274990081787,"72":2.3271522521972656,"73":-0.5662031769752502,"74":-0.5108964443206787,"75":0.9943292140960693,"76":0.7059463858604431,"77":0.6277741193771362,"78":0.7409403324127197,"79":0.7422887682914734,"80":0.778754711151123,"81":-1.9764786958694458,"82":1.2597721815109253,"83":0.9846773743629456,"84":-0.9498018622398376,"85":-1.1598633527755737,"86":-1.0299640893936157,"87":-1.2404870986938477,"88":-1.2122764587402344,"89":-0.056234948337078094}},"hiddenLayers":[{"inputMatrix":{"rows":20,"columns":9,"weights":{"0":0.9522039294242859,"1":0.7569655776023865,"2":0.7741348147392273,"3":-0.9654022455215454,"4":-0.794698178768158,"5":-0.7909955382347107,"6":-0.14350472390651703,"7":-0.7150642275810242,"8":-1.1588492393493652,"9":0.7478698492050171,"10":-0.7540841698646545,"11":0.2286088913679123,"12":0.33788996934890747,"13":0.19662237167358398,"14":-0.09823037683963776,"15":-0.06552284210920334,"16":0.9992809891700745,"17":0.12960802018642426,"18":0.21198788285255432,"19":0.3965398967266083,"20":0.8389635682106018,"21":-1.0598511695861816,"22":-1.0474661588668823,"23":-0.8986523151397705,"24":-0.6863869428634644,"25":-0.4525810480117798,"26":-1.0403157472610474,"27":1.0391347408294678,"28":0.1251840442419052,"29":-1.9885958433151245,"30":0.961053192615509,"31":1.652748465538025,"32":1.8958064317703247,"33":2.113457441329956,"34":-0.4250279366970062,"35":-0.31737691164016724,"36":-0.709024965763092,"37":1.2491252422332764,"38":0.2848159968852997,"39":-1.0663076639175415,"40":-0.5637896656990051,"41":-0.7665897011756897,"42":-0.008038992993533611,"43":-1.4674630165100098,"44":-1.2457044124603271,"45":0.21023909747600555,"46":-0.5408377647399902,"47":-0.3390418291091919,"48":0.6462016105651855,"49":-0.7176048159599304,"50":0.1276731938123703,"51":0.40909865498542786,"52":0.7887603044509888,"53":0.5091665983200073,"54":0.8203836679458618,"55":-1.9304614067077637,"56":0.039587948471307755,"57":-0.11257627606391907,"58":0.06926078349351883,"59":-0.15698209404945374,"60":0.06517487019300461,"61":1.8726414442062378,"62":0.5305256843566895,"63":0.7934649586677551,"64":0.48779717087745667,"65":0.8228727579116821,"66":-1.050309658050537,"67":-0.48506638407707214,"68":-0.685390055179596,"69":-0.45668819546699524,"70":-0.34986963868141174,"71":-0.9759714007377625,"72":0.10884159058332443,"73":0.3796529471874237,"74":0.3928321897983551,"75":-0.34765204787254333,"76":-0.3217584192752838,"77":-0.1619950830936432,"78":0.13672398030757904,"79":-0.4622932970523834,"80":-0.42599013447761536,"81":-1.4540202617645264,"82":0.8743296265602112,"83":0.14892734587192535,"84":-0.16324174404144287,"85":0.056735627353191376,"86":-0.4891633689403534,"87":-0.2793591618537903,"88":-1.0825080871582031,"89":-0.21305502951145172,"90":0.2832261025905609,"91":0.9919351935386658,"92":0.2020476758480072,"93":-0.5225588083267212,"94":-0.012537507340312004,"95":-0.2919192910194397,"96":0.16044186055660248,"97":-1.1579539775848389,"98":-0.6676783561706543,"99":0.22590462863445282,"100":0.3545287847518921,"101":0.09046898782253265,"102":0.2551012635231018,"103":-0.1444804072380066,"104":-0.10238626599311829,"105":0.05648188292980194,"106":-0.276222825050354,"107":0.23199056088924408,"108":0.3779435157775879,"109":-1.1690164804458618,"110":0.32697582244873047,"111":-0.09225678443908691,"112":-0.45503881573677063,"113":-0.578661322593689,"114":-0.4056090712547302,"115":1.193748116493225,"116":0.20897415280342102,"117":-0.011986234225332737,"118":0.5639808773994446,"119":0.20173832774162292,"120":-0.30626633763313293,"121":0.17129945755004883,"122":-0.12375416606664658,"123":-0.11487803608179092,"124":-0.5156710743904114,"125":-0.4174712300300598,"126":1.943293571472168,"127":-1.2941144704818726,"128":0.6059402227401733,"129":0.42339739203453064,"130":-0.06123674660921097,"131":-0.6613603830337524,"132":-0.32453659176826477,"133":1.8956477642059326,"134":0.31776317954063416,"135":-0.19585445523262024,"136":0.4439155161380768,"137":0.7681623697280884,"138":-0.14794602990150452,"139":-0.2566182315349579,"140":-0.5614404678344727,"141":-0.7545797228813171,"142":-0.14768530428409576,"143":-0.6136274933815002,"144":-0.4460776448249817,"145":1.127614140510559,"146":-0.11733099073171616,"147":-0.07121572643518448,"148":0.02513565868139267,"149":-0.15178273618221283,"150":0.4495621919631958,"151":-1.2543412446975708,"152":-0.02694016322493553,"153":0.0857035294175148,"154":1.112259030342102,"155":0.11243483424186707,"156":-1.4667803049087524,"157":-0.16973021626472473,"158":-0.09363097697496414,"159":0.024296971037983894,"160":-1.3101656436920166,"161":-1.359609842300415,"162":0.590254008769989,"163":-0.8456858396530151,"164":-0.9579041600227356,"165":0.7445213198661804,"166":0.8916327357292175,"167":1.0032215118408203,"168":0.7653995156288147,"169":0.5980862379074097,"170":0.7574576735496521,"171":-0.008961156941950321,"172":1.2365871667861938,"173":-0.08947227150201797,"174":-0.7169680595397949,"175":-0.2714431583881378,"176":0.02060423046350479,"177":0.3617357313632965,"178":-1.1437796354293823,"179":-0.78372722864151}},"inputHidden":{"rows":20,"columns":20,"weights":{"0":1.2515978813171387,"1":0.33395475149154663,"2":-1.0169023275375366,"3":-0.209639310836792,"4":1.1970378160476685,"5":0.6953589916229248,"6":0.2745954394340515,"7":-0.17860937118530273,"8":0.6811857223510742,"9":-1.1693241596221924,"10":-1.3548322916030884,"11":0.22292253375053406,"12":0.3894880414009094,"13":-0.3351081311702728,"14":0.12139849364757538,"15":-0.6667863130569458,"16":-0.860060453414917,"17":1.3479888439178467,"18":0.22985462844371796,"19":1.3922969102859497,"20":-1.4499038457870483,"21":0.23022045195102692,"22":1.1564399003982544,"23":-0.26042649149894714,"24":-1.2954744100570679,"25":-1.0765423774719238,"26":-0.9895169138908386,"27":-0.23342186212539673,"28":0.0520496740937233,"29":0.46769869327545166,"30":1.0915640592575073,"31":0.14937922358512878,"32":0.4906674921512604,"33":-0.9133481383323669,"34":0.07639516890048981,"35":-0.37157580256462097,"36":0.9188277125358582,"37":-1.2274452447891235,"38":0.5381810665130615,"39":-1.1163523197174072,"40":0.3639194667339325,"41":-0.04491102322936058,"42":-0.7263824343681335,"43":0.20618315041065216,"44":0.8583056330680847,"45":0.463954359292984,"46":-0.004142617341130972,"47":-0.18539953231811523,"48":0.5471599102020264,"49":-0.5781520009040833,"50":-0.941639244556427,"51":-0.03967343643307686,"52":-0.07325360178947449,"53":-0.19126734137535095,"54":0.42232760787010193,"55":-0.4685317277908325,"56":-0.6316720843315125,"57":0.8984771966934204,"58":-0.11286856234073639,"59":0.9531530737876892,"60":0.517454206943512,"61":-0.493062824010849,"62":-0.4158487617969513,"63":-1.811766266822815,"64":0.32624220848083496,"65":1.328847885131836,"66":0.03527608513832092,"67":-1.3509639501571655,"68":-0.2940083146095276,"69":0.24496476352214813,"70":-0.3518787920475006,"71":-0.22045375406742096,"72":0.14305560290813446,"73":0.7503219842910767,"74":-0.20147673785686493,"75":0.4667264521121979,"76":-0.4518318474292755,"77":0.1636909395456314,"78":-0.519341230392456,"79":0.287428081035614,"80":0.531282901763916,"81":-0.23212645947933197,"82":-0.44712892174720764,"83":-0.6534734964370728,"84":0.5379394292831421,"85":0.6559772491455078,"86":0.915515661239624,"87":-0.2776879072189331,"88":0.3047354519367218,"89":-0.6538944840431213,"90":-0.6966913342475891,"91":0.4574052095413208,"92":-0.21624958515167236,"93":-0.0882243663072586,"94":0.7109904885292053,"95":-0.4895039200782776,"96":-0.3542001247406006,"97":0.7844818830490112,"98":0.0494927279651165,"99":0.6061581969261169,"100":-0.558506190776825,"101":1.5645979642868042,"102":-0.23646752536296844,"103":-0.4436352550983429,"104":0.0679619237780571,"105":-0.8384339213371277,"106":-0.10073533654212952,"107":-1.8454289436340332,"108":0.478644460439682,"109":-0.6153694987297058,"110":0.12710928916931152,"111":1.7922691106796265,"112":0.8477588295936584,"113":-0.9965671300888062,"114":-1.7846238613128662,"115":-3.261019468307495,"116":0.2522687613964081,"117":-0.11800198256969452,"118":0.7897627949714661,"119":-0.0018564555794000626,"120":0.5464314222335815,"121":-0.34483617544174194,"122":-1.8931195735931396,"123":0.05738252401351929,"124":0.6202169060707092,"125":-0.37500742077827454,"126":-0.5457668900489807,"127":-2.17315411567688,"128":0.36556708812713623,"129":-1.517720341682434,"130":-0.8690341114997864,"131":-1.1609649658203125,"132":-0.4039953947067261,"133":1.507429599761963,"134":0.4778363108634949,"135":0.8417787551879883,"136":-0.5326669812202454,"137":0.5081322193145752,"138":-0.4718906283378601,"139":0.6139028668403625,"140":0.6032167673110962,"141":-0.23356953263282776,"142":-0.6335992813110352,"143":-1.4539716243743896,"144":0.6769261956214905,"145":-0.7658869624137878,"146":-0.245442733168602,"147":-0.5757263898849487,"148":0.08846968412399292,"149":-1.4239037036895752,"150":-0.5224173665046692,"151":0.26964712142944336,"152":-0.14607666432857513,"153":-0.10626024007797241,"154":0.32113802433013916,"155":-0.09246589243412018,"156":-0.5234214067459106,"157":0.503153920173645,"158":1.070383906364441,"159":0.5151689052581787,"160":-0.9476131200790405,"161":0.17902183532714844,"162":0.9346894025802612,"163":-0.6002117991447449,"164":-1.1345515251159668,"165":-0.06018030270934105,"166":0.6342403292655945,"167":0.37426307797431946,"168":0.20087909698486328,"169":0.24021072685718536,"170":1.1053292751312256,"171":0.2791832685470581,"172":0.024774370715022087,"173":0.07820559293031693,"174":0.06370135396718979,"175":-0.17206503450870514,"176":1.3173595666885376,"177":-1.360092043876648,"178":1.2137327194213867,"179":-1.326549768447876,"180":1.1408616304397583,"181":-0.32858946919441223,"182":-0.4451501667499542,"183":1.1596969366073608,"184":0.34291285276412964,"185":0.222249835729599,"186":-0.0021858408581465483,"187":0.26219063997268677,"188":-0.6207504272460938,"189":-0.3610759377479553,"190":-0.30418312549591064,"191":-0.08710171282291412,"192":-0.06524325162172318,"193":0.3737506866455078,"194":0.6248525977134705,"195":0.1667417585849762,"196":-0.3700030744075775,"197":0.35812315344810486,"198":-0.3664369285106659,"199":0.35164204239845276,"200":0.9791947603225708,"201":0.021155070513486862,"202":-0.8009076714515686,"203":-0.3853800892829895,"204":0.9338078498840332,"205":0.8182728886604309,"206":0.081122986972332,"207":-0.48984643816947937,"208":0.48914819955825806,"209":-1.0756921768188477,"210":-1.0416406393051147,"211":0.22243744134902954,"212":0.017786094918847084,"213":-0.26698365807533264,"214":0.5902934074401855,"215":0.06145705655217171,"216":-0.5741263031959534,"217":1.0538830757141113,"218":0.4518893361091614,"219":1.1012929677963257,"220":-0.5075677037239075,"221":-0.08370857685804367,"222":0.42436501383781433,"223":-0.11638348549604416,"224":-1.0304986238479614,"225":0.6035303473472595,"226":1.1095625162124634,"227":0.2688220143318176,"228":-0.04889378324151039,"229":0.744450569152832,"230":0.9059805870056152,"231":-0.4680123031139374,"232":-0.6729505658149719,"233":0.536063015460968,"234":-0.5376476645469666,"235":-0.04045876860618591,"236":1.5357447862625122,"237":-1.1995844841003418,"238":0.44527336955070496,"239":-1.1883639097213745,"240":-0.9516619443893433,"241":-0.3894447386264801,"242":0.70849609375,"243":0.3488486707210541,"244":-0.9299890398979187,"245":-0.6268982887268066,"246":-0.08049345761537552,"247":-0.25855210423469543,"248":-0.44467848539352417,"249":0.942966878414154,"250":0.8800517320632935,"251":-0.4146679639816284,"252":-0.29220643639564514,"253":-0.6062067747116089,"254":0.7316318154335022,"255":0.5597798228263855,"256":1.0069600343704224,"257":-1.1563302278518677,"258":0.5395557880401611,"259":-0.9849464297294617,"260":-0.41529783606529236,"261":0.5148801803588867,"262":0.6610718369483948,"263":-1.3047236204147339,"264":-0.9718369841575623,"265":0.5177494883537292,"266":0.22248202562332153,"267":-0.18650192022323608,"268":-0.16346532106399536,"269":0.7109066843986511,"270":0.7936202883720398,"271":0.4584190249443054,"272":-0.16760790348052979,"273":-1.1907333135604858,"274":0.07749848812818527,"275":-0.7638694047927856,"276":1.5616153478622437,"277":-0.9620100259780884,"278":0.7545344233512878,"279":-0.8703916668891907,"280":-0.18683673441410065,"281":1.0090924501419067,"282":1.3204903602600098,"283":-1.7449235916137695,"284":-0.9840551614761353,"285":-0.8594983220100403,"286":-1.7908236980438232,"287":-0.1422635018825531,"288":-1.0427623987197876,"289":0.7015727758407593,"290":0.8395549654960632,"291":0.6015857458114624,"292":1.6593761444091797,"293":1.1093194484710693,"294":-0.8663667440414429,"295":-0.7809999585151672,"296":0.6963220834732056,"297":-0.6731797456741333,"298":-0.016916027292609215,"299":-0.7835991382598877,"300":-0.8281290531158447,"301":2.2683908939361572,"302":-0.5061615109443665,"303":0.6206274032592773,"304":0.09958640486001968,"305":-0.9527019262313843,"306":-2.589496374130249,"307":-2.416980504989624,"308":3.1818349361419678,"309":-1.234317660331726,"310":-0.026387441903352737,"311":-0.3856555223464966,"312":1.6713883876800537,"313":-0.15581031143665314,"314":-0.8074193000793457,"315":-1.3345563411712646,"316":-0.10428740829229355,"317":-0.3753810226917267,"318":0.20587797462940216,"319":-0.1290440708398819,"320":1.329705834388733,"321":0.6636627912521362,"322":-0.984896719455719,"323":-0.29974594712257385,"324":1.1237280368804932,"325":0.6420379281044006,"326":0.25793203711509705,"327":-0.8523841500282288,"328":0.5177642703056335,"329":-1.566457748413086,"330":-0.932354211807251,"331":-0.19901855289936066,"332":0.06697311997413635,"333":0.21392224729061127,"334":0.16990074515342712,"335":0.2874211370944977,"336":-1.1675324440002441,"337":1.0357674360275269,"338":-0.2387574017047882,"339":0.9392975568771362,"340":1.2340947389602661,"341":0.1619243025779724,"342":-0.7137467861175537,"343":0.18675749003887177,"344":0.8313359022140503,"345":0.6516268849372864,"346":0.20828035473823547,"347":-0.1270839422941208,"348":0.35528695583343506,"349":-0.7015178799629211,"350":-0.8259528279304504,"351":0.22486111521720886,"352":0.30530592799186707,"353":-0.4778308570384979,"354":0.8636130690574646,"355":-0.486068457365036,"356":-0.4081155061721802,"357":1.0242350101470947,"358":0.6827343702316284,"359":0.9836275577545166,"360":-0.3834879398345947,"361":0.6716218590736389,"362":0.15293455123901367,"363":0.09985196590423584,"364":-0.38420453667640686,"365":-0.3387642800807953,"366":-0.6638103127479553,"367":-0.42188772559165955,"368":0.5435631275177002,"369":0.7329995036125183,"370":0.5031009912490845,"371":0.40458935499191284,"372":0.5635691285133362,"373":-0.39468175172805786,"374":-1.316200613975525,"375":-0.5840844511985779,"376":0.31361696124076843,"377":-0.5839027166366577,"378":0.15660762786865234,"379":-0.4591854512691498,"380":1.1077618598937988,"381":0.1472361534833908,"382":-0.9962151050567627,"383":-0.3512876629829407,"384":1.1700328588485718,"385":0.7848552465438843,"386":0.09583378583192825,"387":-0.2821503281593323,"388":0.5231932401657104,"389":-1.141912579536438,"390":-1.3808400630950928,"391":0.14703154563903809,"392":0.2741018831729889,"393":-0.2923889458179474,"394":0.7759081721305847,"395":-0.3183232247829437,"396":-0.6726842522621155,"397":1.2645844221115112,"398":0.8479135036468506,"399":1.36636221408844}},"inputBias":{"rows":20,"columns":1,"weights":{"0":1.0520139932632446,"1":0.04779662936925888,"2":0.31354808807373047,"3":0.9697173833847046,"4":0.009642109274864197,"5":0.7771470546722412,"6":0.07235965877771378,"7":2.709637403488159,"8":0.6256431937217712,"9":-0.24466371536254883,"10":0.20777958631515503,"11":-0.24827739596366882,"12":0.06959830969572067,"13":0.8679364919662476,"14":1.9772759675979614,"15":-0.14071844518184662,"16":-0.6784911751747131,"17":0.27800455689430237,"18":-0.5910804271697998,"19":0.08788701146841049}},"forgetMatrix":{"rows":20,"columns":9,"weights":{"0":-1.2770085334777832,"1":0.9226447939872742,"2":0.7340641021728516,"3":-1.4509193897247314,"4":-0.680668830871582,"5":-0.8637117147445679,"6":-0.8997626304626465,"7":-1.0900163650512695,"8":-1.0615463256835938,"9":0.4826647937297821,"10":-0.6447871923446655,"11":-0.19802382588386536,"12":0.6870713829994202,"13":0.2674093246459961,"14":0.1794249564409256,"15":0.325332373380661,"16":0.9052563309669495,"17":0.5877304673194885,"18":-0.24475564062595367,"19":-0.5303142666816711,"20":-0.09125834703445435,"21":-0.2799657881259918,"22":-0.542090654373169,"23":-0.46908462047576904,"24":0.07389054447412491,"25":0.36801645159721375,"26":0.1325230896472931,"27":-0.10099243372678757,"28":-0.2524358332157135,"29":-0.18598705530166626,"30":0.3829113245010376,"31":0.0914037823677063,"32":-0.12810689210891724,"33":0.20604553818702698,"34":0.6194856762886047,"35":0.36625388264656067,"36":-0.1750267744064331,"37":0.28455880284309387,"38":-0.1944284588098526,"39":-0.5571015477180481,"40":-0.13776156306266785,"41":-0.040883518755435944,"42":0.2594015300273895,"43":-0.39090368151664734,"44":-0.199714794754982,"45":0.8892922401428223,"46":-0.2872754633426666,"47":-0.6180131435394287,"48":-0.009763949550688267,"49":0.22390399873256683,"50":0.33346134424209595,"51":0.6173917055130005,"52":0.4440634548664093,"53":0.004913631360977888,"54":-0.15448373556137085,"55":-0.2795875668525696,"56":0.36239922046661377,"57":-0.15178827941417694,"58":-0.29139435291290283,"59":-0.47493502497673035,"60":-0.21537862718105316,"61":0.3291019797325134,"62":-0.36610764265060425,"63":0.38501298427581787,"64":1.0503405332565308,"65":-1.6748796701431274,"66":0.6294093132019043,"67":1.9586567878723145,"68":1.5944156646728516,"69":1.721031904220581,"70":-1.315783143043518,"71":0.11921045184135437,"72":-0.2790227234363556,"73":0.24736155569553375,"74":0.2741657495498657,"75":-0.32178598642349243,"76":0.1434306502342224,"77":-0.08426367491483688,"78":-0.22243592143058777,"79":-0.3666430711746216,"80":-0.5201571583747864,"81":-0.12909367680549622,"82":1.0714974403381348,"83":0.3909793794155121,"84":-0.7463321089744568,"85":-0.1988144963979721,"86":-0.39821773767471313,"87":-0.38115742802619934,"88":-0.9988193511962891,"89":-0.8264731168746948,"90":-0.050875842571258545,"91":-0.08062467724084854,"92":-0.03337932378053665,"93":-0.10368821769952774,"94":0.028384264558553696,"95":-0.04300103336572647,"96":-0.07288084924221039,"97":-0.07714040577411652,"98":0.020073069259524345,"99":0.023340094834566116,"100":-0.2862713932991028,"101":0.23013485968112946,"102":-0.02320910058915615,"103":-0.319644033908844,"104":-0.2854621112346649,"105":-0.05779774859547615,"106":0.18825821578502655,"107":-0.1944665163755417,"108":-0.054075200110673904,"109":0.24610833823680878,"110":0.3013208508491516,"111":-0.34284743666648865,"112":-0.11466450244188309,"113":-0.30264028906822205,"114":-0.1594516783952713,"115":-0.43335241079330444,"116":-0.4650783836841583,"117":-0.5526357293128967,"118":0.39645665884017944,"119":0.4270205795764923,"120":-0.6030598282814026,"121":-0.3319115936756134,"122":-0.36428824067115784,"123":-0.5361994504928589,"124":-0.5038730502128601,"125":-0.44244393706321716,"126":0.2891944646835327,"127":0.24523870646953583,"128":-0.18437811732292175,"129":0.01562953181564808,"130":0.5986669659614563,"131":0.49688708782196045,"132":0.20181412994861603,"133":-0.2573851943016052,"134":-0.12790122628211975,"135":-0.7496547698974609,"136":0.3818298280239105,"137":0.844413161277771,"138":-0.27043473720550537,"139":-0.5005462169647217,"140":-0.6711755394935608,"141":-0.6129340529441833,"142":-0.4900916516780853,"143":-0.38574013113975525,"144":-0.99033123254776,"145":0.5541907548904419,"146":0.7500672936439514,"147":-1.030624270439148,"148":-0.9921665191650391,"149":-0.8105781078338623,"150":-0.7740950584411621,"151":-0.7406601309776306,"152":-0.8073791861534119,"153":-0.6885721683502197,"154":0.1769097000360489,"155":0.268765926361084,"156":-0.7448922395706177,"157":-0.4023875296115875,"158":-0.22041060030460358,"159":-0.3220185935497284,"160":-0.630789577960968,"161":-0.5571644306182861,"162":0.02655491977930069,"163":-1.0366981029510498,"164":-0.05882555991411209,"165":0.8478062152862549,"166":0.15414291620254517,"167":0.09312734007835388,"168":0.03400736674666405,"169":0.8600818514823914,"170":0.9029919505119324,"171":-0.21341180801391602,"172":0.10260472446680069,"173":-0.11709746718406677,"174":-0.3844124674797058,"175":-0.007469127420336008,"176":0.11739254742860794,"177":0.0034227799624204636,"178":-0.22555376589298248,"179":-0.21322008967399597}},"forgetHidden":{"rows":20,"columns":20,"weights":{"0":1.2013729810714722,"1":-0.8220460414886475,"2":-0.18252751231193542,"3":0.17213895916938782,"4":0.5351842641830444,"5":0.965242326259613,"6":1.3489991426467896,"7":0.17033003270626068,"8":-0.056843243539333344,"9":-0.13632038235664368,"10":-0.45840227603912354,"11":0.3818276524543762,"12":-0.5176448822021484,"13":0.5952942967414856,"14":0.757060706615448,"15":0.44623225927352905,"16":-0.15814733505249023,"17":0.6311058402061462,"18":0.026614980772137642,"19":0.5947012901306152,"20":-0.36039039492607117,"21":-0.288167804479599,"22":0.4556289613246918,"23":-0.08173413574695587,"24":-0.5094005465507507,"25":-0.21564818918704987,"26":0.3886886239051819,"27":0.3153030276298523,"28":-0.5801851749420166,"29":0.8888117671012878,"30":0.5845173597335815,"31":-0.24332936108112335,"32":-0.4252822697162628,"33":0.03480509668588638,"34":0.30822813510894775,"35":0.39105984568595886,"36":0.5575905442237854,"37":-0.5615429282188416,"38":-0.018275843933224678,"39":-0.6474949717521667,"40":0.741186261177063,"41":-0.5673720836639404,"42":-1.3565232753753662,"43":0.759840190410614,"44":1.3700591325759888,"45":1.0082565546035767,"46":1.0592443943023682,"47":0.13713471591472626,"48":-0.28644052147865295,"49":-0.4503951966762543,"50":-1.1241095066070557,"51":-1.1211093664169312,"52":-0.8106943964958191,"53":1.025322675704956,"54":0.9445256590843201,"55":0.19570979475975037,"56":-1.5203081369400024,"57":1.044209361076355,"58":-0.5178391933441162,"59":1.1753320693969727,"60":-0.8228495121002197,"61":-0.6649442911148071,"62":0.8768898248672485,"63":0.6930372714996338,"64":-0.8081376552581787,"65":-0.09527837485074997,"66":0.11850272864103317,"67":0.12017747759819031,"68":-0.5182704925537109,"69":0.7812649607658386,"70":0.7973930239677429,"71":-0.3023659586906433,"72":-0.6535253524780273,"73":1.3200945854187012,"74":0.4539867341518402,"75":0.854856014251709,"76":1.3828455209732056,"77":-0.9983235001564026,"78":-1.6655809879302979,"79":-0.751544713973999,"80":0.8040133714675903,"81":-1.1743247509002686,"82":-1.0318650007247925,"83":0.244995579123497,"84":1.2616736888885498,"85":0.9011490345001221,"86":1.1969188451766968,"87":-0.18856272101402283,"88":-0.19837240874767303,"89":-1.2166848182678223,"90":-1.2569330930709839,"91":-0.8276063203811646,"92":-1.3676823377609253,"93":0.31359627842903137,"94":0.028977667912840843,"95":0.1133621484041214,"96":-1.0408129692077637,"97":1.1504238843917847,"98":-0.22266632318496704,"99":1.2058519124984741,"100":-0.03733934089541435,"101":-0.22570160031318665,"102":0.20871426165103912,"103":-0.7388666868209839,"104":-0.034642577171325684,"105":0.6709142327308655,"106":1.2016292810440063,"107":0.7741862535476685,"108":-2.1923930644989014,"109":1.7404111623764038,"110":0.05851642042398453,"111":0.5683483481407166,"112":-0.8262572884559631,"113":-1.2260180711746216,"114":0.4853719174861908,"115":1.0481029748916626,"116":0.2602071166038513,"117":0.029142485931515694,"118":0.9936208724975586,"119":-0.16212595999240875,"120":-1.2061342000961304,"121":-0.12106956541538239,"122":1.1149767637252808,"123":0.4242885410785675,"124":-1.436274528503418,"125":-0.1793847531080246,"126":0.24706774950027466,"127":-0.304371178150177,"128":-0.11790725588798523,"129":0.6249141097068787,"130":1.2657743692398071,"131":-0.2442675530910492,"132":-0.5751676559448242,"133":-0.14234404265880585,"134":0.5605579018592834,"135":0.6395831108093262,"136":1.899607539176941,"137":-1.4717899560928345,"138":-0.20537497103214264,"139":-1.2358280420303345,"140":0.09048976749181747,"141":1.3194259405136108,"142":0.3136447072029114,"143":-0.8059056997299194,"144":0.12924976646900177,"145":0.4694843292236328,"146":-0.9438332915306091,"147":-1.438796877861023,"148":-0.5625256896018982,"149":-1.1617947816848755,"150":-0.11668266355991364,"151":-0.31250619888305664,"152":-0.311658650636673,"153":-2.123706579208374,"154":-0.21510455012321472,"155":-0.28864219784736633,"156":-0.05698905140161514,"157":0.015323709696531296,"158":1.7685573101043701,"159":0.06047636270523071,"160":-0.030698880553245544,"161":0.5365119576454163,"162":1.0951099395751953,"163":-0.23618514835834503,"164":-0.8369998931884766,"165":-0.6768102049827576,"166":-1.1407333612442017,"167":-0.3964466452598572,"168":0.19366545975208282,"169":0.5588042736053467,"170":0.656501829624176,"171":0.9645047783851624,"172":0.916878342628479,"173":-0.2518415153026581,"174":-0.6446559429168701,"175":-0.17765407264232635,"176":0.6621981859207153,"177":0.01509973593056202,"178":-0.19514696300029755,"179":-0.7162540555000305,"180":0.34100690484046936,"181":-0.3629053235054016,"182":-0.7813409566879272,"183":0.17769642174243927,"184":0.8776487112045288,"185":-0.15353132784366608,"186":0.22986513376235962,"187":-0.3545273244380951,"188":0.19073976576328278,"189":-1.235134243965149,"190":-0.6940211653709412,"191":0.17847424745559692,"192":-0.21831515431404114,"193":-0.0594165064394474,"194":-0.2655965983867645,"195":-0.39727747440338135,"196":-0.9330130815505981,"197":0.7534526586532593,"198":-0.08530423045158386,"199":0.7104365825653076,"200":0.9262194633483887,"201":-0.8087968826293945,"202":-0.8949213624000549,"203":0.1429315060377121,"204":0.9274658560752869,"205":0.7378443479537964,"206":0.633007287979126,"207":-0.396235853433609,"208":0.29587727785110474,"209":-0.8201127648353577,"210":-1.0389137268066406,"211":-0.4816834330558777,"212":-0.6130222082138062,"213":0.7182455062866211,"214":0.027096590027213097,"215":0.13074205815792084,"216":-1.035379409790039,"217":0.984228789806366,"218":-0.6737691164016724,"219":1.1368532180786133,"220":-0.6458415985107422,"221":0.238677978515625,"222":0.5806844234466553,"223":-0.27848750352859497,"224":-0.6708382368087769,"225":-0.5389180779457092,"226":-0.19020256400108337,"227":-0.424115926027298,"228":0.2843051254749298,"229":0.08417638391256332,"230":0.6493700742721558,"231":-0.006042045541107655,"232":0.23632852733135223,"233":-0.2529422342777252,"234":-0.4456157684326172,"235":-0.07274799793958664,"236":0.6495221853256226,"237":-0.7079271674156189,"238":-0.11899752914905548,"239":-0.7581929564476013,"240":-0.7992589473724365,"241":0.04062104597687721,"242":1.0531655550003052,"243":0.21832817792892456,"244":-0.9279053807258606,"245":-0.1520272046327591,"246":0.3308798372745514,"247":-0.1254138946533203,"248":0.044018231332302094,"249":0.44376349449157715,"250":0.8834173083305359,"251":0.07106858491897583,"252":-0.3341788947582245,"253":0.06666819751262665,"254":0.16928449273109436,"255":0.2251879870891571,"256":0.9570997357368469,"257":-0.9002707004547119,"258":0.5797322988510132,"259":-0.8974979519844055,"260":-0.1816641092300415,"261":0.5612238049507141,"262":0.1867404729127884,"263":-0.30113959312438965,"264":0.1676255762577057,"265":0.11858032643795013,"266":-0.4891045391559601,"267":-0.41618314385414124,"268":0.16699931025505066,"269":-0.24713926017284393,"270":-0.256899356842041,"271":0.6485030651092529,"272":-0.011478383094072342,"273":-0.6404739022254944,"274":-1.2378897666931152,"275":-0.6719168424606323,"276":-0.02138596586883068,"277":0.17117057740688324,"278":-0.1700153797864914,"279":0.28927645087242126,"280":0.4726894795894623,"281":0.4597073793411255,"282":1.8932212591171265,"283":-0.3197039067745209,"284":-1.1011712551116943,"285":0.04297922924160957,"286":-0.207975834608078,"287":0.9090698957443237,"288":-0.08430082350969315,"289":0.7259255647659302,"290":1.6051241159439087,"291":0.9133326411247253,"292":0.9626249074935913,"293":0.5231521129608154,"294":-1.3131026029586792,"295":0.054993659257888794,"296":1.9154797792434692,"297":-0.922393798828125,"298":-0.03576550632715225,"299":-1.194275975227356,"300":-0.022740622982382774,"301":0.459957093000412,"302":0.975697934627533,"303":-0.2601463198661804,"304":-1.1466517448425293,"305":-0.8452661633491516,"306":-0.8576006889343262,"307":-0.16077014803886414,"308":0.3823959529399872,"309":1.0139206647872925,"310":1.0777815580368042,"311":0.5041991472244263,"312":0.40991446375846863,"313":0.9705020189285278,"314":0.17952939867973328,"315":-0.3427082896232605,"316":1.0658917427062988,"317":-1.054943323135376,"318":0.49614423513412476,"319":-1.1407806873321533,"320":0.14025260508060455,"321":-0.9733046889305115,"322":-0.6309926509857178,"323":0.833163857460022,"324":0.5317350625991821,"325":0.17731569707393646,"326":1.8348108530044556,"327":0.41381925344467163,"328":-0.021946562454104424,"329":-0.2901667356491089,"330":-0.573405921459198,"331":-0.530597984790802,"332":-0.4429406225681305,"333":0.8408766388893127,"334":0.6318492889404297,"335":-0.29795610904693604,"336":-0.6663717031478882,"337":0.5753147006034851,"338":-0.6303409337997437,"339":0.5829477310180664,"340":0.8639059066772461,"341":-1.1693075895309448,"342":-0.6679056286811829,"343":0.15121552348136902,"344":0.8151389956474304,"345":0.7180585265159607,"346":1.0111504793167114,"347":-0.10822903364896774,"348":-0.10168249905109406,"349":-0.2980087101459503,"350":-0.9188458919525146,"351":-0.1609027236700058,"352":-0.7088993787765503,"353":0.2999553382396698,"354":0.015100670047104359,"355":-0.10352398455142975,"356":-0.7758951187133789,"357":0.9454196095466614,"358":-0.2509433329105377,"359":0.885858952999115,"360":-0.42061588168144226,"361":0.25776252150535583,"362":0.4678506851196289,"363":0.3777405917644501,"364":-0.351186066865921,"365":-0.5415834188461304,"366":-0.3542327284812927,"367":-0.3632514774799347,"368":0.1296728253364563,"369":0.26310592889785767,"370":0.5617002248764038,"371":0.022416185587644577,"372":0.08996879309415817,"373":0.3812922239303589,"374":-0.6949436068534851,"375":-0.4389236867427826,"376":0.0752621740102768,"377":-0.42901548743247986,"378":-0.5663436055183411,"379":-0.4282817244529724,"380":0.9943188428878784,"381":-0.4094120264053345,"382":-0.9325276017189026,"383":0.3715294897556305,"384":0.9864685535430908,"385":0.5877350568771362,"386":0.3715474307537079,"387":-0.5550192594528198,"388":0.33522114157676697,"389":-0.8156471848487854,"390":-1.1482735872268677,"391":-0.27949509024620056,"392":-0.4807090163230896,"393":0.7086979746818542,"394":-0.5947253108024597,"395":-0.16172757744789124,"396":-1.0240228176116943,"397":1.0868237018585205,"398":-0.7578085064888,"399":1.2224019765853882}},"forgetBias":{"rows":20,"columns":1,"weights":{"0":0,"1":0,"2":0,"3":0,"4":0,"5":0,"6":0,"7":0,"8":0,"9":0,"10":0,"11":0,"12":0,"13":0,"14":0,"15":0,"16":0,"17":0,"18":0,"19":0}},"outputMatrix":{"rows":20,"columns":9,"weights":{"0":0.40238088369369507,"1":0.5490407347679138,"2":0.3128749430179596,"3":-1.0380276441574097,"4":-0.004978265147656202,"5":-0.13880161941051483,"6":-0.057242251932621,"7":-0.5024834275245667,"8":-1.1028623580932617,"9":0.731327474117279,"10":-0.8076143264770508,"11":0.22565168142318726,"12":0.4001850485801697,"13":0.19940349459648132,"14":-0.062368836253881454,"15":0.03783426806330681,"16":1.0628509521484375,"17":0.09178018569946289,"18":-0.4708271622657776,"19":0.8801549673080444,"20":1.4703145027160645,"21":-0.8616125583648682,"22":-1.5113226175308228,"23":-1.5177441835403442,"24":-1.166225552558899,"25":-0.9755383729934692,"26":-0.5518844127655029,"27":1.4550514221191406,"28":-0.0008807947742752731,"29":-2.242591619491577,"30":1.0196119546890259,"31":1.8256257772445679,"32":2.0022006034851074,"33":2.3191733360290527,"34":-0.18024282157421112,"35":0.5263285636901855,"36":-0.6124505400657654,"37":1.2721693515777588,"38":0.21430015563964844,"39":-1.4643819332122803,"40":-0.6500317454338074,"41":-0.5440006852149963,"42":-0.2800511419773102,"43":-1.65047287940979,"44":-1.5032615661621094,"45":0.49798470735549927,"46":0.9422529339790344,"47":-0.28455251455307007,"48":-0.22483409941196442,"49":0.26810383796691895,"50":0.4096931219100952,"51":0.32921093702316284,"52":-0.4629680812358856,"53":-0.28937461972236633,"54":0.6847233772277832,"55":-1.6357953548431396,"56":-0.015066971071064472,"57":-0.17112012207508087,"58":-0.10431811213493347,"59":-0.21371671557426453,"60":0.09599097818136215,"61":1.6419159173965454,"62":0.27424606680870056,"63":0.7261342406272888,"64":0.694843053817749,"65":0.3123651444911957,"66":-0.5670468211174011,"67":-0.11312758922576904,"68":-0.4352048337459564,"69":-0.28884661197662354,"70":-0.5623264908790588,"71":-0.30899861454963684,"72":-0.1451580822467804,"73":-0.06246734783053398,"74":0.5867114663124084,"75":-0.6848248243331909,"76":-0.21800443530082703,"77":-0.22950813174247742,"78":-0.08636024594306946,"79":-0.22534075379371643,"80":-0.9541106820106506,"81":-1.8232918977737427,"82":0.00438403245061636,"83":1.6841529607772827,"84":-0.1219986230134964,"85":-1.6588894128799438,"86":-1.9750053882598877,"87":-1.9226620197296143,"88":-0.04865660145878792,"89":0.32070761919021606,"90":-0.46531951427459717,"91":0.679730236530304,"92":0.3696286082267761,"93":-1.1907758712768555,"94":-0.49794691801071167,"95":-0.4602246582508087,"96":-0.11765509843826294,"97":-1.3883296251296997,"98":-1.2999179363250732,"99":0.14629141986370087,"100":0.5191493034362793,"101":-0.20850905776023865,"102":0.3829405903816223,"103":0.08944684267044067,"104":-0.024487853050231934,"105":0.48777177929878235,"106":-0.3875264525413513,"107":0.4259793162345886,"108":0.33722689747810364,"109":-1.5006824731826782,"110":0.27301886677742004,"111":0.20191453397274017,"112":-0.12581446766853333,"113":-0.30443716049194336,"114":-0.21748845279216766,"115":1.4738633632659912,"116":0.3911224901676178,"117":0.091908760368824,"118":0.6094955801963806,"119":0.27912044525146484,"120":-0.6959143877029419,"121":-0.0931401327252388,"122":-0.2571975886821747,"123":-0.116998091340065,"124":-0.5696650743484497,"125":-0.8036850094795227,"126":2.1379199028015137,"127":-1.3224835395812988,"128":0.5358726382255554,"129":0.32735979557037354,"130":0.009905252605676651,"131":-0.447314977645874,"132":-0.2510407269001007,"133":1.6681023836135864,"134":0.0990186408162117,"135":-0.25080838799476624,"136":0.5404102802276611,"137":1.4367115497589111,"138":-0.7543413043022156,"139":-0.8644911646842957,"140":-1.1293959617614746,"141":-0.8237465620040894,"142":-0.27091720700263977,"143":-1.4008197784423828,"144":-0.0065751997753977776,"145":0.5966000556945801,"146":0.3998761773109436,"147":-0.6092771887779236,"148":-0.2723643183708191,"149":-0.4632683992385864,"150":-0.34649911522865295,"151":-0.8104808926582336,"152":-0.30290380120277405,"153":-1.1556711196899414,"154":1.4035840034484863,"155":-0.35309600830078125,"156":-1.124505877494812,"157":-0.29629117250442505,"158":0.15778088569641113,"159":0.6018155217170715,"160":-1.6820590496063232,"161":-0.9600605368614197,"162":0.6284023523330688,"163":-1.067097783088684,"164":-0.7369880676269531,"165":0.775385320186615,"166":0.6459913849830627,"167":0.988847553730011,"168":0.6758121252059937,"169":0.739800214767456,"170":0.7502401471138,"171":-1.1838698387145996,"172":1.120863676071167,"173":0.04687029495835304,"174":-1.3606462478637695,"175":-0.13102072477340698,"176":0.020628735423088074,"177":0.12282681465148926,"178":-1.8272207975387573,"179":-1.3767129182815552}},"outputHidden":{"rows":20,"columns":20,"weights":{"0":1.4255144596099854,"1":-0.25906258821487427,"2":-1.0797213315963745,"3":-0.009628698229789734,"4":1.1655367612838745,"5":0.5580668449401855,"6":-0.16266366839408875,"7":-0.18907907605171204,"8":0.23283912241458893,"9":-0.6047766208648682,"10":-1.270205020904541,"11":0.027872463688254356,"12":0.08100394904613495,"13":-0.3116673231124878,"14":0.1593162715435028,"15":-0.31822285056114197,"16":-1.0054523944854736,"17":1.3067305088043213,"18":0.3860830068588257,"19":1.299845576286316,"20":-1.3876773118972778,"21":-0.11057355999946594,"22":1.2639559507369995,"23":-0.2531573474407196,"24":-1.2303162813186646,"25":-0.9414873719215393,"26":-0.4877444803714752,"27":-0.06623360514640808,"28":-0.21819469332695007,"29":0.7334194779396057,"30":1.2095839977264404,"31":0.26143932342529297,"32":0.213889479637146,"33":-0.9335461854934692,"34":0.1803356111049652,"35":-0.137283593416214,"36":1.0834779739379883,"37":-1.2693140506744385,"38":0.5024316310882568,"39":-1.2400153875350952,"40":0.13059622049331665,"41":-0.5487337112426758,"42":-0.14715957641601562,"43":1.146130919456482,"44":0.01520359143614769,"45":0.30075737833976746,"46":-0.23737269639968872,"47":0.45250532031059265,"48":1.499688982963562,"49":-0.09026617556810379,"50":-0.14366759359836578,"51":0.006221942603588104,"52":-0.2749720811843872,"53":-0.15730847418308258,"54":-0.07861489057540894,"55":-1.930694818496704,"56":-0.18486946821212769,"57":0.16466788947582245,"58":-0.14296649396419525,"59":0.24653533101081848,"60":0.15543611347675323,"61":-0.4573974311351776,"62":-0.25081172585487366,"63":-0.5597643256187439,"64":-0.13272684812545776,"65":0.29883694648742676,"66":0.14968492090702057,"67":-1.209167718887329,"68":-0.94682776927948,"69":0.229058176279068,"70":0.24925310909748077,"71":-0.38927745819091797,"72":0.24655374884605408,"73":0.2819857895374298,"74":0.4293184280395508,"75":0.9189919829368591,"76":0.13979212939739227,"77":-0.22111177444458008,"78":-0.2021295130252838,"79":-0.15627355873584747,"80":0.7844509482383728,"81":-0.6971763968467712,"82":-0.4337847828865051,"83":-0.6299968957901001,"84":0.6640755534172058,"85":0.4636775851249695,"86":1.097791075706482,"87":-0.15234066545963287,"88":0.2530028820037842,"89":-0.8860841393470764,"90":-0.8770277500152588,"91":0.8997570872306824,"92":-0.7617687582969666,"93":-0.590922474861145,"94":0.3842090666294098,"95":-1.1266177892684937,"96":-0.3902537226676941,"97":0.811324954032898,"98":0.6002668738365173,"99":0.890148401260376,"100":0.04864541441202164,"101":1.5315132141113281,"102":-0.6462239027023315,"103":-0.9692162871360779,"104":0.5224135518074036,"105":-0.32733240723609924,"106":0.15805792808532715,"107":-0.5333580374717712,"108":0.6891711950302124,"109":0.08649038523435593,"110":-0.5559136867523193,"111":1.4464466571807861,"112":0.8912593722343445,"113":-1.6599022150039673,"114":-0.7014472484588623,"115":-1.921319842338562,"116":-0.35825422406196594,"117":0.4326886236667633,"118":1.6879733800888062,"119":0.45035603642463684,"120":0.7627804279327393,"121":-0.27338507771492004,"122":-1.8894784450531006,"123":0.13524582982063293,"124":0.6799892783164978,"125":-0.3019672632217407,"126":-0.26737919449806213,"127":-1.7571704387664795,"128":0.05622546374797821,"129":-0.9418327212333679,"130":-1.1793620586395264,"131":-1.20853853225708,"132":-0.36850985884666443,"133":1.4882559776306152,"134":0.6946506500244141,"135":0.8363130688667297,"136":-0.35456234216690063,"137":0.5634098052978516,"138":-0.24530628323554993,"139":0.9830215573310852,"140":0.9028186798095703,"141":0.48859158158302307,"142":-0.6480492353439331,"143":-1.6755311489105225,"144":0.9486382603645325,"145":0.15111680328845978,"146":-0.28147092461586,"147":-1.3551180362701416,"148":0.7262089252471924,"149":-0.953344464302063,"150":-0.7816490530967712,"151":0.5930745005607605,"152":0.4770037531852722,"153":-1.0461066961288452,"154":-0.2465791404247284,"155":-0.6369654536247253,"156":-0.7676809430122375,"157":0.8568488359451294,"158":1.221962809562683,"159":0.8709882497787476,"160":-0.6336854696273804,"161":0.5818756818771362,"162":1.3947190046310425,"163":-0.5683267712593079,"164":-1.2901859283447266,"165":-0.18503616750240326,"166":0.2853545546531677,"167":0.436206191778183,"168":0.16995836794376373,"169":0.6833582520484924,"170":1.4618819952011108,"171":1.248038411140442,"172":-0.19483739137649536,"173":0.00855974294245243,"174":0.15666502714157104,"175":-0.31132182478904724,"176":1.4547146558761597,"177":-1.3383029699325562,"178":1.280561923980713,"179":-1.377304196357727,"180":-0.1938394159078598,"181":-0.6982942819595337,"182":0.10576782375574112,"183":0.7432499527931213,"184":-0.26616519689559937,"185":0.1671195775270462,"186":-1.0104873180389404,"187":-0.442129909992218,"188":-0.7575521469116211,"189":-1.2298622131347656,"190":0.31211453676223755,"191":-0.41654637455940247,"192":0.3290680944919586,"193":0.7524674534797668,"194":0.5844789743423462,"195":0.27680113911628723,"196":0.14455629885196686,"197":-0.32626107335090637,"198":-0.5040799379348755,"199":-0.3269485533237457,"200":0.5573726296424866,"201":-0.7510207295417786,"202":-0.7514899373054504,"203":-0.5113272070884705,"204":0.8359395265579224,"205":1.0200579166412354,"206":1.424420714378357,"207":-0.16614916920661926,"208":0.280831903219223,"209":-0.7984059453010559,"210":-1.0699355602264404,"211":0.8193141222000122,"212":-0.7078330516815186,"213":-0.7351621985435486,"214":0.40009140968322754,"215":-0.27083343267440796,"216":-0.7330607175827026,"217":0.9909336566925049,"218":0.652276337146759,"219":1.208174228668213,"220":-0.5541102886199951,"221":-0.13959835469722748,"222":0.5941160321235657,"223":-0.09517647325992584,"224":-1.1259721517562866,"225":0.6573317646980286,"226":1.332560658454895,"227":0.5279921293258667,"228":-0.013491564430296421,"229":0.6144495010375977,"230":1.1187301874160767,"231":-0.47777920961380005,"232":-0.8642778396606445,"233":0.35811495780944824,"234":-0.47414398193359375,"235":0.020601412281394005,"236":1.7664096355438232,"237":-1.2484045028686523,"238":0.469204843044281,"239":-1.3181445598602295,"240":-1.1369860172271729,"241":-0.6316864490509033,"242":0.7270222306251526,"243":0.15435448288917542,"244":-0.8953617811203003,"245":-0.513202428817749,"246":0.1381351798772812,"247":0.0002694182039704174,"248":-0.43946167826652527,"249":1.2303980588912964,"250":0.7032025456428528,"251":-0.8131334781646729,"252":-0.7112414240837097,"253":-0.6098693609237671,"254":0.5627837181091309,"255":0.5106159448623657,"256":0.9022067785263062,"257":-1.105969786643982,"258":1.0883609056472778,"259":-0.6936966180801392,"260":-0.07185355573892593,"261":0.6062988638877869,"262":0.6188628673553467,"263":-1.3487279415130615,"264":-0.7073037624359131,"265":0.9393447041511536,"266":0.34905412793159485,"267":0.1173296868801117,"268":-0.32944199442863464,"269":0.7759279012680054,"270":0.5967720150947571,"271":0.7834778428077698,"272":-0.04442720115184784,"273":-1.3691197633743286,"274":-0.2854723632335663,"275":-0.6063883304595947,"276":1.711181879043579,"277":-0.721969485282898,"278":0.6123157143592834,"279":-0.5077054500579834,"280":0.14442022144794464,"281":0.7783215641975403,"282":1.0761715173721313,"283":-1.7968056201934814,"284":-0.7944358587265015,"285":-0.5794678926467896,"286":-1.0494955778121948,"287":-0.17653359472751617,"288":-0.7207821607589722,"289":0.5662735104560852,"290":0.6936164498329163,"291":0.2292211651802063,"292":1.5920745134353638,"293":1.2609524726867676,"294":-1.0271193981170654,"295":-0.771742582321167,"296":0.6572496294975281,"297":-0.590447723865509,"298":-0.20015370845794678,"299":-0.8107436299324036,"300":-1.058237075805664,"301":1.5714349746704102,"302":-0.19382697343826294,"303":0.5396652221679688,"304":-0.03215722739696503,"305":-1.1116615533828735,"306":-1.2516149282455444,"307":-1.5934439897537231,"308":1.9873853921890259,"309":-1.2419322729110718,"310":0.05239409580826759,"311":-0.3027600049972534,"312":0.9710966348648071,"313":-0.20888008177280426,"314":-0.9763333201408386,"315":-1.412597894668579,"316":0.16725480556488037,"317":-0.33411863446235657,"318":0.1817491054534912,"319":-0.30033665895462036,"320":0.5641508102416992,"321":0.07854124158620834,"322":-1.200669527053833,"323":0.8047903180122375,"324":1.0726772546768188,"325":0.18948732316493988,"326":0.5779319405555725,"327":-0.8915818929672241,"328":0.5539109706878662,"329":-1.3770030736923218,"330":-1.1806683540344238,"331":-0.17353521287441254,"332":-0.05146311596035957,"333":-0.06859120726585388,"334":0.191445991396904,"335":0.5865235924720764,"336":-1.3112198114395142,"337":0.9285537004470825,"338":-0.486278772354126,"339":1.2384053468704224,"340":0.539092481136322,"341":-0.3208111822605133,"342":-0.35839778184890747,"343":-0.440380334854126,"344":0.6317587494850159,"345":0.8320921063423157,"346":0.7450371980667114,"347":-0.03765983134508133,"348":0.3140324652194977,"349":-0.795516848564148,"350":-0.7715805172920227,"351":-0.27450910210609436,"352":-0.5059778690338135,"353":-0.522848904132843,"354":0.6851289868354797,"355":-0.6099753975868225,"356":-0.28825339674949646,"357":0.6960530281066895,"358":0.5222221612930298,"359":0.8753690123558044,"360":-0.5314126014709473,"361":0.6462056636810303,"362":0.22345943748950958,"363":0.18260081112384796,"364":-0.4297384023666382,"365":-0.4472852945327759,"366":-0.7838605046272278,"367":-0.48393678665161133,"368":0.5646800398826599,"369":0.715770959854126,"370":0.44116124510765076,"371":0.44041651487350464,"372":0.5822192430496216,"373":-0.14467942714691162,"374":-1.4034987688064575,"375":-0.5584859848022461,"376":0.19518178701400757,"377":-0.6405500173568726,"378":-0.33168160915374756,"379":-0.4504879415035248,"380":0.9577718377113342,"381":-0.2577820122241974,"382":-0.6309051513671875,"383":-0.22194980084896088,"384":0.8993895649909973,"385":0.962104082107544,"386":0.7018261551856995,"387":-0.218756303191185,"388":0.4252929389476776,"389":-0.4542315602302551,"390":-1.0519049167633057,"391":0.636762261390686,"392":0.07372108101844788,"393":-0.6289788484573364,"394":0.7819543480873108,"395":-0.428764671087265,"396":-0.5734215378761292,"397":1.1206039190292358,"398":0.6691319942474365,"399":1.1976537704467773}},"outputBias":{"rows":20,"columns":1,"weights":{"0":1.2439292669296265,"1":0.168941929936409,"2":0.2024577111005783,"3":1.0411884784698486,"4":0.08672425895929337,"5":0.8843722343444824,"6":-0.01480076089501381,"7":2.933014154434204,"8":0.6551144123077393,"9":-0.4408506751060486,"10":0.13314953446388245,"11":-0.4276059567928314,"12":-0.011067962273955345,"13":0.9515007138252258,"14":2.268529176712036,"15":-0.20453910529613495,"16":-0.6895451545715332,"17":-0.18444323539733887,"18":-0.5956024527549744,"19":0.0602261945605278}},"cellActivationMatrix":{"rows":20,"columns":9,"weights":{"0":-0.7999431490898132,"1":0.5332632064819336,"2":-0.679038941860199,"3":0.16183742880821228,"4":0.6419829726219177,"5":0.5168197154998779,"6":0.6866998076438904,"7":-0.8184777498245239,"8":-0.1255342960357666,"9":-0.6222496032714844,"10":-0.39823848009109497,"11":0.7569977045059204,"12":-0.22571852803230286,"13":-0.69156414270401,"14":-0.7658219337463379,"15":-1.0648813247680664,"16":0.4989689886569977,"17":-0.2702238857746124,"18":0.9302475452423096,"19":-1.6415008306503296,"20":0.278919517993927,"21":0.7600448727607727,"22":0.08005332201719284,"23":-0.16445159912109375,"24":-0.07304871827363968,"25":1.499003291130066,"26":0.5566471219062805,"27":-0.5028400421142578,"28":-1.1839268207550049,"29":0.17318348586559296,"30":0.42930155992507935,"31":0.18061791360378265,"32":-0.1183156818151474,"33":-0.3203372061252594,"34":0.9977448582649231,"35":0.7397518754005432,"36":-0.8212357759475708,"37":1.4664796590805054,"38":-0.5382837653160095,"39":-0.5512140989303589,"40":0.06922407448291779,"41":0.07694908231496811,"42":0.5401543974876404,"43":-1.4309238195419312,"44":-0.49313992261886597,"45":-0.05410423129796982,"46":0.7025238871574402,"47":-0.7585291862487793,"48":-0.2794593274593353,"49":0.16995969414710999,"50":0.640545666217804,"51":0.6354454755783081,"52":-0.8652938008308411,"53":-0.11435092985630035,"54":0.33835697174072266,"55":0.5482876896858215,"56":-1.186143159866333,"57":0.3492429256439209,"58":1.7284152507781982,"59":1.5415446758270264,"60":1.5236552953720093,"61":-0.8522186875343323,"62":-0.4491840600967407,"63":0.8988428115844727,"64":-0.036930713802576065,"65":-2.629492998123169,"66":1.1754955053329468,"67":3.0089473724365234,"68":3.4798192977905273,"69":2.4236888885498047,"70":0.016003526747226715,"71":0.3252156972885132,"72":-0.7300551533699036,"73":0.174796923995018,"74":1.1869354248046875,"75":0.14037971198558807,"76":-0.22578562796115875,"77":-0.8429205417633057,"78":-1.2280453443527222,"79":0.19359168410301208,"80":-0.08326910436153412,"81":0.5830678939819336,"82":-0.2986605167388916,"83":-1.645742654800415,"84":0.6644289493560791,"85":1.4540780782699585,"86":1.5782679319381714,"87":0.8872713446617126,"88":0.3136710822582245,"89":0.7252138257026672,"90":1.087942123413086,"91":-1.2516093254089355,"92":0.3665555715560913,"93":1.1871908903121948,"94":-0.26689285039901733,"95":-0.2752355635166168,"96":-0.07608769834041595,"97":1.353542685508728,"98":1.1470662355422974,"99":-0.30015504360198975,"100":0.8481723070144653,"101":-0.07000312209129333,"102":-0.8910706639289856,"103":-0.1905973255634308,"104":-0.09722736477851868,"105":0.006577807944267988,"106":-0.8797661066055298,"107":-0.5985788106918335,"108":-1.2762513160705566,"109":0.28962817788124084,"110":-0.1678505688905716,"111":-0.17154283821582794,"112":-0.1799200028181076,"113":-0.2833579182624817,"114":0.08630435168743134,"115":-0.2852478325366974,"116":0.0106322281062603,"117":0.40332916378974915,"118":-1.019477128982544,"119":-0.48509252071380615,"120":0.48239418864250183,"121":0.6322590112686157,"122":0.6726405620574951,"123":0.6431741714477539,"124":0.8338534832000732,"125":0.4981103837490082,"126":-1.6212977170944214,"127":0.3044793903827667,"128":-0.4304262697696686,"129":1.4146393537521362,"130":0.33149805665016174,"131":0.5727473497390747,"132":-0.024723075330257416,"133":-0.04991363361477852,"134":1.4761993885040283,"135":1.419779896736145,"136":-1.0258598327636719,"137":-1.0604000091552734,"138":0.36658358573913574,"139":0.9075464010238647,"140":1.0681904554367065,"141":1.1123840808868408,"142":1.0877535343170166,"143":0.06561003625392914,"144":1.1890698671340942,"145":-1.0416173934936523,"146":0.3664608597755432,"147":1.3369208574295044,"148":-0.0470881424844265,"149":0.048410557210445404,"150":-0.12001729011535645,"151":1.4418776035308838,"152":1.1890498399734497,"153":-0.8437402248382568,"154":1.6843844652175903,"155":-0.6048178672790527,"156":-0.3556087613105774,"157":0.11798816174268723,"158":0.29779234528541565,"159":0.4575146436691284,"160":-1.5835390090942383,"161":-0.42069557309150696,"162":0.3505163788795471,"163":-0.7480414509773254,"164":-0.7954428791999817,"165":0.24885642528533936,"166":0.7190115451812744,"167":0.6774585247039795,"168":0.6575594544410706,"169":-0.16815941035747528,"170":0.33705419301986694,"171":-1.0712462663650513,"172":0.9408283233642578,"173":-0.30119433999061584,"174":-1.2845163345336914,"175":0.013520417734980583,"176":0.1290314942598343,"177":0.07143619656562805,"178":-1.1736572980880737,"179":-1.2441855669021606}},"cellActivationHidden":{"rows":20,"columns":20,"weights":{"0":1.4342089891433716,"1":-0.07312263548374176,"2":-1.6567155122756958,"3":-0.7751574516296387,"4":1.633226990699768,"5":0.6592532396316528,"6":0.7269957661628723,"7":0.5295120477676392,"8":-0.008255762048065662,"9":-0.42668288946151733,"10":-1.3991578817367554,"11":-0.258906751871109,"12":0.13675951957702637,"13":-0.6968279480934143,"14":0.7445659041404724,"15":0.12560614943504333,"16":-1.0657403469085693,"17":1.2688453197479248,"18":1.1031465530395508,"19":1.2747985124588013,"20":-0.16474491357803345,"21":-0.07433108240365982,"22":0.37711960077285767,"23":0.36277341842651367,"24":-0.009845161810517311,"25":-0.06321615725755692,"26":-0.20257076621055603,"27":-0.07756223529577255,"28":-0.0529005229473114,"29":-0.3628997504711151,"30":0.2832213044166565,"31":0.22638428211212158,"32":-0.07736256718635559,"33":0.18944178521633148,"34":0.2009134143590927,"35":-0.08249117434024811,"36":0.2523791790008545,"37":-0.3626613914966583,"38":-0.3975370526313782,"39":-0.19333352148532867,"40":-0.992161214351654,"41":-0.30925801396369934,"42":0.6889578104019165,"43":0.616387665271759,"44":-1.010740876197815,"45":-0.2092910259962082,"46":-0.06639504432678223,"47":0.10859338194131851,"48":-0.5276927947998047,"49":0.614746630191803,"50":0.9423982501029968,"51":-0.4939144253730774,"52":-0.5351377129554749,"53":0.5237016677856445,"54":-0.12843884527683258,"55":0.5000673532485962,"56":0.88968825340271,"57":-0.976470947265625,"58":-0.653799295425415,"59":-0.8572928309440613,"60":-1.3231942653656006,"61":0.28128525614738464,"62":0.8239800930023193,"63":-0.7668728232383728,"64":-1.2401775121688843,"65":-1.28605318069458,"66":-0.7949285507202148,"67":0.8794892430305481,"68":0.10707471519708633,"69":0.8414629101753235,"70":1.2877835035324097,"71":0.5327288508415222,"72":0.289691686630249,"73":-0.2936185598373413,"74":-0.5082572102546692,"75":-0.7052457928657532,"76":0.876157820224762,"77":-1.2382500171661377,"78":-0.1651345193386078,"79":-1.1210355758666992,"80":0.8389511704444885,"81":0.08667435497045517,"82":-0.8214138150215149,"83":-0.7205874919891357,"84":0.8968628644943237,"85":0.5455185174942017,"86":0.39071932435035706,"87":-0.23797662556171417,"88":0.25418704748153687,"89":-0.844261646270752,"90":-0.8684825301170349,"91":0.3765701651573181,"92":-0.018714820966124535,"93":-0.6142380237579346,"94":0.2666063606739044,"95":-0.29909154772758484,"96":-0.9432409405708313,"97":0.956447958946228,"98":0.8156020641326904,"99":0.8353073596954346,"100":-0.12702229619026184,"101":-0.20900604128837585,"102":-0.6127033233642578,"103":-1.4158755540847778,"104":0.7406536340713501,"105":-0.2565586566925049,"106":0.520585834980011,"107":0.1116095632314682,"108":-0.1473866105079651,"109":-1.1709190607070923,"110":-0.17263047397136688,"111":-0.13626140356063843,"112":-0.601108193397522,"113":-0.5938790440559387,"114":-0.1837516725063324,"115":0.0637783408164978,"116":-0.6273333430290222,"117":0.2873454988002777,"118":0.9053367972373962,"119":0.3661462068557739,"120":-0.0319141186773777,"121":0.16058863699436188,"122":-0.49216023087501526,"123":-0.5600886940956116,"124":0.057024359703063965,"125":-0.38687896728515625,"126":-0.7901291251182556,"127":0.08321824669837952,"128":0.5846405625343323,"129":0.45001471042633057,"130":-0.39078646898269653,"131":0.9040524363517761,"132":0.08895198255777359,"133":-0.5583491325378418,"134":-0.38592347502708435,"135":0.16158220171928406,"136":-0.2476859837770462,"137":0.1441372185945511,"138":0.08585906773805618,"139":0.2568345069885254,"140":-0.17469623684883118,"141":0.631502091884613,"142":-0.7120436429977417,"143":-1.114444375038147,"144":0.4006998836994171,"145":-1.4438741207122803,"146":-0.6417011618614197,"147":0.06193036213517189,"148":1.0066354274749756,"149":-0.22302143275737762,"150":-0.6633143424987793,"151":1.0235971212387085,"152":-0.9798945188522339,"153":0.11722775548696518,"154":-2.1326680183410645,"155":-1.1056863069534302,"156":-0.5461109280586243,"157":0.30856040120124817,"158":0.04755105450749397,"159":0.7593973875045776,"160":-0.0010960684157907963,"161":-0.3767109513282776,"162":0.5115773677825928,"163":0.20033109188079834,"164":-0.4779225289821625,"165":0.05944228172302246,"166":0.1033346876502037,"167":0.17013736069202423,"168":-0.5023002028465271,"169":-0.09782962501049042,"170":0.2878306806087494,"171":0.03952266275882721,"172":-0.3292029798030853,"173":0.2877678871154785,"174":1.4436348676681519,"175":0.28896182775497437,"176":0.2975180447101593,"177":-0.40650320053100586,"178":-0.15707387030124664,"179":-0.3297312259674072,"180":-0.059670303016901016,"181":1.5059727430343628,"182":-0.29817426204681396,"183":-0.3702073097229004,"184":0.11602209508419037,"185":-0.9104868769645691,"186":-1.2223365306854248,"187":-0.5395227670669556,"188":1.4293158054351807,"189":-0.7946637272834778,"190":-0.07237023115158081,"191":0.6988319158554077,"192":0.6288328170776367,"193":-0.07841888815164566,"194":-0.508510947227478,"195":0.0835941880941391,"196":-0.1660432666540146,"197":0.2936897277832031,"198":0.09817095845937729,"199":0.102864108979702,"200":-0.7003026604652405,"201":0.010176229290664196,"202":0.3367190361022949,"203":0.598750114440918,"204":-0.7620334625244141,"205":-0.7258855700492859,"206":-0.47970032691955566,"207":0.3275989592075348,"208":-0.27023783326148987,"209":0.19808228313922882,"210":0.6994491219520569,"211":-0.848146378993988,"212":-0.41749832034111023,"213":0.58415687084198,"214":-0.04810266196727753,"215":0.31802523136138916,"216":0.07256153970956802,"217":-0.7772360444068909,"218":-0.6467757821083069,"219":-0.7006852030754089,"220":0.8896813988685608,"221":-0.502720296382904,"222":0.019854256883263588,"223":0.13941873610019684,"224":0.2741944193840027,"225":1.1552672386169434,"226":0.9854978322982788,"227":0.7155721187591553,"228":-0.3414224088191986,"229":-0.03473389521241188,"230":-0.058047790080308914,"231":-0.27814096212387085,"232":-0.28957146406173706,"233":0.6478487253189087,"234":0.4732126295566559,"235":0.2106340378522873,"236":0.12019356340169907,"237":0.2317802459001541,"238":0.10996050387620926,"239":0.23004987835884094,"240":-0.6456984281539917,"241":-0.30294695496559143,"242":0.7895369529724121,"243":0.7235034704208374,"244":-0.6674395203590393,"245":-0.04676635563373566,"246":0.08419901132583618,"247":0.19452445209026337,"248":-0.3347022831439972,"249":-0.11794134974479675,"250":0.6376957893371582,"251":0.00021028186893090606,"252":-0.22260741889476776,"253":0.22429941594600677,"254":0.14943616092205048,"255":-0.16102267801761627,"256":0.9334335327148438,"257":-0.7728719711303711,"258":-0.29066672921180725,"259":-0.7253473997116089,"260":-0.2948159873485565,"261":1.437729835510254,"262":0.10596290975809097,"263":-0.49171310663223267,"264":-0.06682503968477249,"265":-1.4334007501602173,"266":-1.1642825603485107,"267":-0.34625983238220215,"268":0.7442984580993652,"269":-0.06695550680160522,"270":-0.041970811784267426,"271":1.2278926372528076,"272":1.1601399183273315,"273":-0.13483311235904694,"274":-0.42429977655410767,"275":-1.1406534910202026,"276":-0.14389432966709137,"277":0.1763666719198227,"278":-0.010015668347477913,"279":0.22677826881408691,"280":-0.8864773511886597,"281":1.5296436548233032,"282":0.6004809737205505,"283":0.6075705885887146,"284":-1.0088659524917603,"285":-1.7504491806030273,"286":-0.7873530983924866,"287":1.027974009513855,"288":1.1246426105499268,"289":0.5754768252372742,"290":0.45362019538879395,"291":0.0090943593531847,"292":1.3323159217834473,"293":0.2502999007701874,"294":-0.9957383275032043,"295":-0.5365781188011169,"296":0.5858924388885498,"297":-0.3527286946773529,"298":-0.7172408103942871,"299":-0.44611600041389465,"300":0.2288871705532074,"301":0.6236782670021057,"302":-0.9100690484046936,"303":-0.627238929271698,"304":1.1308108568191528,"305":0.10322990268468857,"306":1.018896460533142,"307":-0.5388092994689941,"308":0.6776212453842163,"309":0.26293885707855225,"310":-0.8706502318382263,"311":-0.2532355487346649,"312":0.2419295459985733,"313":-0.3161163330078125,"314":-0.29848381876945496,"315":-1.6668866872787476,"316":-0.8965440392494202,"317":0.8500137329101562,"318":0.6365644335746765,"319":0.9925073385238647,"320":-0.6596471667289734,"321":-0.19061002135276794,"322":0.519074022769928,"323":0.1815308779478073,"324":-0.6567004323005676,"325":-0.22487694025039673,"326":-0.969921886920929,"327":0.26340869069099426,"328":-0.504288375377655,"329":0.7240939736366272,"330":0.6463758945465088,"331":-0.6603879332542419,"332":-0.4276047348976135,"333":0.7777827382087708,"334":-0.7367711067199707,"335":0.3057078719139099,"336":0.22280828654766083,"337":-0.77053302526474,"338":-0.4871410131454468,"339":-0.79475337266922,"340":0.7736179232597351,"341":0.23385834693908691,"342":-0.29800495505332947,"343":-0.4463154077529907,"344":0.47725021839141846,"345":0.6325391530990601,"346":0.45964211225509644,"347":0.32813847064971924,"348":0.16765424609184265,"349":-0.3921971619129181,"350":-0.5570862293243408,"351":0.26839861273765564,"352":0.2641703486442566,"353":-0.5358569025993347,"354":0.4765665829181671,"355":0.1284673810005188,"356":-0.1210811585187912,"357":0.5489631295204163,"358":0.7931730151176453,"359":0.5985482931137085,"360":0.2942675054073334,"361":0.03171944245696068,"362":-1.0491379499435425,"363":0.7531422972679138,"364":1.0269659757614136,"365":0.2994598150253296,"366":-0.16564346849918365,"367":-0.8193684816360474,"368":0.05850660800933838,"369":-0.6627395153045654,"370":-0.9186378121376038,"371":-0.06887952238321304,"372":0.06601177155971527,"373":0.36843717098236084,"374":-0.2424263060092926,"375":0.01793508045375347,"376":-1.1573587656021118,"377":0.7735859155654907,"378":-1.0774253606796265,"379":1.0057153701782227,"380":0.7286867499351501,"381":0.09474848955869675,"382":-0.5235932469367981,"383":-0.6724274754524231,"384":0.720076858997345,"385":0.8332972526550293,"386":0.19895485043525696,"387":-0.2620954215526581,"388":0.1975441873073578,"389":-0.4036407768726349,"390":-0.7803261280059814,"391":0.8616604804992676,"392":0.33875328302383423,"393":-0.7337467670440674,"394":0.39263269305229187,"395":-0.8423811197280884,"396":-0.556693971157074,"397":0.7928568124771118,"398":0.8091252446174622,"399":0.6646710634231567}},"cellActivationBias":{"rows":20,"columns":1,"weights":{"0":-0.11232151836156845,"1":-0.509564995765686,"2":0.20660696923732758,"3":0.44533225893974304,"4":-0.2428743839263916,"5":0.3403248190879822,"6":-0.20549112558364868,"7":0.031069988384842873,"8":-0.13774484395980835,"9":-0.720032274723053,"10":-0.10352218151092529,"11":-0.31049206852912903,"12":-0.7887006998062134,"13":-0.910939633846283,"14":0.6040307283401489,"15":0.30751433968544006,"16":0.044149745255708694,"17":0.028350582346320152,"18":-0.26996806263923645,"19":0.15898755192756653}}},{"inputMatrix":{"rows":20,"columns":20,"weights":{"0":-1.3565772771835327,"1":-0.19990655779838562,"2":1.9813988208770752,"3":-0.8762694597244263,"4":-1.463334083557129,"5":-0.6380873322486877,"6":0.8994266986846924,"7":0.6011677384376526,"8":-0.42991429567337036,"9":2.53242564201355,"10":1.7383089065551758,"11":-0.10837090760469437,"12":-0.8674507141113281,"13":0.6340439319610596,"14":0.8841724395751953,"15":0.46943363547325134,"16":2.356152057647705,"17":-1.4212775230407715,"18":1.345900058746338,"19":-1.7723169326782227,"20":-0.9377666115760803,"21":0.7057675719261169,"22":1.6621147394180298,"23":-1.5206934213638306,"24":-0.9276739358901978,"25":-0.13864244520664215,"26":0.182841494679451,"27":-0.18741531670093536,"28":0.44202104210853577,"29":1.7954521179199219,"30":1.0609877109527588,"31":-0.13475504517555237,"32":0.3006885051727295,"33":0.32629865407943726,"34":-0.19780193269252777,"35":0.3434661328792572,"36":1.2543182373046875,"37":-1.0254628658294678,"38":0.17335140705108643,"39":-1.1189783811569214,"40":0.11192551255226135,"41":0.11309134215116501,"42":-0.014958973042666912,"43":0.5651589632034302,"44":0.06604646146297455,"45":-1.267530918121338,"46":-2.3404500484466553,"47":-0.888540506362915,"48":0.023338912054896355,"49":-0.7434584498405457,"50":-0.08299201726913452,"51":0.22962652146816254,"52":-0.139944925904274,"53":0.5487347841262817,"54":-1.7855077981948853,"55":0.5029950737953186,"56":-0.27915656566619873,"57":0.11539050936698914,"58":-0.5523341298103333,"59":0.09594561904668808,"60":0.3646177649497986,"61":0.23886150121688843,"62":0.35229581594467163,"63":-1.4300740957260132,"64":0.30047667026519775,"65":-0.00012098172010155395,"66":2.1479153633117676,"67":0.46351945400238037,"68":-0.23561576008796692,"69":0.12797272205352783,"70":-0.245737686753273,"71":0.9108068943023682,"72":-0.08997233957052231,"73":-1.3696218729019165,"74":-1.6896007061004639,"75":-0.09478360414505005,"76":0.8091617822647095,"77":0.4706961214542389,"78":0.41930630803108215,"79":0.2401309311389923,"80":1.1874380111694336,"81":-0.005810422357171774,"82":-0.7318692803382874,"83":-1.016670823097229,"84":1.0732144117355347,"85":0.40547189116477966,"86":0.022821608930826187,"87":0.3740704357624054,"88":-0.1036558449268341,"89":-1.0454655885696411,"90":-0.7571526765823364,"91":-0.326463907957077,"92":-0.20342372357845306,"93":0.0528346411883831,"94":0.5559632778167725,"95":0.17129823565483093,"96":-0.7384130358695984,"97":0.702309250831604,"98":1.0813872814178467,"99":0.6412520408630371,"100":-0.07302725315093994,"101":0.6873806715011597,"102":0.4933144748210907,"103":-1.2850381135940552,"104":0.5151228904724121,"105":-0.028311146423220634,"106":0.8814490437507629,"107":-0.058401450514793396,"108":0.9217708706855774,"109":0.3544248342514038,"110":0.5540271401405334,"111":0.874087393283844,"112":-0.31264394521713257,"113":-0.8486421704292297,"114":-0.4315282702445984,"115":-0.43853017687797546,"116":0.5690316557884216,"117":0.6374285817146301,"118":-0.43267005681991577,"119":-0.36746349930763245,"120":-1.5159801244735718,"121":0.26017600297927856,"122":1.520540475845337,"123":-0.06405717134475708,"124":-1.763329029083252,"125":-0.7066264152526855,"126":-0.36599045991897583,"127":0.1347733438014984,"128":0.5654464364051819,"129":2.592360258102417,"130":1.8609330654144287,"131":0.49083614349365234,"132":0.038983069360256195,"133":-1.345845103263855,"134":0.9629012942314148,"135":0.22773782908916473,"136":1.8908634185791016,"137":-1.6070805788040161,"138":2.291995048522949,"139":-1.6963149309158325,"140":-0.3435003161430359,"141":0.8271216154098511,"142":0.8447651267051697,"143":-0.7272475957870483,"144":-0.7788228392601013,"145":-0.3379363715648651,"146":-0.8284951448440552,"147":-0.8187733888626099,"148":0.8949623703956604,"149":0.44290226697921753,"150":0.9296910762786865,"151":-0.04182325676083565,"152":0.03704585134983063,"153":-0.47673630714416504,"154":-0.03295690938830376,"155":-0.317050039768219,"156":0.6187168955802917,"157":-0.6369785070419312,"158":-0.006153680384159088,"159":-0.6656780242919922,"160":0.08227824419736862,"161":0.8206205368041992,"162":1.078889012336731,"163":-0.7516018152236938,"164":-1.1665332317352295,"165":0.16580690443515778,"166":0.5053842663764954,"167":-0.586616575717926,"168":0.9551576972007751,"169":0.4148730933666229,"170":1.1813876628875732,"171":-0.2835654020309448,"172":-0.4057950973510742,"173":-1.3652656078338623,"174":-0.24714724719524384,"175":0.12179382890462875,"176":1.1879380941390991,"177":-1.0599877834320068,"178":0.15160231292247772,"179":-0.9602500796318054,"180":0.14406771957874298,"181":0.15368686616420746,"182":0.7154031991958618,"183":0.013670814223587513,"184":-0.30037540197372437,"185":-0.26749300956726074,"186":0.03580619767308235,"187":-0.8912408947944641,"188":0.370124876499176,"189":-0.41274505853652954,"190":0.6088238954544067,"191":0.287744402885437,"192":-0.7183865904808044,"193":2.116652250289917,"194":-0.31373971700668335,"195":-2.367342948913574,"196":0.5937027931213379,"197":-0.26416927576065063,"198":0.3320504128932953,"199":-0.5314117670059204,"200":0.20485800504684448,"201":-0.6875281929969788,"202":-0.26467758417129517,"203":3.6493756771087646,"204":-0.07908283174037933,"205":0.13147374987602234,"206":-1.4343024492263794,"207":-2.4607443809509277,"208":-0.8659379482269287,"209":0.030612478032708168,"210":0.2883886396884918,"211":0.41588130593299866,"212":0.3634866774082184,"213":2.217463970184326,"214":-0.7322343587875366,"215":1.4997440576553345,"216":0.01827755570411682,"217":0.09288903325796127,"218":-2.6921908855438232,"219":-0.24557118117809296,"220":-1.0198169946670532,"221":0.8751682043075562,"222":1.292925477027893,"223":-0.038504838943481445,"224":-0.9961348176002502,"225":-1.1558758020401,"226":-1.2560181617736816,"227":-0.18628762662410736,"228":0.9604015946388245,"229":2.310844898223877,"230":1.1009851694107056,"231":0.3875827193260193,"232":0.7249020934104919,"233":-0.43912309408187866,"234":-0.7688525915145874,"235":-0.04347632825374603,"236":0.9154114127159119,"237":-0.9410450458526611,"238":-0.487143874168396,"239":-1.05180025100708,"240":-1.3193004131317139,"241":-0.8301247954368591,"242":1.2016116380691528,"243":0.2627445459365845,"244":-1.426313877105713,"245":-1.0331679582595825,"246":1.382086157798767,"247":-0.5317869186401367,"248":-0.2640641927719116,"249":1.1330641508102417,"250":1.109420895576477,"251":-0.1250256448984146,"252":-2.1813161373138428,"253":-0.4287865161895752,"254":0.4437229037284851,"255":-0.6743675470352173,"256":1.0247890949249268,"257":-1.2917120456695557,"258":-0.5645891427993774,"259":-1.1644693613052368,"260":-0.14211779832839966,"261":-0.9614723324775696,"262":0.9709110856056213,"263":-2.1709344387054443,"264":-0.06353409588336945,"265":0.946694552898407,"266":2.5149121284484863,"267":0.7633160948753357,"268":0.1708594560623169,"269":0.6937836408615112,"270":0.1760271191596985,"271":-0.6696373820304871,"272":-0.8343378305435181,"273":-0.5777051448822021,"274":1.9882831573486328,"275":-0.01907266676425934,"276":0.22353839874267578,"277":-0.12215151637792587,"278":0.5999466776847839,"279":-0.20297710597515106,"280":-0.9747258424758911,"281":1.3960140943527222,"282":1.0144245624542236,"283":0.33665138483047485,"284":-0.2370719015598297,"285":-1.0515069961547852,"286":0.8973336815834045,"287":-1.472808599472046,"288":1.137735366821289,"289":0.8001039624214172,"290":0.49600598216056824,"291":0.26173242926597595,"292":0.4036886692047119,"293":-0.989213764667511,"294":0.00876995176076889,"295":-1.140150547027588,"296":0.16204898059368134,"297":-0.5017370581626892,"298":-0.3480791747570038,"299":-0.3950391411781311,"300":-1.8016297817230225,"301":2.4200942516326904,"302":0.5263164639472961,"303":-0.9825153946876526,"304":-1.3391733169555664,"305":-2.0386674404144287,"306":-0.45649752020835876,"307":-0.6799537539482117,"308":1.7752666473388672,"309":1.1381373405456543,"310":1.0254712104797363,"311":0.5739789009094238,"312":0.9882810115814209,"313":-1.2604490518569946,"314":0.42863067984580994,"315":-2.2131316661834717,"316":1.7385143041610718,"317":-1.5991522073745728,"318":1.8474026918411255,"319":-1.3781877756118774,"320":-0.6454392671585083,"321":0.3820587396621704,"322":0.5083990097045898,"323":-0.6118477582931519,"324":-0.523833692073822,"325":0.18507252633571625,"326":-0.2738189697265625,"327":-0.49837103486061096,"328":1.741552710533142,"329":0.7844813466072083,"330":0.5514913201332092,"331":0.39207950234413147,"332":-0.22091221809387207,"333":-3.19755220413208,"334":-0.5417470932006836,"335":-0.5967198610305786,"336":0.5183835029602051,"337":-0.4520338773727417,"338":0.5633652210235596,"339":-0.4160741865634918,"340":-0.33587417006492615,"341":0.7036071419715881,"342":0.019055422395467758,"343":0.31230098009109497,"344":-0.35902348160743713,"345":-2.253369092941284,"346":0.38585832715034485,"347":-1.5737892389297485,"348":0.34085920453071594,"349":-0.8490409255027771,"350":0.4257495701313019,"351":0.41204002499580383,"352":0.5934396982192993,"353":0.2289629876613617,"354":-1.7326207160949707,"355":-0.9203855395317078,"356":0.4166095554828644,"357":-0.38016679883003235,"358":0.2467840313911438,"359":-0.5585207343101501,"360":-0.7762426733970642,"361":0.10945487022399902,"362":1.6524935960769653,"363":-1.0646624565124512,"364":-0.9071941375732422,"365":-0.37549951672554016,"366":-0.24925202131271362,"367":0.159723699092865,"368":-0.22009283304214478,"369":1.9221712350845337,"370":0.950689435005188,"371":0.5148852467536926,"372":-0.4681280255317688,"373":-0.6233623027801514,"374":0.05018492043018341,"375":0.4502929747104645,"376":0.8872541189193726,"377":-0.7676193714141846,"378":0.7412186861038208,"379":-0.8947423696517944,"380":0.9472301006317139,"381":-1.1251540184020996,"382":-0.7655330896377563,"383":-0.9638163447380066,"384":0.7547430396080017,"385":1.1504558324813843,"386":1.4225032329559326,"387":-0.8893821239471436,"388":-0.169687420129776,"389":-1.2891217470169067,"390":-0.4124983847141266,"391":-0.19431792199611664,"392":-1.0258582830429077,"393":-0.401620477437973,"394":1.4001723527908325,"395":0.4393126666545868,"396":-0.6352516412734985,"397":0.405204176902771,"398":0.7564809918403625,"399":0.32443368434906006}},"inputHidden":{"rows":20,"columns":20,"weights":{"0":-0.8203130960464478,"1":-0.4631553292274475,"2":-0.01258827280253172,"3":-0.1076456606388092,"4":-0.8121934533119202,"5":0.12491895258426666,"6":0.4866468608379364,"7":-0.8096877932548523,"8":-0.7878590226173401,"9":0.14589516818523407,"10":-1.0318470001220703,"11":-0.47482043504714966,"12":0.0059141539968550205,"13":0.18926098942756653,"14":-0.2121323049068451,"15":0.1765069216489792,"16":-0.7492654919624329,"17":0.9143960475921631,"18":0.6105439066886902,"19":0.17187680304050446,"20":0.24156756699085236,"21":-0.4371703863143921,"22":-0.5167816877365112,"23":0.22920915484428406,"24":0.14794909954071045,"25":1.1198666095733643,"26":1.912883996963501,"27":-0.7469412684440613,"28":-0.6986832618713379,"29":0.8054890632629395,"30":-0.9152528643608093,"31":0.4416680634021759,"32":0.11165440082550049,"33":-0.2668267488479614,"34":0.4098897874355316,"35":0.22410047054290771,"36":0.795653223991394,"37":0.694701075553894,"38":0.7254377603530884,"39":0.1515108346939087,"40":1.3003089427947998,"41":0.5163690447807312,"42":2.2206549644470215,"43":1.129638910293579,"44":0.5073517560958862,"45":2.1251561641693115,"46":-1.620477557182312,"47":-2.106544017791748,"48":-0.8362005949020386,"49":3.753350257873535,"50":0.1431279182434082,"51":1.018774390220642,"52":-1.9508923292160034,"53":4.771968841552734,"54":-0.3797807991504669,"55":1.071970820426941,"56":-0.6586875915527344,"57":2.1601884365081787,"58":-0.5095878839492798,"59":-1.4563180208206177,"60":0.8979901671409607,"61":0.6347628235816956,"62":-1.099410057067871,"63":0.3622570335865021,"64":0.5874491930007935,"65":-1.334197759628296,"66":1.2794936895370483,"67":-2.0686123371124268,"68":-1.2746837139129639,"69":1.2765522003173828,"70":0.5867407917976379,"71":0.2985735833644867,"72":-0.7465220093727112,"73":-1.1224555969238281,"74":-0.514472246170044,"75":1.9218629598617554,"76":0.1423693597316742,"77":0.9923402667045593,"78":-0.6716621518135071,"79":0.20315785706043243,"80":0.6344265937805176,"81":-0.16949321329593658,"82":-1.1582250595092773,"83":-1.0802658796310425,"84":1.8017362356185913,"85":-0.8907092809677124,"86":-0.41668418049812317,"87":0.7693399786949158,"88":0.773788332939148,"89":-1.2028510570526123,"90":-1.8206766843795776,"91":-0.24264557659626007,"92":0.7486129999160767,"93":-0.6139172315597534,"94":-0.13362279534339905,"95":-0.881482720375061,"96":0.22323036193847656,"97":-1.4254493713378906,"98":0.03863679990172386,"99":0.019569940865039825,"100":-0.6923361420631409,"101":-0.40385326743125916,"102":-0.15115003287792206,"103":0.5646718144416809,"104":-0.2592516541481018,"105":-1.0774943828582764,"106":-0.4161984622478485,"107":1.0885721445083618,"108":1.380172610282898,"109":-1.4162871837615967,"110":0.6094324588775635,"111":-0.5406507849693298,"112":0.8691563010215759,"113":-0.18665793538093567,"114":-0.7155139446258545,"115":-1.5933904647827148,"116":-0.6831477880477905,"117":-0.9746135473251343,"118":0.3224295675754547,"119":-2.059019088745117,"120":0.6137241125106812,"121":0.3634521961212158,"122":0.21403183043003082,"123":0.12904465198516846,"124":-0.3192674517631531,"125":-0.7348132133483887,"126":-0.5418729186058044,"127":0.8628197312355042,"128":0.6868140697479248,"129":-0.825875461101532,"130":-0.33445122838020325,"131":-0.0754084438085556,"132":0.20616719126701355,"133":0.5358045697212219,"134":0.03372633457183838,"135":1.4941046237945557,"136":-1.0633807182312012,"137":-1.1061713695526123,"138":-0.6975855231285095,"139":0.4317122995853424,"140":-1.0084223747253418,"141":-0.5540545582771301,"142":-0.8240974545478821,"143":-1.0275015830993652,"144":-0.293779194355011,"145":-0.3646969497203827,"146":0.16429008543491364,"147":0.06639182567596436,"148":0.12073871493339539,"149":-0.2963202893733978,"150":0.16183580458164215,"151":-1.1278777122497559,"152":1.5802921056747437,"153":-0.25171640515327454,"154":-0.6592538952827454,"155":-0.6727819442749023,"156":-0.16582243144512177,"157":-0.007014847826212645,"158":0.8474271893501282,"159":0.6484585404396057,"160":-0.9473642706871033,"161":-0.5248796343803406,"162":-0.7559487819671631,"163":-0.5748363733291626,"164":-0.38111022114753723,"165":-0.20061416923999786,"166":-0.8266870379447937,"167":0.15904006361961365,"168":0.09848807752132416,"169":-0.26503926515579224,"170":-0.0016319423448294401,"171":-0.6900321841239929,"172":1.7749874591827393,"173":0.39582324028015137,"174":-0.6398891806602478,"175":-0.00768883153796196,"176":-0.02602086216211319,"177":-0.2543957531452179,"178":0.6370055079460144,"179":0.4170152544975281,"180":-1.0974116325378418,"181":-0.7976703643798828,"182":-2.864470958709717,"183":1.819288730621338,"184":0.12884636223316193,"185":-0.10294470191001892,"186":-1.0173283815383911,"187":-0.5133163332939148,"188":-0.2965228855609894,"189":0.39261141419410706,"190":-1.0718504190444946,"191":-0.8009337186813354,"192":1.0605554580688477,"193":3.602663516998291,"194":0.17827272415161133,"195":-2.326463222503662,"196":-0.12969328463077545,"197":-0.10114254802465439,"198":0.5881273150444031,"199":-0.15749011933803558,"200":2.837724447250366,"201":1.3946782350540161,"202":-1.6099241971969604,"203":-0.7655411958694458,"204":1.2664457559585571,"205":-0.7069733738899231,"206":-1.063188910484314,"207":-0.38263270258903503,"208":-0.3893122971057892,"209":-0.2284255474805832,"210":0.3889527916908264,"211":0.9791220426559448,"212":0.7045257091522217,"213":0.19185002148151398,"214":2.216188907623291,"215":3.3393006324768066,"216":1.6992089748382568,"217":-0.704451322555542,"218":-1.761531949043274,"219":0.08925629407167435,"220":-0.03740157559514046,"221":0.30150306224823,"222":-0.5069989562034607,"223":0.11797210574150085,"224":-0.06380807608366013,"225":0.9017187356948853,"226":1.8578355312347412,"227":-0.4156480133533478,"228":-0.5234912037849426,"229":0.8407856822013855,"230":-0.5603386759757996,"231":-0.025542613118886948,"232":-0.07115885615348816,"233":0.562403678894043,"234":-0.23250851035118103,"235":-0.2361827790737152,"236":1.040543556213379,"237":0.657171368598938,"238":0.1558837890625,"239":0.29513296484947205,"240":0.7702445387840271,"241":1.0281139612197876,"242":1.9384994506835938,"243":0.3517879545688629,"244":0.4271872043609619,"245":0.46034660935401917,"246":0.5635902881622314,"247":-0.5709548592567444,"248":-0.42840149998664856,"249":0.8180079460144043,"250":-0.4527161121368408,"251":0.6960266828536987,"252":-0.3034878671169281,"253":-0.11579586565494537,"254":0.47129297256469727,"255":-0.14607210457324982,"256":0.4668579399585724,"257":-0.940436601638794,"258":-0.6080449223518372,"259":0.16878293454647064,"260":1.6091099977493286,"261":2.005678176879883,"262":-1.3397706747055054,"263":-1.9181362390518188,"264":1.3565459251403809,"265":-1.0085794925689697,"266":1.4993209838867188,"267":-0.7099218964576721,"268":-1.255638837814331,"269":1.0569723844528198,"270":1.3793935775756836,"271":1.26166832447052,"272":1.3523811101913452,"273":0.6854370832443237,"274":0.9962979555130005,"275":-0.6283835768699646,"276":1.0188575983047485,"277":-1.0143907070159912,"278":-1.9377988576889038,"279":2.1201858520507812,"280":0.7268298268318176,"281":0.3564212918281555,"282":-1.1534712314605713,"283":-0.8889046907424927,"284":0.4925391376018524,"285":0.6005855798721313,"286":2.164184093475342,"287":-0.5537580847740173,"288":-0.3173886239528656,"289":2.040276288986206,"290":-0.9996203184127808,"291":0.7760497331619263,"292":-0.01931351236999035,"293":-0.2071724683046341,"294":-0.7415844798088074,"295":1.2451956272125244,"296":1.1682664155960083,"297":1.1702487468719482,"298":-0.4621919095516205,"299":0.33280399441719055,"300":-0.580095112323761,"301":-0.8273284435272217,"302":0.2781835198402405,"303":-1.383344054222107,"304":-0.931999683380127,"305":-0.21051853895187378,"306":-1.5694196224212646,"307":0.6973420977592468,"308":0.7971423268318176,"309":-0.06016833335161209,"310":-0.18327654898166656,"311":-0.6122766137123108,"312":0.6254202723503113,"313":0.3192473351955414,"314":-0.29201066493988037,"315":1.0981322526931763,"316":0.007401046343147755,"317":0.19840218126773834,"318":0.6755611300468445,"319":0.3390572965145111,"320":2.167144536972046,"321":0.45777034759521484,"322":-0.9084489941596985,"323":0.822798490524292,"324":0.040181711316108704,"325":-0.4699256122112274,"326":1.1620153188705444,"327":0.6870417594909668,"328":0.47354695200920105,"329":-0.5247787237167358,"330":-1.876713752746582,"331":0.05167669057846069,"332":-0.2435486614704132,"333":0.3175778388977051,"334":0.005020869430154562,"335":0.11193441599607468,"336":2.233999729156494,"337":-0.5997797846794128,"338":0.3156028389930725,"339":0.11302042007446289,"340":-1.5067533254623413,"341":-0.9734093546867371,"342":-2.9036271572113037,"343":-1.364535927772522,"344":-0.6074045896530151,"345":-0.2670961618423462,"346":0.5412418246269226,"347":-1.4123263359069824,"348":-1.3398091793060303,"349":0.6397051215171814,"350":0.021592257544398308,"351":-1.0619572401046753,"352":1.5986238718032837,"353":-1.3971278667449951,"354":-2.4674928188323975,"355":0.17870476841926575,"356":0.5406049489974976,"357":1.6955796480178833,"358":1.1131757497787476,"359":0.11582843959331512,"360":0.3757001459598541,"361":0.012586214579641819,"362":-0.7751370072364807,"363":-0.1482393592596054,"364":0.34004661440849304,"365":1.4510606527328491,"366":2.266836166381836,"367":-0.7062256932258606,"368":-0.9557999968528748,"369":0.9016798138618469,"370":-0.8913885354995728,"371":-0.4284747838973999,"372":0.14192964136600494,"373":-0.5062950253486633,"374":-0.14883914589881897,"375":-0.11286503821611404,"376":0.6917312145233154,"377":1.3048962354660034,"378":0.4676593244075775,"379":0.1596963107585907,"380":0.6106507778167725,"381":0.7751943469047546,"382":-0.240354984998703,"383":-0.22208380699157715,"384":2.017470359802246,"385":-0.9280605912208557,"386":1.552247405052185,"387":0.8348776698112488,"388":0.9353139400482178,"389":-0.05030000954866409,"390":-0.4404295086860657,"391":0.6605186462402344,"392":0.3693796694278717,"393":0.1497480720281601,"394":0.6943105459213257,"395":-0.9723703861236572,"396":0.2758055031299591,"397":-0.5103198885917664,"398":-0.7200490832328796,"399":1.0528836250305176}},"inputBias":{"rows":20,"columns":1,"weights":{"0":3.139310598373413,"1":0.715949296951294,"2":0.4649103283882141,"3":0.4190228581428528,"4":-1.4006762504577637,"5":-0.027409179136157036,"6":1.229895830154419,"7":-0.22130006551742554,"8":-0.13480731844902039,"9":1.2118709087371826,"10":-0.6553978323936462,"11":0.337542325258255,"12":1.0119019746780396,"13":-0.5970397591590881,"14":0.4928092956542969,"15":1.7158397436141968,"16":0.1944987028837204,"17":1.937444806098938,"18":0.7600889205932617,"19":-1.1488556861877441}},"forgetMatrix":{"rows":20,"columns":20,"weights":{"0":-0.5558717250823975,"1":-0.620463490486145,"2":1.276245355606079,"3":-0.2659550905227661,"4":-1.2576664686203003,"5":0.1769699603319168,"6":0.7333407998085022,"7":0.7014291882514954,"8":-0.6782519817352295,"9":1.617583990097046,"10":1.201912760734558,"11":-0.28559747338294983,"12":-0.8305837512016296,"13":0.21834246814250946,"14":0.3817172646522522,"15":0.8950884342193604,"16":1.0538688898086548,"17":-0.8500062823295593,"18":-0.09182543307542801,"19":-0.7223954200744629,"20":-1.0305020809173584,"21":-0.6344454884529114,"22":1.3483703136444092,"23":-0.03315451741218567,"24":-1.2037948369979858,"25":-0.020058566704392433,"26":0.6578184366226196,"27":0.3222242295742035,"28":-0.7371376156806946,"29":0.8927797079086304,"30":1.1902810335159302,"31":-0.40248847007751465,"32":-0.7731831073760986,"33":0.37695008516311646,"34":0.43541109561920166,"35":0.930327296257019,"36":1.2640756368637085,"37":-0.9893558621406555,"38":-0.296561598777771,"39":-1.0714869499206543,"40":-0.7588170766830444,"41":-0.8762596249580383,"42":1.5053460597991943,"43":-0.6204550266265869,"44":-1.4219473600387573,"45":0.2769221067428589,"46":1.0450609922409058,"47":0.8531316518783569,"48":-0.8093506693840027,"49":0.6303187608718872,"50":1.6760166883468628,"51":0.08974803239107132,"52":-0.8615395426750183,"53":-0.5278078317642212,"54":0.7807072997093201,"55":0.39592036604881287,"56":1.9639582633972168,"57":-1.284987211227417,"58":0.5691276788711548,"59":-1.600473165512085,"60":-0.8469287157058716,"61":-0.41947513818740845,"62":1.290017008781433,"63":0.25251397490501404,"64":-1.2001135349273682,"65":-0.1677163988351822,"66":0.36176785826683044,"67":0.29981687664985657,"68":-0.2238064408302307,"69":0.9287150502204895,"70":1.0994610786437988,"71":-0.35034772753715515,"72":-0.5739893317222595,"73":0.45320287346839905,"74":0.5739095211029053,"75":0.6402227282524109,"76":0.9593255519866943,"77":-0.8667981028556824,"78":-0.2990342080593109,"79":-0.7626797556877136,"80":1.393155813217163,"81":2.2956650257110596,"82":-1.2586841583251953,"83":-1.859520435333252,"84":1.344335675239563,"85":-0.146169513463974,"86":-1.6483181715011597,"87":4.12731409072876,"88":1.8570442199707031,"89":-0.903876006603241,"90":-1.362899899482727,"91":-0.10015659034252167,"92":2.512425184249878,"93":-0.6107764840126038,"94":1.0438143014907837,"95":-2.2010717391967773,"96":-1.2725958824157715,"97":1.2305152416229248,"98":1.2598202228546143,"99":1.3731796741485596,"100":-0.11833956837654114,"101":0.8793546557426453,"102":0.2878304123878479,"103":-0.5780329704284668,"104":0.013212678954005241,"105":1.3237260580062866,"106":1.334282636642456,"107":-1.044896125793457,"108":1.0303584337234497,"109":-0.12391829490661621,"110":0.19522571563720703,"111":0.5430006384849548,"112":-0.2572886347770691,"113":0.2015736848115921,"114":0.11121907085180283,"115":1.2223671674728394,"116":0.13162781298160553,"117":-0.086271733045578,"118":-0.3017885088920593,"119":-0.23390285670757294,"120":-0.6733585000038147,"121":-1.833981990814209,"122":-0.725792407989502,"123":1.2318285703659058,"124":-0.4369376301765442,"125":1.6366770267486572,"126":-0.7674608826637268,"127":-2.6458170413970947,"128":0.6878876686096191,"129":-0.46526095271110535,"130":0.6141252517700195,"131":0.06062578037381172,"132":0.19739173352718353,"133":-0.2216559797525406,"134":-0.328517884016037,"135":-0.05695507302880287,"136":0.49891358613967896,"137":-0.7555956840515137,"138":-0.17550534009933472,"139":-0.6246474981307983,"140":-0.293759822845459,"141":0.6510623097419739,"142":0.34709933400154114,"143":0.5676096677780151,"144":-0.1872924417257309,"145":0.44221100211143494,"146":-0.009844998829066753,"147":-1.0138888359069824,"148":0.9942442774772644,"149":-0.14072543382644653,"150":0.47418326139450073,"151":-0.19789928197860718,"152":-0.008166909217834473,"153":0.4639180302619934,"154":-0.7417263984680176,"155":-0.13079378008842468,"156":0.33809971809387207,"157":-0.4669077694416046,"158":-0.32297283411026,"159":-0.5521371364593506,"160":-0.1296132206916809,"161":1.589044451713562,"162":-0.010887153446674347,"163":0.12211811542510986,"164":0.18692545592784882,"165":0.39507001638412476,"166":-0.21192175149917603,"167":-1.3167273998260498,"168":1.1641889810562134,"169":-0.5346986055374146,"170":0.2769451439380646,"171":-0.6012052893638611,"172":-0.01706523634493351,"173":0.4734284281730652,"174":-0.9325557351112366,"175":-0.82237309217453,"176":-0.31813743710517883,"177":0.04414355754852295,"178":-0.2682148814201355,"179":-0.22101610898971558,"180":-0.22665728628635406,"181":0.7180320620536804,"182":0.3578014075756073,"183":1.2664201259613037,"184":-0.26772916316986084,"185":-1.7647218704223633,"186":-0.9635756015777588,"187":-0.8234816193580627,"188":0.8874970078468323,"189":0.06092572584748268,"190":0.4390607178211212,"191":-0.4113250970840454,"192":-0.0525297075510025,"193":0.2944604456424713,"194":-1.3593815565109253,"195":-2.470472812652588,"196":0.3467450737953186,"197":-0.5207493901252747,"198":-0.18924440443515778,"199":-0.5476064085960388,"200":-0.16868111491203308,"201":1.9497662782669067,"202":-1.2788037061691284,"203":-0.28095486760139465,"204":-0.19469857215881348,"205":0.3968486785888672,"206":-2.188230037689209,"207":-2.3063812255859375,"208":-0.16969798505306244,"209":0.3427675664424896,"210":0.03668302297592163,"211":-1.110750436782837,"212":2.3919191360473633,"213":0.1593802571296692,"214":-0.3814353346824646,"215":0.8374180197715759,"216":-0.21436867117881775,"217":-0.01433341484516859,"218":0.601440966129303,"219":0.06711379438638687,"220":-0.6250500082969666,"221":-0.9548248052597046,"222":1.0373554229736328,"223":0.104348324239254,"224":-1.2373780012130737,"225":0.25123244524002075,"226":0.6714565753936768,"227":0.36592358350753784,"228":-0.7218859791755676,"229":0.35096824169158936,"230":1.1408886909484863,"231":-0.30386847257614136,"232":-0.7578189373016357,"233":0.2089879810810089,"234":-0.0407351553440094,"235":0.8484169244766235,"236":1.3980823755264282,"237":-1.1315171718597412,"238":-0.4752139151096344,"239":-1.1484134197235107,"240":-0.7388395071029663,"241":-0.45549219846725464,"242":1.318257451057434,"243":0.12094241380691528,"244":-1.350835919380188,"245":-0.5305473804473877,"246":0.32501375675201416,"247":0.9512569904327393,"248":-0.10503505915403366,"249":1.4558019638061523,"250":1.1128647327423096,"251":-0.044652968645095825,"252":-0.2668139934539795,"253":0.02269463799893856,"254":-0.5658140182495117,"255":0.7201804518699646,"256":1.2303709983825684,"257":-0.8175684213638306,"258":-0.37866273522377014,"259":-0.866411566734314,"260":-1.2292799949645996,"261":-0.7930663228034973,"262":1.046459436416626,"263":0.37015360593795776,"264":-1.450400710105896,"265":0.9887622594833374,"266":0.540584146976471,"267":-1.1523877382278442,"268":1.008623480796814,"269":1.923425316810608,"270":1.238401174545288,"271":-0.5302619338035583,"272":-0.286235511302948,"273":-0.10235141962766647,"274":0.023798391222953796,"275":0.6210780739784241,"276":1.7761021852493286,"277":-1.2223916053771973,"278":0.35038772225379944,"279":-1.4499993324279785,"280":-0.13498878479003906,"281":-0.649259626865387,"282":0.37794625759124756,"283":0.29024407267570496,"284":-0.2995907664299011,"285":-0.8913501501083374,"286":0.47887423634529114,"287":-0.14271633327007294,"288":-0.469742089509964,"289":0.7955865263938904,"290":0.12525790929794312,"291":-0.16216742992401123,"292":-0.46006208658218384,"293":0.3599770665168762,"294":0.24338221549987793,"295":0.7794085144996643,"296":0.4684390723705292,"297":0.0833485797047615,"298":-0.8479598164558411,"299":-0.0832471027970314,"300":-0.28788474202156067,"301":-0.6961432695388794,"302":-1.9903355836868286,"303":0.18388982117176056,"304":0.06112774461507797,"305":1.7205877304077148,"306":1.0653847455978394,"307":-4.265668869018555,"308":0.013930113986134529,"309":-0.38633888959884644,"310":0.1444082409143448,"311":-0.665814220905304,"312":-0.018393341451883316,"313":0.6004325151443481,"314":0.1582392156124115,"315":0.7960892915725708,"316":-0.06164609640836716,"317":-0.3784506320953369,"318":0.3938608765602112,"319":-0.302605539560318,"320":0.1946789026260376,"321":-0.09000696986913681,"322":-0.5600906014442444,"323":-0.653132975101471,"324":0.733877420425415,"325":0.6765702962875366,"326":0.0069045135751366615,"327":-1.3957213163375854,"328":0.40480202436447144,"329":-0.9907072186470032,"330":-0.6736286282539368,"331":-0.021655604243278503,"332":-0.41800278425216675,"333":0.3765591084957123,"334":-1.0645732879638672,"335":-0.34403693675994873,"336":-0.7910381555557251,"337":0.5266702175140381,"338":-0.2663809657096863,"339":0.6393290758132935,"340":-0.9321715235710144,"341":1.147952675819397,"342":0.408733993768692,"343":1.0168815851211548,"344":-0.6185039281845093,"345":-1.1302040815353394,"346":0.22016265988349915,"347":-0.72147136926651,"348":1.5057438611984253,"349":0.28010499477386475,"350":0.8699963092803955,"351":-0.2168462723493576,"352":-0.5616584420204163,"353":0.8222284317016602,"354":-1.4106701612472534,"355":-0.4823229908943176,"356":0.30782485008239746,"357":-0.9079049229621887,"358":-1.2399935722351074,"359":-0.8272480368614197,"360":-1.2155566215515137,"361":-0.4047015905380249,"362":1.0560479164123535,"363":0.0016469900729134679,"364":-1.2151612043380737,"365":-0.20621038973331451,"366":0.2819302976131439,"367":0.38325169682502747,"368":-0.47419315576553345,"369":0.6281108260154724,"370":1.2870750427246094,"371":-0.23558206856250763,"372":-0.5986708998680115,"373":0.26571404933929443,"374":0.349483460187912,"375":0.8882357478141785,"376":1.0188851356506348,"377":-1.234017252922058,"378":-0.27338874340057373,"379":-1.2526706457138062,"380":-1.6394847631454468,"381":-1.3391871452331543,"382":1.5110769271850586,"383":1.4946523904800415,"384":-1.6790273189544678,"385":1.1135835647583008,"386":-0.013194074854254723,"387":-0.6474030017852783,"388":1.705113172531128,"389":2.258183240890503,"390":1.4899301528930664,"391":-0.3496977388858795,"392":-0.3346211016178131,"393":0.9228244423866272,"394":-1.8106913566589355,"395":0.11901482939720154,"396":1.8940072059631348,"397":-1.488572359085083,"398":-1.29381263256073,"399":-1.3949168920516968}},"forgetHidden":{"rows":20,"columns":20,"weights":{"0":-0.0667295753955841,"1":0.42183491587638855,"2":-0.1904708743095398,"3":-0.00022546228137798607,"4":-0.3979582190513611,"5":0.0070651378482580185,"6":0.2938953638076782,"7":-0.22111031413078308,"8":-0.1273907870054245,"9":0.21526524424552917,"10":-0.2568783760070801,"11":-0.06670290976762772,"12":0.3808816969394684,"13":-0.4586701989173889,"14":0.5523393750190735,"15":-0.042868077754974365,"16":0.21067839860916138,"17":0.3154352009296417,"18":0.14312903583049774,"19":0.49630239605903625,"20":-0.06809866428375244,"21":-0.006545118056237698,"22":0.2847212851047516,"23":-0.17011038959026337,"24":-0.6588990688323975,"25":-0.054715510457754135,"26":-0.1013675257563591,"27":-0.2612856924533844,"28":-0.2459905445575714,"29":-0.10061345994472504,"30":-0.6086034774780273,"31":-0.1609204113483429,"32":0.42930129170417786,"33":-0.5001529455184937,"34":0.017187705263495445,"35":0.5176597237586975,"36":-0.019446300342679024,"37":0.3035324513912201,"38":0.17723539471626282,"39":0.48331955075263977,"40":-0.0092778280377388,"41":-0.12318651378154755,"42":-0.01794847846031189,"43":0.2198137491941452,"44":-0.053898923099040985,"45":-0.018234077841043472,"46":-0.10938669741153717,"47":-0.19912633299827576,"48":-0.0728391632437706,"49":-0.14166948199272156,"50":-0.2207600623369217,"51":0.44970592856407166,"52":-0.43789243698120117,"53":0.05019436031579971,"54":0.02943343110382557,"55":0.6899930834770203,"56":-0.2570972144603729,"57":-0.08086898922920227,"58":-0.06650617718696594,"59":-0.2099279761314392,"60":0.02729739062488079,"61":0.036598704755306244,"62":0.2049657106399536,"63":-0.21326102316379547,"64":-0.5713303685188293,"65":0.12869878113269806,"66":0.21017789840698242,"67":-0.08631888031959534,"68":-0.26778683066368103,"69":0.33084574341773987,"70":0.12137480825185776,"71":0.25634244084358215,"72":0.14507438242435455,"73":-0.009763795882463455,"74":0.32995378971099854,"75":0.04775833711028099,"76":0.15454159677028656,"77":0.39748767018318176,"78":0.03918536752462387,"79":0.46258702874183655,"80":1.0552713871002197,"81":-0.027794217690825462,"82":-3.459069013595581,"83":-0.6059339046478271,"84":1.3668434619903564,"85":-2.1625478267669678,"86":0.3967801630496979,"87":1.8464781045913696,"88":1.735724687576294,"89":-1.465485692024231,"90":-4.300422191619873,"91":0.4557567238807678,"92":3.1070656776428223,"93":0.563513994216919,"94":1.1629900932312012,"95":-0.564857542514801,"96":0.41395998001098633,"97":-1.9660013914108276,"98":-0.35186731815338135,"99":1.989927053451538,"100":-0.2884804904460907,"101":0.1328282654285431,"102":-0.4434908330440521,"103":0.3111887574195862,"104":-0.20144617557525635,"105":-1.2065266370773315,"106":0.06885761022567749,"107":1.2780978679656982,"108":1.605563759803772,"109":-1.953863501548767,"110":0.36507099866867065,"111":-0.08919022977352142,"112":0.5321473479270935,"113":-0.8370578289031982,"114":-0.08854178339242935,"115":-1.8952562808990479,"116":-0.36906808614730835,"117":-1.3368116617202759,"118":-0.2035866677761078,"119":0.6579598784446716,"120":2.558917999267578,"121":1.3855699300765991,"122":-0.06304451078176498,"123":-0.7287490963935852,"124":0.12407125532627106,"125":-0.5561376214027405,"126":0.7603357434272766,"127":0.8606122136116028,"128":1.2711282968521118,"129":-1.1228083372116089,"130":3.875129461288452,"131":0.6848511695861816,"132":-0.02420992963016033,"133":0.4850907623767853,"134":0.6033940315246582,"135":0.06760020554065704,"136":0.04604431241750717,"137":-1.4108299016952515,"138":-1.4859081506729126,"139":-0.6118327379226685,"140":-0.6773386597633362,"141":-0.30051669478416443,"142":-1.1459561586380005,"143":-0.6737108826637268,"144":-0.46074575185775757,"145":-0.3304847776889801,"146":-0.5487717390060425,"147":0.15934133529663086,"148":0.310608446598053,"149":-0.490280419588089,"150":-0.021827135235071182,"151":-0.46227437257766724,"152":1.1364296674728394,"153":0.1156010776758194,"154":-0.29914477467536926,"155":-0.6948805451393127,"156":0.31165778636932373,"157":-0.2706015408039093,"158":0.20795601606369019,"159":1.517301321029663,"160":-0.17300689220428467,"161":-0.001388070872053504,"162":-1.2638777494430542,"163":-0.5496857762336731,"164":-0.532211184501648,"165":-0.6588336229324341,"166":-0.6391292214393616,"167":0.5163125991821289,"168":0.7781566977500916,"169":-0.996609628200531,"170":-0.029845617711544037,"171":-0.2286815047264099,"172":0.8288915753364563,"173":-0.7002407908439636,"174":-0.09793857485055923,"175":-1.0859737396240234,"176":-0.3065584897994995,"177":-0.6294955015182495,"178":-0.05822860077023506,"179":0.6777370572090149,"180":-0.5290868282318115,"181":-0.379233181476593,"182":-1.1020269393920898,"183":-1.752913475036621,"184":-0.004103706683963537,"185":-0.406170129776001,"186":-0.6168370246887207,"187":0.25635674595832825,"188":0.3975241482257843,"189":-0.060165733098983765,"190":-2.4810194969177246,"191":-0.38653644919395447,