{"type":"LSTM","options":{"inputSize":9,"inputRange":9,"hiddenLayers":[20,20],"outputSize":9,"decayRate":0.999,"smoothEps":1e-8,"regc":0.000001,"clipval":5,"maxPredictionLength":100,"dataFormatter":{"indexTable":{" ":0,"h":1,"e":2,"l":3,"o":4,"i":5,"stop-input":6,"start-output":7,"unrecognized":8},"characterTable":{"0":" ","1":"h","2":"e","3":"l","4":"o","5":"i","6":null,"7":null,"8":null},"values":[" hello","hi"],"characters":[" ","h","e","l","o","i","stop-input","start-output","unrecognized"],"specialIndexes":[6,7,8]}},"input":{"rows":10,"columns":9,"weights":{"0":2.1879873275756836,"1":0.6977862119674683,"2":1.931825876235962,"3":-1.8267627954483032,"4":-0.5632310509681702,"5":-2.0772147178649902,"6":2.878093719482422,"7":-0.7201911807060242,"8":-1.897886037826538,"9":2.9598262310028076,"10":2.597188949584961,"11":1.0016065835952759,"12":-4.448094367980957,"13":-0.0366625152528286,"14":0.837972104549408,"15":-1.90719735622406,"16":-2.523245334625244,"17":-4.328924179077148,"18":-0.3550914525985718,"19":1.9049737453460693,"20":2.152351140975952,"21":-1.4029861688613892,"22":-0.8681437969207764,"23":-1.0930875539779663,"24":0.7340057492256165,"25":-1.0820677280426025,"26":-4.292524814605713,"27":1.7306188344955444,"28":0.3319767117500305,"29":-4.491726875305176,"30":-1.4042816162109375,"31":0.6177566647529602,"32":0.7440146803855896,"33":1.8167133331298828,"34":-1.7708815336227417,"35":-0.45624443888664246,"36":0.4401967525482178,"37":-1.2588374614715576,"38":-3.19381046295166,"39":-0.19174903631210327,"40":0.6978854537010193,"41":1.2160288095474243,"42":0.5334253907203674,"43":0.35785752534866333,"44":-0.642304539680481,"45":0.6370720267295837,"46":-1.5916837453842163,"47":3.17488169670105,"48":-0.27856549620628357,"49":-1.190310001373291,"50":-1.7596644163131714,"51":0.656065046787262,"52":-0.1768169403076172,"53":0.31101393699645996,"54":-3.918086528778076,"55":-0.41618624329566956,"56":3.5019075870513916,"57":1.9540921449661255,"58":-2.212618589401245,"59":-0.10822279751300812,"60":-2.510714292526245,"61":0.2542573809623718,"62":1.4161150455474854,"63":0.3630894124507904,"64":-2.9836394786834717,"65":-0.877678394317627,"66":-0.17352324724197388,"67":-1.0643044710159302,"68":-0.7815635800361633,"69":-1.5033683776855469,"70":-0.28532731533050537,"71":1.7075475454330444,"72":6.042761325836182,"73":-0.24485260248184204,"74":-1.756514549255371,"75":-2.2778170108795166,"76":1.4603725671768188,"77":-0.13494835793972015,"78":1.6394729614257812,"79":-1.9122453927993774,"80":0.6317172050476074,"81":-4.4910888671875,"82":-2.5416383743286133,"83":1.3279856443405151,"84":1.2699657678604126,"85":-4.658045291900635,"86":-2.2069389820098877,"87":-2.738429546356201,"88":-0.5810815691947937,"89":0.32730597257614136}},"hiddenLayers":[{"inputMatrix":{"rows":20,"columns":9,"weights":{"0":0.40239521861076355,"1":3.248279094696045,"2":1.374280571937561,"3":-1.642941951751709,"4":1.0558488368988037,"5":-2.289978265762329,"6":0.5626959800720215,"7":-2.345646381378174,"8":-3.3276584148406982,"9":0.4923233687877655,"10":-1.6876459121704102,"11":2.482539653778076,"12":0.2050390988588333,"13":-2.931187391281128,"14":-3.1059088706970215,"15":-2.153345823287964,"16":2.0205001831054688,"17":0.7719460129737854,"18":1.8242523670196533,"19":-1.083789348602295,"20":-0.5944962501525879,"21":-2.750072956085205,"22":-0.7783564329147339,"23":-1.6525081396102905,"24":0.3649763762950897,"25":-0.30988097190856934,"26":-1.454770803451538,"27":0.5198103785514832,"28":1.392870306968689,"29":-4.328691482543945,"30":0.23238907754421234,"31":3.1783459186553955,"32":4.098574638366699,"33":3.9481451511383057,"34":-0.7009515166282654,"35":-2.086782693862915,"36":-0.3985384702682495,"37":0.3277151882648468,"38":0.6863911747932434,"39":-0.8111013770103455,"40":0.03377588838338852,"41":1.3684418201446533,"42":1.2037047147750854,"43":-3.0476343631744385,"44":-1.178768277168274,"45":-0.7872575521469116,"46":-1.0233417749404907,"47":1.4410269260406494,"48":-1.2816344499588013,"49":-1.8121157884597778,"50":-1.9224716424942017,"51":1.7796663045883179,"52":-1.9348883628845215,"53":-1.4469972848892212,"54":1.827276587486267,"55":-0.4801061749458313,"56":-0.8733012676239014,"57":-1.9410406351089478,"58":1.5567758083343506,"59":1.9898263216018677,"60":4.355707168579102,"61":0.5900684595108032,"62":-2.9244627952575684,"63":2.4225354194641113,"64":0.8299949765205383,"65":-0.6127707958221436,"66":-1.1164615154266357,"67":1.3688174486160278,"68":0.3189062476158142,"69":2.1871654987335205,"70":-0.6254557967185974,"71":-2.2404539585113525,"72":-1.762992262840271,"73":-2.721818208694458,"74":1.009361743927002,"75":1.7710493803024292,"76":-1.2703074216842651,"77":-1.4623562097549438,"78":-0.5298565626144409,"79":2.0933356285095215,"80":0.7672609686851501,"81":-1.4083232879638672,"82":0.46536654233932495,"83":0.10111968219280243,"84":-1.743817925453186,"85":-2.8682968616485596,"86":-2.187840461730957,"87":-1.3104568719863892,"88":-2.9218175411224365,"89":-1.2661429643630981,"90":0.9224581718444824,"91":-1.2460037469863892,"92":3.0065207481384277,"93":0.4966244399547577,"94":-1.405375599861145,"95":-2.9021732807159424,"96":0.1585405468940735,"97":-0.9024466276168823,"98":-0.2073225975036621,"99":1.3896172046661377,"100":2.8533997535705566,"101":-2.6625330448150635,"102":0.13718988001346588,"103":0.1712614744901657,"104":1.7245991230010986,"105":2.937026023864746,"106":-1.259555459022522,"107":-1.5109224319458008,"108":-3.8702504634857178,"109":-3.5375566482543945,"110":-2.272813558578491,"111":2.0369746685028076,"112":1.6811587810516357,"113":1.1593265533447266,"114":-1.559427261352539,"115":1.781314730644226,"116":2.8730649948120117,"117":0.3126068711280823,"118":-0.49064093828201294,"119":-1.2256144285202026,"120":0.18354015052318573,"121":3.73915433883667,"122":0.5474402904510498,"123":3.16167950630188,"124":-0.9012911915779114,"125":-0.1963306963443756,"126":3.408794641494751,"127":-0.009757975116372108,"128":0.9260478615760803,"129":-2.335541248321533,"130":-1.911104440689087,"131":-2.456777334213257,"132":-0.9593844413757324,"133":-1.9085897207260132,"134":-0.2428232729434967,"135":-3.7899551391601562,"136":-0.3660346269607544,"137":-1.3208566904067993,"138":0.32770630717277527,"139":0.9848595261573792,"140":0.19470340013504028,"141":-1.6034221649169922,"142":1.345402717590332,"143":1.3768240213394165,"144":2.014347791671753,"145":1.7548643350601196,"146":-2.1800553798675537,"147":-0.6905303597450256,"148":3.0784363746643066,"149":1.7449020147323608,"150":2.9503109455108643,"151":-1.9068986177444458,"152":-1.5049515962600708,"153":2.42909574508667,"154":-0.7201487421989441,"155":-1.5939635038375854,"156":-2.1978209018707275,"157":0.9815484881401062,"158":1.8968329429626465,"159":1.4914534091949463,"160":0.2670529782772064,"161":0.937839150428772,"162":3.447218179702759,"163":-3.3415865898132324,"164":-2.244896650314331,"165":-1.8957149982452393,"166":1.8446747064590454,"167":1.4417449235916138,"168":1.1479207277297974,"169":1.6534020900726318,"170":1.2027453184127808,"171":0.9137760996818542,"172":-0.6099689602851868,"173":1.6450352668762207,"174":1.4277050495147705,"175":-2.1097733974456787,"176":-3.1321544647216797,"177":-2.7891740798950195,"178":0.3879506587982178,"179":2.0797574520111084}},"inputHidden":{"rows":20,"columns":20,"weights":{"0":3.061575174331665,"1":-0.5946581363677979,"2":2.5516035556793213,"3":-0.985849142074585,"4":1.052276849746704,"5":-3.1064529418945312,"6":1.0141890048980713,"7":-0.35711655020713806,"8":3.4668450355529785,"9":-1.1359140872955322,"10":-0.32710522413253784,"11":-2.292358636856079,"12":-0.9535113573074341,"13":-0.8616116046905518,"14":1.3562942743301392,"15":0.03036513924598694,"16":1.307241439819336,"17":2.5102553367614746,"18":0.4424718916416168,"19":2.8350582122802734,"20":-2.5313684940338135,"21":0.23263686895370483,"22":1.02359139919281,"23":1.6730551719665527,"24":-1.922143816947937,"25":1.431824803352356,"26":-1.0502924919128418,"27":-2.8031139373779297,"28":-0.32468119263648987,"29":-0.1870681792497635,"30":4.235777854919434,"31":-1.1049678325653076,"32":1.4320785999298096,"33":0.0716162621974945,"34":-0.6517997980117798,"35":-0.752251148223877,"36":0.8249325156211853,"37":-1.1519205570220947,"38":1.600906252861023,"39":-2.310767412185669,"40":1.5085238218307495,"41":0.1521742045879364,"42":-0.3059183657169342,"43":-0.8661701679229736,"44":8.499868392944336,"45":2.861132860183716,"46":0.5848430395126343,"47":0.5587453842163086,"48":2.299895763397217,"49":-1.916114091873169,"50":-0.7659460306167603,"51":0.2957387864589691,"52":1.4811547994613647,"53":0.18847204744815826,"54":-5.87392520904541,"55":-2.54025936126709,"56":0.47183558344841003,"57":-0.13445179164409637,"58":2.6096343994140625,"59":-0.26436570286750793,"60":-0.19517828524112701,"61":0.21862703561782837,"62":-0.3723619878292084,"63":-1.3240896463394165,"64":0.8164029121398926,"65":-0.5440716743469238,"66":-0.9052883982658386,"67":-1.455958366394043,"68":-0.32650026679039,"69":1.0607826709747314,"70":-1.5090367794036865,"71":-0.11724963784217834,"72":1.550027847290039,"73":1.1843113899230957,"74":-1.7962435483932495,"75":1.4488695859909058,"76":-0.22976742684841156,"77":-0.5100252032279968,"78":-1.6233662366867065,"79":0.5939780473709106,"80":0.8963286876678467,"81":2.305903434753418,"82":-3.938377857208252,"83":-1.2945562601089478,"84":-3.6609365940093994,"85":3.4633569717407227,"86":2.6849961280822754,"87":-1.3427871465682983,"88":3.667475461959839,"89":-2.138079881668091,"90":0.10727038979530334,"91":1.402252197265625,"92":-0.8564141988754272,"93":-0.41783085465431213,"94":0.2875896692276001,"95":2.5420174598693848,"96":-0.8185025453567505,"97":2.698000192642212,"98":-2.359250068664551,"99":2.7058298587799072,"100":-2.854633331298828,"101":3.519892692565918,"102":-0.889600932598114,"103":1.8976044654846191,"104":1.431942343711853,"105":1.6501667499542236,"106":-1.890189528465271,"107":-2.6222219467163086,"108":2.701416015625,"109":-0.45233747363090515,"110":0.19531099498271942,"111":4.534720420837402,"112":4.308734893798828,"113":-0.17122626304626465,"114":-1.9243855476379395,"115":-1.9189133644104004,"116":-1.490423560142517,"117":0.11789005249738693,"118":2.7568440437316895,"119":1.1111137866973877,"120":0.08645861595869064,"121":-2.9976491928100586,"122":-2.817995309829712,"123":1.1786258220672607,"124":0.15376748144626617,"125":-0.9760550260543823,"126":-3.152005195617676,"127":-3.4151978492736816,"128":-0.4777378737926483,"129":-0.8873046636581421,"130":0.8812147378921509,"131":-2.3900370597839355,"132":-3.7491157054901123,"133":0.7530595064163208,"134":0.9950883984565735,"135":0.05367283895611763,"136":-1.8051460981369019,"137":0.883810818195343,"138":-1.540191650390625,"139":-1.3067188262939453,"140":-3.6818103790283203,"141":-3.461402416229248,"142":0.8214064240455627,"143":0.281375527381897,"144":-0.019412033259868622,"145":-0.32885921001434326,"146":-2.5454843044281006,"147":-0.008671263232827187,"148":-3.4956374168395996,"149":3.0642073154449463,"150":1.8183156251907349,"151":4.093479156494141,"152":0.7008139491081238,"153":4.55879020690918,"154":-0.5413491129875183,"155":2.12821626663208,"156":1.1537283658981323,"157":-1.952513575553894,"158":2.9021353721618652,"159":-2.5821566581726074,"160":-0.2876545488834381,"161":-0.24832899868488312,"162":5.990190505981445,"163":-1.2691594362258911,"164":-4.790709972381592,"165":-2.720895528793335,"166":3.493479013442993,"167":1.7269082069396973,"168":0.2399185448884964,"169":0.08826494961977005,"170":1.2836412191390991,"171":-3.2470595836639404,"172":1.7396259307861328,"173":2.70784068107605,"174":4.289304733276367,"175":-1.503285527229309,"176":2.6192009449005127,"177":-1.2049158811569214,"178":4.442185401916504,"179":2.1338601112365723,"180":-1.4103065729141235,"181":0.3406883776187897,"182":-0.9538758993148804,"183":2.6462044715881348,"184":1.7681012153625488,"185":0.5424038171768188,"186":0.2517297863960266,"187":-0.7629123330116272,"188":0.12720438838005066,"189":-0.6808682084083557,"190":1.9121519327163696,"191":1.2718242406845093,"192":1.3893450498580933,"193":2.487788200378418,"194":1.3793731927871704,"195":1.0942702293395996,"196":-0.5908425450325012,"197":-0.814919650554657,"198":-0.21382319927215576,"199":-1.3111424446105957,"200":-0.5477924346923828,"201":-0.49366891384124756,"202":-2.9895308017730713,"203":0.8801556825637817,"204":2.4689202308654785,"205":3.7824785709381104,"206":-0.7252550721168518,"207":-5.244845867156982,"208":0.3929581940174103,"209":-3.292424440383911,"210":1.3441928625106812,"211":1.0037915706634521,"212":-2.4633684158325195,"213":-0.8975533843040466,"214":-0.9086930155754089,"215":0.12354208528995514,"216":-1.9221420288085938,"217":-0.9420260787010193,"218":1.4373886585235596,"219":0.488004207611084,"220":-0.9730511903762817,"221":0.2260938286781311,"222":2.240582227706909,"223":-0.07878060638904572,"224":0.7676938772201538,"225":1.9082434177398682,"226":-0.4702151417732239,"227":0.47533440589904785,"228":0.730739176273346,"229":-0.5848575830459595,"230":-0.05273759365081787,"231":-0.4090626835823059,"232":-0.2688879668712616,"233":0.744360089302063,"234":-2.1536123752593994,"235":0.9567704796791077,"236":-1.3027290105819702,"237":0.005397535860538483,"238":1.1351169347763062,"239":-0.3957209885120392,"240":-0.1275407075881958,"241":-0.042024943977594376,"242":1.9816993474960327,"243":-1.367909550666809,"244":-1.5365732908248901,"245":0.46636834740638733,"246":-0.7109767198562622,"247":-0.8458836674690247,"248":-2.1759517192840576,"249":1.6207295656204224,"250":0.7605205774307251,"251":1.1285654306411743,"252":-1.0602362155914307,"253":-1.1205639839172363,"254":0.22525738179683685,"255":-0.12105914205312729,"256":1.6582567691802979,"257":-3.794435501098633,"258":-0.2881104052066803,"259":-2.335512161254883,"260":2.7912611961364746,"261":-0.5113080739974976,"262":1.7743701934814453,"263":-0.550349771976471,"264":-0.090350441634655,"265":-2.525331735610962,"266":-0.48188281059265137,"267":-2.019545555114746,"268":-2.210433006286621,"269":0.7214812636375427,"270":-0.6543519496917725,"271":-0.9120144248008728,"272":5.100928783416748,"273":-1.5302402973175049,"274":-1.40315842628479,"275":2.451097011566162,"276":3.219109058380127,"277":-2.0286519527435303,"278":-2.971644639968872,"279":-3.078282594680786,"280":-1.7931116819381714,"281":3.639434337615967,"282":1.2083899974822998,"283":0.7213538289070129,"284":1.1472108364105225,"285":1.9954067468643188,"286":-4.748988151550293,"287":-1.67033851146698,"288":-1.150614619255066,"289":-3.721830129623413,"290":3.0389413833618164,"291":-0.1082686260342598,"292":3.521416425704956,"293":1.6004868745803833,"294":-2.9166600704193115,"295":-2.1485602855682373,"296":-0.2774413526058197,"297":-0.9042191505432129,"298":-1.319008708000183,"299":0.0650886595249176,"300":0.4296373128890991,"301":0.47234708070755005,"302":-1.1985440254211426,"303":0.4631403386592865,"304":-1.5599497556686401,"305":-2.3193106651306152,"306":-1.8173682689666748,"307":-0.5240948796272278,"308":3.556030750274658,"309":-0.8579422235488892,"310":-1.999717116355896,"311":-2.2047770023345947,"312":4.507991790771484,"313":2.9131886959075928,"314":1.2263543605804443,"315":-0.4721912443637848,"316":0.24185484647750854,"317":0.022405650466680527,"318":1.2155780792236328,"319":0.37556421756744385,"320":3.418881416320801,"321":-1.0104647874832153,"322":-1.7857722043991089,"323":-1.237046480178833,"324":-1.2692234516143799,"325":-0.004704989958554506,"326":-0.20371948182582855,"327":-1.467494010925293,"328":-0.04126005619764328,"329":0.25511598587036133,"330":-1.993587851524353,"331":1.6091588735580444,"332":2.9603261947631836,"333":0.4124378561973572,"334":-0.01142196822911501,"335":1.1173850297927856,"336":-0.7497034072875977,"337":-0.9461349844932556,"338":-1.1679998636245728,"339":0.3289358615875244,"340":3.569362163543701,"341":2.6975910663604736,"342":-0.3810420036315918,"343":-0.7983975410461426,"344":3.3007023334503174,"345":2.7739250659942627,"346":0.31433749198913574,"347":-0.07948925346136093,"348":6.168939590454102,"349":-4.025346755981445,"350":-0.6547145247459412,"351":-0.4233250617980957,"352":1.0305627584457397,"353":-0.8426083922386169,"354":-0.22698262333869934,"355":-2.174415349960327,"356":-0.38159477710723877,"357":2.549370765686035,"358":1.051019310951233,"359":2.528988838195801,"360":0.2510888874530792,"361":0.7406150698661804,"362":-0.18495388329029083,"363":0.5533218383789062,"364":2.0091235637664795,"365":0.8331661224365234,"366":-1.2838294506072998,"367":-1.9264271259307861,"368":1.95289146900177,"369":-1.0219268798828125,"370":2.3905739784240723,"371":0.6225430965423584,"372":1.7145105600357056,"373":0.1273822784423828,"374":-1.5776047706604004,"375":-1.75387704372406,"376":0.38555145263671875,"377":-0.9407126307487488,"378":0.8349937200546265,"379":2.37223744392395,"380":1.3425942659378052,"381":0.2797659635543823,"382":2.3669731616973877,"383":-2.972768545150757,"384":0.18876196444034576,"385":1.997348666191101,"386":0.770623505115509,"387":-0.7524261474609375,"388":-0.534686267375946,"389":-1.1345758438110352,"390":-0.263187438249588,"391":-0.09949903935194016,"392":0.9263485074043274,"393":-2.0789685249328613,"394":-1.93958580493927,"395":-1.822981357574463,"396":1.1518326997756958,"397":-0.4641975164413452,"398":1.2763991355895996,"399":-0.011092732660472393}},"inputBias":{"rows":20,"columns":1,"weights":{"0":1.1121059656143188,"1":0.4092083275318146,"2":1.558088779449463,"3":0.7102907299995422,"4":1.0805864334106445,"5":-1.3548574447631836,"6":0.035332318395376205,"7":2.3757355213165283,"8":-0.11298701167106628,"9":1.6314537525177002,"10":-0.2512959837913513,"11":0.5086724162101746,"12":-1.1885879039764404,"13":2.3282668590545654,"14":2.068154811859131,"15":-2.32356858253479,"16":1.113478422164917,"17":0.7651157379150391,"18":-0.5391291975975037,"19":-0.08282304555177689}},"forgetMatrix":{"rows":20,"columns":9,"weights":{"0":-0.8750163316726685,"1":0.5412231683731079,"2":2.0370731353759766,"3":-0.8757349848747253,"4":-3.076094150543213,"5":-3.3231403827667236,"6":-2.17366099357605,"7":-0.7284563183784485,"8":-0.3112201988697052,"9":3.0428802967071533,"10":-0.9080267548561096,"11":-0.9906421899795532,"12":1.2632684707641602,"13":1.9377045631408691,"14":0.9853127002716064,"15":2.279412269592285,"16":3.622056722640991,"17":1.0449886322021484,"18":-0.5789570808410645,"19":0.23030120134353638,"20":2.0482406616210938,"21":-0.3624041974544525,"22":-5.362346649169922,"23":-1.4387191534042358,"24":-2.2075061798095703,"25":0.29745540022850037,"26":-0.753560483455658,"27":0.8398607969284058,"28":0.35923612117767334,"29":-0.7507762908935547,"30":1.516485571861267,"31":0.5983960032463074,"32":0.5985469818115234,"33":0.28694283962249756,"34":2.090794324874878,"35":1.2747225761413574,"36":-0.9259341359138489,"37":-2.7071309089660645,"38":-1.061944842338562,"39":1.6072241067886353,"40":-0.7823845744132996,"41":-2.710615873336792,"42":0.43506038188934326,"43":-1.7877763509750366,"44":2.0150394439697266,"45":-0.038285139948129654,"46":-1.146592140197754,"47":1.2803786993026733,"48":3.013117551803589,"49":-2.3169703483581543,"50":-2.4916532039642334,"51":-0.4768303334712982,"52":1.5364629030227661,"53":1.8569620847702026,"54":-1.3751364946365356,"55":1.3088548183441162,"56":1.423125982284546,"57":1.342175006866455,"58":-2.419102191925049,"59":-1.4361902475357056,"60":-2.1567797660827637,"61":-1.4383659362792969,"62":-0.47512105107307434,"63":1.8768236637115479,"64":-0.4923888146877289,"65":-2.2997896671295166,"66":1.6675951480865479,"67":3.698091506958008,"68":1.4055018424987793,"69":4.305489540100098,"70":0.20417140424251556,"71":1.066893458366394,"72":1.1134788990020752,"73":2.0873661041259766,"74":-1.122927188873291,"75":-3.500051736831665,"76":1.4948772192001343,"77":0.06333319842815399,"78":0.6004629135131836,"79":-2.294982671737671,"80":-2.2280328273773193,"81":-1.8391447067260742,"82":-1.7214667797088623,"83":0.9127579927444458,"84":1.841214895248413,"85":0.5202256441116333,"86":0.6889530420303345,"87":-2.5822627544403076,"88":1.5746099948883057,"89":0.4513920247554779,"90":0.0560031495988369,"91":1.076226830482483,"92":1.0972421169281006,"93":-0.46727606654167175,"94":-3.569424867630005,"95":-1.932484745979309,"96":-1.4140087366104126,"97":-2.4410455226898193,"98":-0.3607454001903534,"99":-0.8538574576377869,"100":1.2605923414230347,"101":1.6126524209976196,"102":-0.6331959962844849,"103":0.3822523057460785,"104":-0.3060595691204071,"105":-1.9232581853866577,"106":-0.4328414499759674,"107":-1.1236963272094727,"108":0.35316672921180725,"109":0.4256846308708191,"110":-1.349109172821045,"111":1.385856032371521,"112":3.1548759937286377,"113":1.3508660793304443,"114":1.242752194404602,"115":1.037644863128662,"116":-0.58477783203125,"117":0.6692285537719727,"118":-0.2547195851802826,"119":-1.499922513961792,"120":1.1089304685592651,"121":-0.40684306621551514,"122":0.4180958867073059,"123":0.4508628845214844,"124":0.10997570306062698,"125":0.5630705952644348,"126":0.2682605981826782,"127":2.357942581176758,"128":-1.7274370193481445,"129":-1.2319661378860474,"130":1.1064112186431885,"131":2.8088388442993164,"132":0.7313405275344849,"133":-2.8455588817596436,"134":0.26826170086860657,"135":3.363055944442749,"136":-1.4212087392807007,"137":0.12761421501636505,"138":1.6950000524520874,"139":0.37887561321258545,"140":0.36604562401771545,"141":0.41276296973228455,"142":3.544840097427368,"143":1.2790675163269043,"144":-1.4817980527877808,"145":0.4025401473045349,"146":2.0883889198303223,"147":-1.2377170324325562,"148":-1.345566749572754,"149":-0.38851380348205566,"150":-2.0173544883728027,"151":-0.9036164879798889,"152":-0.09352556616067886,"153":0.46842125058174133,"154":1.1938377618789673,"155":-2.354154586791992,"156":-3.3553333282470703,"157":1.5603411197662354,"158":1.770642876625061,"159":1.184506893157959,"160":-2.8657524585723877,"161":-0.43200552463531494,"162":-2.6515116691589355,"163":-2.0195209980010986,"164":0.20037274062633514,"165":-1.3663374185562134,"166":-2.526144027709961,"167":1.2787950038909912,"168":-2.7716012001037598,"169":-1.370876431465149,"170":0.09114419668912888,"171":3.5432605743408203,"172":2.2502663135528564,"173":1.334244966506958,"174":-4.9345479011535645,"175":0.25742968916893005,"176":1.2784550189971924,"177":1.418515920639038,"178":-1.241772174835205,"179":-2.1733014583587646}},"forgetHidden":{"rows":20,"columns":20,"weights":{"0":1.2217113971710205,"1":0.3232881426811218,"2":-0.6307761073112488,"3":0.07190661132335663,"4":1.041454792022705,"5":1.979028582572937,"6":0.42640095949172974,"7":-0.01003220770508051,"8":-0.0032025515101850033,"9":-1.007599115371704,"10":-0.4981032907962799,"11":2.0551493167877197,"12":-1.2774999141693115,"13":2.448779344558716,"14":1.476699709892273,"15":1.1584144830703735,"16":-1.8080146312713623,"17":-0.4041021764278412,"18":0.6223229765892029,"19":2.676769495010376,"20":-0.7298078536987305,"21":2.383037567138672,"22":0.25043222308158875,"23":-1.0314249992370605,"24":0.21296784281730652,"25":1.514332890510559,"26":-1.1831939220428467,"27":0.628139853477478,"28":2.679121732711792,"29":-0.5349025726318359,"30":0.8455042243003845,"31":-0.11917772144079208,"32":-1.1626393795013428,"33":0.3660997152328491,"34":1.5732446908950806,"35":0.22032076120376587,"36":0.6484189033508301,"37":-1.8893147706985474,"38":-0.5670468807220459,"39":1.7702770233154297,"40":-1.375588297843933,"41":-0.4269280433654785,"42":-4.7038116455078125,"43":1.9294766187667847,"44":3.8775835037231445,"45":4.2205891609191895,"46":-1.0445237159729004,"47":-1.5926812887191772,"48":-0.4187585413455963,"49":-3.189568042755127,"50":0.5163225531578064,"51":0.33102959394454956,"52":-0.162338525056839,"53":1.6755752563476562,"54":-0.7259650230407715,"55":-0.5309644341468811,"56":-2.9638426303863525,"57":2.2062604427337646,"58":-2.2244656085968018,"59":1.190298318862915,"60":-0.7546707391738892,"61":-0.17238643765449524,"62":1.8601911067962646,"63":1.962760329246521,"64":0.42836448550224304,"65":-0.8631487488746643,"66":-1.7276637554168701,"67":-1.6541002988815308,"68":-1.2153468132019043,"69":1.647579550743103,"70":-1.1391271352767944,"71":-0.017985684797167778,"72":-0.4529699981212616,"73":0.3385249376296997,"74":-0.47954994440078735,"75":0.24763943254947662,"76":2.7809247970581055,"77":-4.010260581970215,"78":-1.4126909971237183,"79":-1.7175730466842651,"80":1.5293471813201904,"81":-0.6444674730300903,"82":-0.7585470676422119,"83":-0.2984110713005066,"84":3.1529343128204346,"85":3.8004250526428223,"86":2.0399973392486572,"87":-1.5225590467453003,"88":-2.3120763301849365,"89":-2.394747018814087,"90":-1.2729321718215942,"91":-0.6660841703414917,"92":-3.136363983154297,"93":4.99910831451416,"94":-1.132265329360962,"95":-1.3226995468139648,"96":-4.374055862426758,"97":3.218745231628418,"98":1.996470332145691,"99":1.2613623142242432,"100":-2.348210573196411,"101":-2.7885653972625732,"102":1.4653066396713257,"103":-1.1115119457244873,"104":-1.2201008796691895,"105":-0.49393561482429504,"106":0.4690490961074829,"107":2.9842605590820312,"108":-2.8403189182281494,"109":2.738743782043457,"110":1.6558032035827637,"111":1.163289189338684,"112":-2.847956418991089,"113":-3.481811761856079,"114":0.007687902543693781,"115":1.249788761138916,"116":2.002086877822876,"117":-3.8152284622192383,"118":0.4187644124031067,"119":-1.210615634918213,"120":-2.884791612625122,"121":-0.8758848905563354,"122":1.075956106185913,"123":-1.556381344795227,"124":-2.85246205329895,"125":1.0266332626342773,"126":0.9241267442703247,"127":-0.3151155412197113,"128":-1.5062183141708374,"129":0.38084733486175537,"130":2.8607592582702637,"131":0.16086316108703613,"132":-2.6251697540283203,"133":-0.7554276585578918,"134":-1.9101898670196533,"135":2.0599489212036133,"136":2.485536575317383,"137":-3.2536535263061523,"138":-2.6551852226257324,"139":-2.2752933502197266,"140":-1.446502923965454,"141":1.5780365467071533,"142":-1.1960781812667847,"143":-1.2179478406906128,"144":-0.7773204445838928,"145":-0.4190714955329895,"146":0.04804403334856033,"147":1.5728213787078857,"148":-1.4082200527191162,"149":-0.1751217544078827,"150":-0.5343778729438782,"151":-2.865436315536499,"152":0.49988695979118347,"153":0.10994474589824677,"154":0.6289010047912598,"155":0.6395589709281921,"156":-0.7299216389656067,"157":-0.5835253000259399,"158":2.448514223098755,"159":-0.7872713208198547,"160":0.488898903131485,"161":1.6759977340698242,"162":3.259538173675537,"163":0.3026665151119232,"164":-1.2119561433792114,"165":-2.675302743911743,"166":-1.8427430391311646,"167":1.1974172592163086,"168":-0.39326947927474976,"169":-0.3601158857345581,"170":0.9928064942359924,"171":1.3780182600021362,"172":2.95571231842041,"173":-0.9239916205406189,"174":-1.0656452178955078,"175":0.8044857978820801,"176":2.8275842666625977,"177":-0.3059896230697632,"178":-0.4760551154613495,"179":-0.565227746963501,"180":-0.5056908130645752,"181":-1.280444860458374,"182":-3.179636240005493,"183":0.07795748859643936,"184":0.6983172297477722,"185":2.1070117950439453,"186":0.0475706122815609,"187":0.1943783313035965,"188":-1.214475393295288,"189":-0.5528568029403687,"190":-2.606443405151367,"191":0.7399043440818787,"192":0.8904221057891846,"193":1.322762370109558,"194":-2.6027166843414307,"195":-2.990842342376709,"196":-1.6582378149032593,"197":0.2245350033044815,"198":0.5734283328056335,"199":-1.5089014768600464,"200":1.561737060546875,"201":-1.7346031665802002,"202":-0.14212477207183838,"203":0.5546899437904358,"204":1.0723204612731934,"205":0.8754907846450806,"206":-0.8856491446495056,"207":-1.0316509008407593,"208":-2.8372445106506348,"209":-0.4502386450767517,"210":-0.5310564637184143,"211":0.9682288765907288,"212":-4.13250207901001,"213":-1.1490956544876099,"214":-1.28348970413208,"215":4.061110973358154,"216":-3.393343448638916,"217":1.1117078065872192,"218":0.3421187698841095,"219":-1.605318546295166,"220":-1.30076003074646,"221":0.11539997905492783,"222":1.388677716255188,"223":0.05651582032442093,"224":-1.8629411458969116,"225":0.028969701379537582,"226":-0.1543847918510437,"227":0.12559089064598083,"228":0.16372787952423096,"229":1.0496108531951904,"230":0.8829792737960815,"231":-0.1366058886051178,"232":0.7520793080329895,"233":-0.9854313731193542,"234":0.4641716778278351,"235":1.1384609937667847,"236":1.2626771926879883,"237":-1.314688801765442,"238":-0.6789935231208801,"239":-0.7038291692733765,"240":-3.205502510070801,"241":-0.6227032542228699,"242":0.10007229447364807,"243":0.42832866311073303,"244":-2.0661351680755615,"245":-4.240601539611816,"246":1.0774202346801758,"247":-1.3113957643508911,"248":-0.40512004494667053,"249":4.051477432250977,"250":2.350024700164795,"251":-1.846726655960083,"252":-1.4681384563446045,"253":2.802689552307129,"254":0.7069709300994873,"255":1.1769709587097168,"256":1.6977579593658447,"257":-1.1414633989334106,"258":1.0794434547424316,"259":-4.017816066741943,"260":-0.11405450850725174,"261":0.7475123405456543,"262":4.029134273529053,"263":-0.19297948479652405,"264":0.8402495980262756,"265":-1.429010272026062,"266":-0.375707745552063,"267":-0.6554083824157715,"268":1.4373455047607422,"269":-0.9044872522354126,"270":-0.06951112300157547,"271":2.9084861278533936,"272":-0.26909956336021423,"273":-2.988008737564087,"274":-3.3788070678710938,"275":-1.9813718795776367,"276":1.5198326110839844,"277":-1.623223900794983,"278":-1.2169671058654785,"279":0.6429339647293091,"280":-0.3017030358314514,"281":-0.23026365041732788,"282":0.5420438051223755,"283":1.528455138206482,"284":-1.3633027076721191,"285":0.3258764445781708,"286":-1.4359885454177856,"287":-1.1918147802352905,"288":-0.31133586168289185,"289":3.2435989379882812,"290":2.1937379837036133,"291":1.7016220092773438,"292":2.2958319187164307,"293":-0.5843432545661926,"294":-1.4290214776992798,"295":0.8984410762786865,"296":2.1530728340148926,"297":-2.543631076812744,"298":-1.476115107536316,"299":-2.008049249649048,"300":-0.1732688844203949,"301":1.2220191955566406,"302":0.9082276225090027,"303":-0.7176893949508667,"304":-3.052649736404419,"305":-1.408158302307129,"306":-1.3046268224716187,"307":0.4561050236225128,"308":0.0682772696018219,"309":1.2560312747955322,"310":2.313850164413452,"311":0.11958402395248413,"312":-0.30100589990615845,"313":1.9464067220687866,"314":-2.815370559692383,"315":0.07872995734214783,"316":2.716216564178467,"317":-1.1197559833526611,"318":-0.39839860796928406,"319":-1.3167001008987427,"320":-0.7773907780647278,"321":-1.4043846130371094,"322":-3.340322971343994,"323":-0.19467361271381378,"324":-0.4143485724925995,"325":0.537970781326294,"326":4.079420566558838,"327":0.1561272144317627,"328":-2.110229015350342,"329":2.908925771713257,"330":0.635759711265564,"331":-0.052252449095249176,"332":-3.5793559551239014,"333":2.5700390338897705,"334":1.8143670558929443,"335":2.7556161880493164,"336":-0.680946946144104,"337":0.0959085077047348,"338":0.9996289610862732,"339":-1.1731199026107788,"340":-0.6864773631095886,"341":-2.3350088596343994,"342":-1.733988642692566,"343":0.21330766379833221,"344":0.3916322886943817,"345":-1.3874874114990234,"346":3.0745184421539307,"347":2.775261163711548,"348":-2.3569610118865967,"349":1.413975715637207,"350":0.40950408577919006,"351":-1.0819132328033447,"352":-3.4063496589660645,"353":0.34784016013145447,"354":0.6084217429161072,"355":0.6570708155632019,"356":0.18069523572921753,"357":0.1095564216375351,"358":-0.6576563715934753,"359":0.24179279804229736,"360":-0.48875781893730164,"361":-1.957445740699768,"362":-0.5965083837509155,"363":1.5843374729156494,"364":-1.0051531791687012,"365":0.16503240168094635,"366":0.7510015368461609,"367":0.9650160074234009,"368":0.28695759177207947,"369":0.03903494402766228,"370":1.501427412033081,"371":2.037965774536133,"372":1.658933162689209,"373":2.00626540184021,"374":0.16382750868797302,"375":0.2734743356704712,"376":0.3288584351539612,"377":-0.1901184320449829,"378":-1.467341423034668,"379":0.12089965492486954,"380":-2.583242177963257,"381":-2.2932419776916504,"382":2.227184295654297,"383":1.2143155336380005,"384":3.536620855331421,"385":-2.7706081867218018,"386":-0.14538045227527618,"387":1.4870232343673706,"388":-1.4795290231704712,"389":0.82778400182724,"390":0.898148238658905,"391":-0.1980428695678711,"392":-2.219459295272827,"393":0.4742710590362549,"394":1.74478018283844,"395":0.3557933568954468,"396":-0.7395740747451782,"397":-1.973605751991272,"398":-1.979838252067566,"399":1.8663513660430908}},"forgetBias":{"rows":20,"columns":1,"weights":{"0":0,"1":0,"2":0,"3":0,"4":0,"5":0,"6":0,"7":0,"8":0,"9":0,"10":0,"11":0,"12":0,"13":0,"14":0,"15":0,"16":0,"17":0,"18":0,"19":0}},"outputMatrix":{"rows":20,"columns":9,"weights":{"0":0.026210030540823936,"1":3.0461387634277344,"2":-0.021674014627933502,"3":-0.35558852553367615,"4":-0.7648743987083435,"5":1.0857652425765991,"6":0.5114253759384155,"7":-0.7189359664916992,"8":-2.630488634109497,"9":0.9741951823234558,"10":-4.1342878341674805,"11":3.048126220703125,"12":2.9764959812164307,"13":-1.4970057010650635,"14":-1.7635092735290527,"15":-2.552182674407959,"16":3.964966058731079,"17":3.2205557823181152,"18":0.5644535422325134,"19":-1.2262767553329468,"20":1.8027878999710083,"21":-0.4211104214191437,"22":0.4209257662296295,"23":-1.6940759420394897,"24":0.06568845361471176,"25":-1.906467080116272,"26":-0.9387145042419434,"27":0.29424935579299927,"28":-1.5662342309951782,"29":0.724068284034729,"30":3.031280279159546,"31":1.9522790908813477,"32":0.6334906220436096,"33":0.04972011223435402,"34":0.5493446588516235,"35":2.3194215297698975,"36":-4.257225036621094,"37":0.020358391106128693,"38":-0.325039267539978,"39":-0.5247719883918762,"40":-2.933344841003418,"41":-0.28699547052383423,"42":-1.7793915271759033,"43":-2.0773966312408447,"44":-1.2437949180603027,"45":-1.5590934753417969,"46":3.345181703567505,"47":0.924906849861145,"48":-1.116786003112793,"49":-1.6442310810089111,"50":-1.0826014280319214,"51":-1.5675557851791382,"52":-1.2567057609558105,"53":-3.4843006134033203,"54":0.3427497148513794,"55":-0.6882954835891724,"56":0.3694116175174713,"57":1.636743426322937,"58":0.851712167263031,"59":1.523878812789917,"60":2.2268073558807373,"61":3.4779019355773926,"62":-3.5737011432647705,"63":4.277439594268799,"64":0.04553692415356636,"65":1.039553165435791,"66":-1.1727091073989868,"67":-1.1159192323684692,"68":0.1461343914270401,"69":0.5252701044082642,"70":0.5878146886825562,"71":-1.7062309980392456,"72":-2.432499647140503,"73":1.4808552265167236,"74":1.7855780124664307,"75":-2.9267187118530273,"76":-0.918518602848053,"77":-1.2471482753753662,"78":0.6032315492630005,"79":-3.7390098571777344,"80":-4.179928779602051,"81":-4.448508262634277,"82":3.8299953937530518,"83":1.5651179552078247,"84":-1.2156190872192383,"85":-2.405453681945801,"86":-0.3272392749786377,"87":-1.3651149272918701,"88":-3.262147903442383,"89":-3.022228956222534,"90":-3.6264562606811523,"91":-1.0965646505355835,"92":2.728736639022827,"93":2.5648345947265625,"94":0.8185523748397827,"95":-0.023390067741274834,"96":1.3175245523452759,"97":-0.12965399026870728,"98":-1.146037220954895,"99":1.643275499343872,"100":1.8758641481399536,"101":-1.9211722612380981,"102":-0.5315244793891907,"103":1.5214325189590454,"104":2.0819616317749023,"105":3.9694221019744873,"106":-2.226250171661377,"107":-2.611370801925659,"108":-2.5513577461242676,"109":-0.21288074553012848,"110":0.3594449758529663,"111":-0.3585952818393707,"112":-3.351052761077881,"113":-2.227517604827881,"114":-4.556036472320557,"115":-0.5483097434043884,"116":-0.25020304322242737,"117":-0.11211896687746048,"118":-0.22358156740665436,"119":1.053489327430725,"120":3.0361711978912354,"121":-0.06847414374351501,"122":0.4910571873188019,"123":-4.016867637634277,"124":1.6585614681243896,"125":-0.48702916502952576,"126":6.295380115509033,"127":-1.5128724575042725,"128":-1.1690276861190796,"129":0.06664188206195831,"130":-0.6652705073356628,"131":-2.147862434387207,"132":0.11853998154401779,"133":2.697037696838379,"134":0.7351334095001221,"135":-0.5761439204216003,"136":4.502936363220215,"137":1.0712567567825317,"138":-6.173903465270996,"139":-0.6625347137451172,"140":1.3462680578231812,"141":-1.0709691047668457,"142":-2.8972318172454834,"143":-4.818315029144287,"144":1.352431058883667,"145":1.8793977499008179,"146":-2.366791009902954,"147":-2.7180604934692383,"148":3.9337050914764404,"149":3.2269139289855957,"150":3.994793176651001,"151":-3.595224142074585,"152":-1.2829477787017822,"153":-0.5036652088165283,"154":0.5556696057319641,"155":-2.342971086502075,"156":0.3740551769733429,"157":2.6030120849609375,"158":2.63529109954834,"159":3.942351818084717,"160":0.31553491950035095,"161":0.39383822679519653,"162":-1.316706657409668,"163":-2.9619572162628174,"164":0.4172210991382599,"165":0.7427884936332703,"166":0.4381144046783447,"167":0.04942070692777634,"168":-2.503814220428467,"169":0.912476122379303,"170":1.5711408853530884,"171":-4.043336391448975,"172":1.948181390762329,"173":0.2669176459312439,"174":-0.3437329828739166,"175":1.0007768869400024,"176":1.889012336730957,"177":-1.258405327796936,"178":-3.5046958923339844,"179":-1.8213047981262207}},"outputHidden":{"rows":20,"columns":20,"weights":{"0":3.832211494445801,"1":2.663886785507202,"2":0.602480947971344,"3":-2.4391345977783203,"4":1.634010910987854,"5":1.491214394569397,"6":1.992470622062683,"7":-0.5770571231842041,"8":-0.1450277417898178,"9":-5.5636725425720215,"10":-1.837348222732544,"11":-0.510670006275177,"12":-2.2502999305725098,"13":-3.964082717895508,"14":-0.57684326171875,"15":-1.214665412902832,"16":-0.84677654504776,"17":0.9673604369163513,"18":0.49547556042671204,"19":3.582688808441162,"20":1.7701482772827148,"21":0.27165088057518005,"22":-0.39905571937561035,"23":-3.1094810962677,"24":-1.6150753498077393,"25":-1.0648657083511353,"26":0.9526224136352539,"27":1.780218243598938,"28":1.045725703239441,"29":1.086601972579956,"30":0.574977695941925,"31":-2.0746068954467773,"32":1.714394450187683,"33":2.369382858276367,"34":1.8638373613357544,"35":1.7228882312774658,"36":0.0776699036359787,"37":-0.6133884191513062,"38":4.393850803375244,"39":0.2186131328344345,"40":0.3165721893310547,"41":3.006990909576416,"42":-1.0633585453033447,"43":2.584191083908081,"44":4.887047290802002,"45":2.9627108573913574,"46":-3.9311344623565674,"47":3.352846145629883,"48":5.15872049331665,"49":-2.402181386947632,"50":3.690183639526367,"51":0.9821096658706665,"52":-2.0493810176849365,"53":3.8120834827423096,"54":-1.5144093036651611,"55":-2.908823251724243,"56":-1.096591591835022,"57":1.5679274797439575,"58":-1.6440728902816772,"59":0.8441635370254517,"60":-0.1817825585603714,"61":-0.6024591326713562,"62":-2.4076969623565674,"63":1.1111061573028564,"64":1.6617989540100098,"65":0.48860904574394226,"66":0.9978769421577454,"67":-0.7423244118690491,"68":-2.1807260513305664,"69":0.3298869729042053,"70":2.493995428085327,"71":1.1781833171844482,"72":3.172560930252075,"73":-0.024248016998171806,"74":-0.9157711863517761,"75":-0.08021698147058487,"76":-1.3876492977142334,"77":0.7281874418258667,"78":-0.10586880147457123,"79":-2.5592987537384033,"80":0.5927143692970276,"81":0.7372267842292786,"82":-2.0462324619293213,"83":-2.129286527633667,"84":5.885610580444336,"85":2.453707695007324,"86":0.5048145651817322,"87":-2.341310739517212,"88":2.3030102252960205,"89":-1.7193282842636108,"90":1.299180030822754,"91":0.5259354114532471,"92":-2.413783311843872,"93":1.557997703552246,"94":1.8510302305221558,"95":-2.672222137451172,"96":-2.1045312881469727,"97":-0.7915667295455933,"98":1.1733113527297974,"99":2.217644214630127,"100":-2.9855895042419434,"101":4.761595726013184,"102":-4.319559574127197,"103":-1.2704148292541504,"104":0.748100757598877,"105":0.5650036931037903,"106":-1.8452335596084595,"107":-3.867279529571533,"108":-4.21666955947876,"109":-0.8912451863288879,"110":-1.1414721012115479,"111":3.043728828430176,"112":3.456268072128296,"113":-0.05894911661744118,"114":-0.4299439787864685,"115":-1.8423024415969849,"116":-1.125585913658142,"117":-1.8406988382339478,"118":3.3508119583129883,"119":1.5140879154205322,"120":-2.5989389419555664,"121":-3.366274833679199,"122":-3.955235481262207,"123":0.30106449127197266,"124":-1.2384021282196045,"125":-1.8527109622955322,"126":-4.990386009216309,"127":-2.8355636596679688,"128":-4.746212482452393,"129":0.938902735710144,"130":-0.14991825819015503,"131":2.255225419998169,"132":-0.8187863826751709,"133":1.6702221632003784,"134":-2.547759771347046,"135":-1.4145429134368896,"136":-1.7702770233154297,"137":0.19421802461147308,"138":-2.509946346282959,"139":-4.1296000480651855,"140":0.9925491809844971,"141":-1.8342077732086182,"142":1.201368808746338,"143":-2.498910427093506,"144":2.4961812496185303,"145":0.9439476132392883,"146":0.7664381861686707,"147":0.8371696472167969,"148":2.3433589935302734,"149":-2.7059974670410156,"150":-1.7282825708389282,"151":0.8778519630432129,"152":-0.5578113794326782,"153":1.6551481485366821,"154":0.3110389709472656,"155":-2.269596815109253,"156":-2.8849644660949707,"157":2.964362621307373,"158":1.4662871360778809,"159":3.9123220443725586,"160":-2.4639339447021484,"161":-2.3141837120056152,"162":1.2349190711975098,"163":-1.0637969970703125,"164":-3.413869857788086,"165":-2.466064929962158,"166":3.992475986480713,"167":-0.33732470870018005,"168":-2.3327207565307617,"169":3.382337808609009,"170":1.2454452514648438,"171":0.6743970513343811,"172":-1.8282347917556763,"173":1.9699705839157104,"174":2.7242560386657715,"175":-0.5069980025291443,"176":-1.1207971572875977,"177":1.8395617008209229,"178":3.0143725872039795,"179":-3.908698797225952,"180":-0.5030770301818848,"181":-1.8324267864227295,"182":-3.6302192211151123,"183":0.9482563734054565,"184":-0.46753638982772827,"185":1.6925480365753174,"186":-1.9346330165863037,"187":-1.3840830326080322,"188":-1.0172991752624512,"189":-0.30036550760269165,"190":0.3406393826007843,"191":2.1824162006378174,"192":1.5786142349243164,"193":1.6621543169021606,"194":1.7466747760772705,"195":1.0970885753631592,"196":-2.017632007598877,"197":1.182374119758606,"198":-0.22576217353343964,"199":-1.7856897115707397,"200":-0.6729921698570251,"201":-0.8576090335845947,"202":0.24368515610694885,"203":0.8174309730529785,"204":1.1304599046707153,"205":2.730574369430542,"206":1.411219596862793,"207":0.648600697517395,"208":-0.768733561038971,"209":-1.845481038093567,"210":-4.6795268058776855,"211":-0.8865439295768738,"212":-0.5994625091552734,"213":1.793657660484314,"214":0.033482883125543594,"215":-3.9068331718444824,"216":-3.617417335510254,"217":3.572305917739868,"218":1.5810574293136597,"219":1.7837542295455933,"220":2.0564703941345215,"221":-1.2530193328857422,"222":1.7173340320587158,"223":-1.416509985923767,"224":-0.7326343059539795,"225":2.4599111080169678,"226":-0.7110929489135742,"227":0.9967756867408752,"228":-0.3891841471195221,"229":1.5517892837524414,"230":0.26608550548553467,"231":1.5465906858444214,"232":-0.8304449319839478,"233":0.43679532408714294,"234":0.10700485855340958,"235":2.215092658996582,"236":-1.4420149326324463,"237":0.927820086479187,"238":0.6453512907028198,"239":0.8488509654998779,"240":-0.554547131061554,"241":0.20134246349334717,"242":2.5506720542907715,"243":-2.865827798843384,"244":-1.1910715103149414,"245":-0.8770889639854431,"246":1.8968043327331543,"247":0.08295077085494995,"248":0.9782808423042297,"249":2.6044445037841797,"250":1.357056975364685,"251":0.39451560378074646,"252":-5.002557277679443,"253":-0.13473312556743622,"254":1.4258276224136353,"255":0.624679684638977,"256":2.219982147216797,"257":-3.874886989593506,"258":1.8279410600662231,"259":0.3370454013347626,"260":1.5653278827667236,"261":3.1981360912323,"262":3.781123161315918,"263":-0.3845938444137573,"264":-1.9921432733535767,"265":-3.380516767501831,"266":-2.8623337745666504,"267":-3.683044910430908,"268":0.13214793801307678,"269":-0.08608146011829376,"270":-0.40957769751548767,"271":2.5981836318969727,"272":4.022571086883545,"273":-2.6269688606262207,"274":-4.481072902679443,"275":-0.27394235134124756,"276":4.051235198974609,"277":-3.813310384750366,"278":-1.836376667022705,"279":-0.39333248138427734,"280":-0.7567467093467712,"281":2.1570780277252197,"282":3.882014036178589,"283":-2.5355613231658936,"284":5.016186714172363,"285":-0.8157669901847839,"286":-2.125680923461914,"287":3.7191226482391357,"288":-1.7457900047302246,"289":-0.4873257875442505,"290":1.4958611726760864,"291":2.9591190814971924,"292":2.5036346912384033,"293":-1.1743042469024658,"294":-3.3082618713378906,"295":-0.6273564100265503,"296":3.510441541671753,"297":-4.081681728363037,"298":-0.09182841330766678,"299":-1.733998417854309,"300":1.3620333671569824,"301":2.7636501789093018,"302":-0.722665011882782,"303":1.0080853700637817,"304":-0.9031972885131836,"305":-2.399454355239868,"306":-0.46470504999160767,"307":-1.8716672658920288,"308":-0.6950919032096863,"309":-1.463030219078064,"310":-2.9371676445007324,"311":0.9972341656684875,"312":-1.0171482563018799,"313":1.3068230152130127,"314":1.1635066270828247,"315":-1.3679578304290771,"316":-0.4294058084487915,"317":0.9191343784332275,"318":0.9400208592414856,"319":0.4560573697090149,"320":-0.6271033883094788,"321":-0.9108216762542725,"322":-0.32835426926612854,"323":0.6404885053634644,"324":-1.4544264078140259,"325":-2.6373589038848877,"326":0.9118499159812927,"327":0.1373821347951889,"328":1.5003196001052856,"329":1.8828353881835938,"330":1.4213939905166626,"331":1.3294306993484497,"332":-1.1225272417068481,"333":0.010238325223326683,"334":0.85512375831604,"335":0.5185124278068542,"336":-0.5490994453430176,"337":0.2813671827316284,"338":-2.450005292892456,"339":-0.38281354308128357,"340":-0.01866992563009262,"341":1.4599814414978027,"342":-0.1543484628200531,"343":-1.6038789749145508,"344":1.9242444038391113,"345":3.269987106323242,"346":0.48314282298088074,"347":4.123188495635986,"348":3.070861339569092,"349":-3.473499298095703,"350":-1.9796171188354492,"351":2.689030170440674,"352":1.674619436264038,"353":0.23612812161445618,"354":-0.9088560342788696,"355":-5.021359443664551,"356":-0.5168182849884033,"357":3.864487409591675,"358":2.7346014976501465,"359":2.439314603805542,"360":-0.12920525670051575,"361":0.9286356568336487,"362":0.33090487122535706,"363":1.0359309911727905,"364":0.8323361873626709,"365":0.27671125531196594,"366":-2.840446710586548,"367":-0.9330264329910278,"368":0.6964620351791382,"369":-1.9030051231384277,"370":1.0510865449905396,"371":2.1664459705352783,"372":3.9116570949554443,"373":-2.083590507507324,"374":-2.9732513427734375,"375":-2.0255463123321533,"376":-0.3130525052547455,"377":-1.17058265209198,"378":0.9273631572723389,"379":2.674299716949463,"380":1.0506263971328735,"381":1.0635756254196167,"382":-1.358130931854248,"383":-2.877310037612915,"384":0.9936494827270508,"385":4.121136665344238,"386":-1.3405476808547974,"387":-1.7768412828445435,"388":0.18345583975315094,"389":-2.728032350540161,"390":0.39988037943840027,"391":2.8953540325164795,"392":1.4450792074203491,"393":-2.8772523403167725,"394":1.8978129625320435,"395":-3.117949962615967,"396":-2.134420394897461,"397":1.1403684616088867,"398":1.6734158992767334,"399":1.5918339490890503}},"outputBias":{"rows":20,"columns":1,"weights":{"0":1.351060152053833,"1":0.2969878911972046,"2":1.4442704916000366,"3":0.45392242074012756,"4":0.5070878863334656,"5":-1.4186559915542603,"6":0.42525941133499146,"7":3.41479754447937,"8":1.0142282247543335,"9":1.5174463987350464,"10":-2.7690885066986084,"11":0.12231995910406113,"12":0.02239946648478508,"13":0.21265076100826263,"14":4.470902919769287,"15":-1.1159063577651978,"16":-0.7449187636375427,"17":-1.0269960165023804,"18":-0.5578759908676147,"19":-0.17140106856822968}},"cellActivationMatrix":{"rows":20,"columns":9,"weights":{"0":-1.3956116437911987,"1":-0.3898119628429413,"2":-1.3796905279159546,"3":1.9902269840240479,"4":0.9911022782325745,"5":0.7435966730117798,"6":1.4998595714569092,"7":0.9235520362854004,"8":0.9805129170417786,"9":-1.6735597848892212,"10":-0.059765156358480453,"11":-0.7764458656311035,"12":-1.5915998220443726,"13":-1.2211180925369263,"14":-0.7795334458351135,"15":-3.9832658767700195,"16":0.583882749080658,"17":-1.3582589626312256,"18":-1.8738070726394653,"19":-1.8010985851287842,"20":1.44911789894104,"21":1.7994773387908936,"22":0.049305565655231476,"23":-0.21378225088119507,"24":-1.5388200283050537,"25":2.239595651626587,"26":2.3681373596191406,"27":1.1934924125671387,"28":-0.7676295638084412,"29":0.1440940797328949,"30":0.6293173432350159,"31":1.2110295295715332,"32":-0.5916780233383179,"33":0.02589995600283146,"34":1.5737969875335693,"35":1.1578081846237183,"36":-4.074976921081543,"37":1.4543894529342651,"38":1.1542210578918457,"39":0.6017553210258484,"40":-0.9197604656219482,"41":-1.4372971057891846,"42":-2.209752321243286,"43":-1.2133196592330933,"44":-0.8393268585205078,"45":-1.827488660812378,"46":1.733154058456421,"47":0.8914749026298523,"48":-1.3168251514434814,"49":-2.5132064819335938,"50":-0.6197738647460938,"51":-1.1424920558929443,"52":-3.879865884780884,"53":-3.2485666275024414,"54":-0.8509941697120667,"55":-0.2642533779144287,"56":-3.56950044631958,"57":0.23812302947044373,"58":2.0145275592803955,"59":3.6612017154693604,"60":2.544741630554199,"61":-0.3691236972808838,"62":0.056354131549596786,"63":-3.1491265296936035,"64":0.41909751296043396,"65":-1.3120555877685547,"66":2.7772507667541504,"67":0.46856066584587097,"68":2.874615430831909,"69":-0.9077392816543579,"70":1.3642058372497559,"71":1.5132170915603638,"72":-3.5792672634124756,"73":-0.12076851725578308,"74":-1.077133297920227,"75":1.7815301418304443,"76":0.7649339437484741,"77":1.6231924295425415,"78":-0.5611028075218201,"79":0.27996277809143066,"80":2.2589774131774902,"81":2.5227644443511963,"82":-0.1490887850522995,"83":-1.6909725666046143,"84":-0.2200997769832611,"85":1.8195358514785767,"86":2.504754066467285,"87":-1.8483381271362305,"88":-0.05908431112766266,"89":-0.3605193793773651,"90":0.39111945033073425,"91":0.22716517746448517,"92":2.7196059226989746,"93":-1.1312942504882812,"94":-3.365297555923462,"95":-1.159505009651184,"96":-1.6536667346954346,"97":0.7209441065788269,"98":0.2614660859107971,"99":-2.5496599674224854,"100":3.0894076824188232,"101":1.8944569826126099,"102":-2.805300712585449,"103":-1.3689274787902832,"104":-1.7625938653945923,"105":-1.6703789234161377,"106":-2.891798257827759,"107":-1.3091769218444824,"108":-0.8373066782951355,"109":2.2003917694091797,"110":-1.6483389139175415,"111":-1.8192033767700195,"112":0.8059226274490356,"113":0.5740516781806946,"114":0.8178303837776184,"115":-1.879447102546692,"116":-2.009239435195923,"117":0.8264482021331787,"118":1.1228148937225342,"119":-0.9721022844314575,"120":-3.0777440071105957,"121":-0.36783817410469055,"122":0.6747727394104004,"123":0.9756776690483093,"124":-2.054281711578369,"125":-1.9147132635116577,"126":-0.8735905289649963,"127":1.5467047691345215,"128":-0.9893916249275208,"129":-1.031732201576233,"130":2.7473933696746826,"131":5.559218406677246,"132":2.579658269882202,"133":-0.9560369849205017,"134":0.10480962693691254,"135":0.7008968591690063,"136":-1.892286777496338,"137":-1.5186669826507568,"138":-0.8194193840026855,"139":2.374960422515869,"140":2.925501823425293,"141":1.3999027013778687,"142":1.7542850971221924,"143":0.1373869627714157,"144":0.300600528717041,"145":-1.623558521270752,"146":2.1028175354003906,"147":3.006443500518799,"148":-1.82559335231781,"149":-1.2342110872268677,"150":-2.2269060611724854,"151":2.693277359008789,"152":0.6377857327461243,"153":0.4403690993785858,"154":1.827612042427063,"155":-0.8541763424873352,"156":2.1712863445281982,"157":3.132519245147705,"158":2.531550645828247,"159":3.7081539630889893,"160":-0.21680496633052826,"161":3.393655300140381,"162":-1.1947904825210571,"163":-1.2106819152832031,"164":-2.665414810180664,"165":-0.17326733469963074,"166":2.0610971450805664,"167":3.4546587467193604,"168":0.2750460207462311,"169":-0.7684460282325745,"170":0.9402181506156921,"171":-4.684872150421143,"172":-0.9540642499923706,"173":-1.735575556755066,"174":0.16405890882015228,"175":-0.9044519662857056,"176":-0.8855193257331848,"177":2.2772133350372314,"178":-2.387909173965454,"179":2.4975879192352295}},"cellActivationHidden":{"rows":20,"columns":20,"weights":{"0":1.8310084342956543,"1":-2.5503504276275635,"2":-0.9898435473442078,"3":0.6266430616378784,"4":4.660970687866211,"5":-1.7770798206329346,"6":1.671265721321106,"7":0.3836926519870758,"8":3.1333084106445312,"9":-1.2682057619094849,"10":-1.860990285873413,"11":-1.3091884851455688,"12":1.877677321434021,"13":-1.2426177263259888,"14":3.675863027572632,"15":-0.21075360476970673,"16":-1.4689650535583496,"17":2.6902551651000977,"18":2.8346428871154785,"19":3.050536632537842,"20":0.1848059594631195,"21":-0.17400874197483063,"22":1.4422762393951416,"23":-0.39561042189598083,"24":-0.7437483668327332,"25":0.11441183090209961,"26":-0.9104148745536804,"27":0.5192750692367554,"28":1.3797489404678345,"29":-1.4024468660354614,"30":-0.5048509240150452,"31":-0.07848858833312988,"32":1.672928810119629,"33":-0.041487112641334534,"34":0.31820520758628845,"35":-1.010498046875,"36":0.9440504908561707,"37":-0.34537097811698914,"38":-1.0000100135803223,"39":0.9339526891708374,"40":-2.658818483352661,"41":1.1672685146331787,"42":-2.396847724914551,"43":0.9929094910621643,"44":0.15745976567268372,"45":1.442254662513733,"46":2.765273332595825,"47":1.0252009630203247,"48":0.14500461518764496,"49":0.4304773509502411,"50":0.8892771005630493,"51":0.12996500730514526,"52":1.627678394317627,"53":0.7202688455581665,"54":1.8182432651519775,"55":3.0131542682647705,"56":-0.611339807510376,"57":1.778623342514038,"58":-0.17973855137825012,"59":0.2824026048183441,"60":-2.8662781715393066,"61":1.901049256324768,"62":3.7208926677703857,"63":-2.0537056922912598,"64":-3.5193088054656982,"65":-3.5250749588012695,"66":-0.8923919200897217,"67":-0.6023992300033569,"68":-0.6434262990951538,"69":1.3067694902420044,"70":2.7294797897338867,"71":0.5277149081230164,"72":-1.731963872909546,"73":-0.5621439218521118,"74":-1.7856545448303223,"75":1.3442047834396362,"76":0.5787073373794556,"77":-1.1815646886825562,"78":-1.8108433485031128,"79":-2.3332455158233643,"80":2.1316006183624268,"81":-0.6903144121170044,"82":-2.0568084716796875,"83":-2.5598881244659424,"84":-0.3525484502315521,"85":-0.8684993386268616,"86":2.5140538215637207,"87":2.001591205596924,"88":1.069045901298523,"89":2.086963653564453,"90":-2.471463680267334,"91":0.5783370137214661,"92":1.7754510641098022,"93":0.8560124039649963,"94":2.6620960235595703,"95":0.8168783783912659,"96":-2.2498886585235596,"97":0.26032769680023193,"98":1.5136438608169556,"99":1.2866610288619995,"100":-2.221907615661621,"101":0.4885042905807495,"102":-2.033538818359375,"103":0.14710715413093567,"104":0.7189552187919617,"105":0.41874048113822937,"106":0.20599886775016785,"107":-0.2201669067144394,"108":-1.0796291828155518,"109":-2.311674118041992,"110":0.5530077219009399,"111":0.20622707903385162,"112":0.4735526740550995,"113":-1.199156641960144,"114":0.8628334403038025,"115":-0.81026291847229,"116":-1.384806513786316,"117":-1.5353481769561768,"118":0.31245526671409607,"119":-0.1683734506368637,"120":1.7708548307418823,"121":0.7649140954017639,"122":0.4915978014469147,"123":-1.2283960580825806,"124":-0.6411418914794922,"125":0.1417706459760666,"126":0.4498669505119324,"127":0.017728770151734352,"128":1.601878046989441,"129":0.3196623623371124,"130":-0.2817656099796295,"131":1.1165597438812256,"132":-1.050301432609558,"133":-0.15516789257526398,"134":-0.25017398595809937,"135":1.029740333557129,"136":0.5757650136947632,"137":-0.6844549775123596,"138":0.6698437929153442,"139":0.6220883727073669,"140":0.30925726890563965,"141":0.07985948026180267,"142":-4.841864585876465,"143":-2.6217963695526123,"144":-3.945950984954834,"145":-4.801807880401611,"146":1.2760027647018433,"147":0.6397501826286316,"148":1.0438584089279175,"149":2.6059348583221436,"150":-1.09231698513031,"151":1.6135085821151733,"152":-2.6994681358337402,"153":2.447946548461914,"154":-1.618530511856079,"155":3.178633689880371,"156":1.7898344993591309,"157":1.6871432065963745,"158":0.7746937870979309,"159":-0.9022257328033447,"160":2.415316343307495,"161":-1.4744789600372314,"162":0.12303676456212997,"163":-1.4516992568969727,"164":0.45301544666290283,"165":0.384941428899765,"166":1.7186756134033203,"167":1.5652507543563843,"168":-1.107179880142212,"169":-0.19945558905601501,"170":-0.746600329875946,"171":0.19455966353416443,"172":-0.5015605688095093,"173":-0.06188981980085373,"174":2.4807727336883545,"175":0.3799714148044586,"176":-0.6869163513183594,"177":1.7771258354187012,"178":0.5361199378967285,"179":0.0838581770658493,"180":-1.7445683479309082,"181":3.2195918560028076,"182":3.0109071731567383,"183":-1.2364689111709595,"184":-2.7854034900665283,"185":-2.701052665710449,"186":-3.1992123126983643,"187":-1.0550774335861206,"188":3.8096742630004883,"189":-2.313166856765747,"190":0.8819926977157593,"191":0.627907931804657,"192":0.8704653978347778,"193":-1.8042690753936768,"194":-1.7844750881195068,"195":-1.109119176864624,"196":1.6094765663146973,"197":-2.5879762172698975,"198":-2.3691000938415527,"199":0.7154227495193481,"200":-3.197359085083008,"201":0.019322345033288002,"202":0.8513748049736023,"203":0.2472096085548401,"204":0.6899440288543701,"205":0.3569315969944,"206":-0.7437870502471924,"207":-1.4312278032302856,"208":-0.30497729778289795,"209":-1.3701183795928955,"210":0.2598147392272949,"211":-0.1927933692932129,"212":-0.5855669379234314,"213":-0.7974015474319458,"214":-3.777883291244507,"215":-0.6879511475563049,"216":0.9817390441894531,"217":-0.3297925293445587,"218":-1.5654165744781494,"219":-7.257772445678711,"220":1.6549632549285889,"221":1.0873801708221436,"222":0.21294942498207092,"223":2.451087474822998,"224":0.0016276485985144973,"225":1.3217501640319824,"226":-0.652238130569458,"227":-1.0151033401489258,"228":-1.1968560218811035,"229":-0.8930934071540833,"230":-1.75265634059906,"231":-1.5900124311447144,"232":0.9869522452354431,"233":0.0956583172082901,"234":-1.1484971046447754,"235":0.30136463046073914,"236":-0.41204285621643066,"237":-0.4874379634857178,"238":-0.6757134795188904,"239":-0.18028438091278076,"240":-1.131126046180725,"241":0.6258351802825928,"242":1.6863806247711182,"243":1.7038050889968872,"244":1.159237027168274,"245":0.19301864504814148,"246":0.6538209319114685,"247":-1.7199299335479736,"248":-0.949483335018158,"249":-0.836516261100769,"250":-1.4709073305130005,"251":-0.8916810750961304,"252":-2.305070638656616,"253":-1.3720744848251343,"254":-0.18161766231060028,"255":1.0884259939193726,"256":3.5183379650115967,"257":-0.41746488213539124,"258":-0.48159122467041016,"259":-0.6076663732528687,"260":-1.9354194402694702,"261":2.790252923965454,"262":2.217724084854126,"263":-0.24806305766105652,"264":-1.0045356750488281,"265":-2.4575729370117188,"266":-2.598318338394165,"267":-1.1193841695785522,"268":1.7502305507659912,"269":-0.6509984135627747,"270":0.9427350163459778,"271":1.331529140472412,"272":1.159034252166748,"273":-1.0239012241363525,"274":-1.4536657333374023,"275":-0.7789488434791565,"276":1.381748914718628,"277":-1.6581295728683472,"278":-1.5351799726486206,"279":0.6147659420967102,"280":0.5378433465957642,"281":0.7944537997245789,"282":0.6302312612533569,"283":-1.368042230606079,"284":-1.0333126783370972,"285":-1.2470006942749023,"286":-1.2601500749588013,"287":1.0097999572753906,"288":0.5445559620857239,"289":1.5522648096084595,"290":-1.150103211402893,"291":0.21094682812690735,"292":-2.7479820251464844,"293":1.2413623332977295,"294":-2.1933650970458984,"295":0.8238183856010437,"296":-0.643490195274353,"297":1.0212332010269165,"298":-1.1760181188583374,"299":-0.643437385559082,"300":-0.24154861271381378,"301":0.4470020830631256,"302":-1.3846427202224731,"303":-1.637561559677124,"304":0.5192654132843018,"305":0.2164808213710785,"306":1.706918478012085,"307":0.6912149786949158,"308":0.8926686644554138,"309":0.8307749032974243,"310":-0.41838812828063965,"311":-0.202607661485672,"312":1.9848922491073608,"313":0.5582882761955261,"314":-1.032153844833374,"315":-0.9155340790748596,"316":-0.27511483430862427,"317":-0.014025582931935787,"318":1.1243776082992554,"319":0.3829590380191803,"320":-0.8150652647018433,"321":-2.486196279525757,"322":1.1003754138946533,"323":0.9433014392852783,"324":-0.8444367051124573,"325":-1.253654956817627,"326":-1.470232367515564,"327":0.13036417961120605,"328":-0.48893794417381287,"329":0.5919052958488464,"330":-0.45628708600997925,"331":-0.7381075620651245,"332":-0.5151625871658325,"333":1.276350736618042,"334":0.5311033725738525,"335":0.9524371027946472,"336":0.8261076211929321,"337":-1.8704293966293335,"338":-0.5212634205818176,"339":0.14759528636932373,"340":0.5738726854324341,"341":2.5216000080108643,"342":-1.331527829170227,"343":-0.23331239819526672,"344":-0.16317687928676605,"345":1.456955075263977,"346":1.0380483865737915,"347":-0.5655167698860168,"348":0.5515052676200867,"349":-1.1207973957061768,"350":-0.35246363282203674,"351":0.703099250793457,"352":3.5481350421905518,"353":0.38428249955177307,"354":0.95967036485672,"355":-0.6480948328971863,"356":-1.0635759830474854,"357":0.4327680468559265,"358":2.8129398822784424,"359":0.06781711429357529,"360":1.8185408115386963,"361":1.7608901262283325,"362":-3.0876970291137695,"363":0.8625265955924988,"364":0.4123808443546295,"365":0.41944095492362976,"366":0.8939545750617981,"367":0.13944467902183533,"368":-0.5996713042259216,"369":-0.25218138098716736,"370":0.29326218366622925,"371":-0.5924826860427856,"372":-3.185161590576172,"373":0.06970575451850891,"374":-0.7312105894088745,"375":0.0013677565148100257,"376":0.32700440287590027,"377":-0.8204206228256226,"378":-1.2294408082962036,"379":1.8848565816879272,"380":0.8193293213844299,"381":0.482540100812912,"382":2.8852529525756836,"383":-0.9713518023490906,"384":-0.5316075682640076,"385":1.538062572479248,"386":0.04516441002488136,"387":0.5577236413955688,"388":3.5078728199005127,"389":-1.1966081857681274,"390":0.8464605212211609,"391":-0.6826162934303284,"392":0.10288622230291367,"393":-1.0899163484573364,"394":2.0226335525512695,"395":-0.6154136061668396,"396":-0.19822145998477936,"397":2.1374423503875732,"398":0.39556625485420227,"399":2.72011399269104}},"cellActivationBias":{"rows":20,"columns":1,"weights":{"0":-1.2657043933868408,"1":-0.5329959392547607,"2":0.8676251173019409,"3":0.37805745005607605,"4":-0.9265136122703552,"5":0.6524356007575989,"6":-1.0718388557434082,"7":1.1203840970993042,"8":-0.02621731534600258,"9":-1.172582983970642,"10":0.38062652945518494,"11":-0.387317419052124,"12":-1.6201940774917603,"13":-0.4823467433452606,"14":-1.2550580501556396,"15":0.2993462383747101,"16":-0.5647864937782288,"17":-1.1726362705230713,"18":-0.5849909782409668,"19":-0.9027606248855591}}},{"inputMatrix":{"rows":20,"columns":20,"weights":{"0":-2.8980045318603516,"1":0.6790232062339783,"2":1.6818722486495972,"3":-2.3591248989105225,"4":3.1999449729919434,"5":-1.9191336631774902,"6":3.7938053607940674,"7":5.31146764755249,"8":-5.459286212921143,"9":2.5450339317321777,"10":2.5166099071502686,"11":1.154876947402954,"12":-2.368793249130249,"13":1.5599600076675415,"14":0.002856610110029578,"15":2.387587070465088,"16":1.9536330699920654,"17":-3.1310160160064697,"18":-0.2944265305995941,"19":-1.0573081970214844,"20":-2.650377035140991,"21":0.5044424533843994,"22":4.9614057540893555,"23":-0.9029853940010071,"24":-2.8766839504241943,"25":-1.9862555265426636,"26":-2.5055947303771973,"27":0.7137530446052551,"28":3.686044216156006,"29":1.0055068731307983,"30":2.5528595447540283,"31":1.8308898210525513,"32":-0.9270285964012146,"33":-2.789606809616089,"34":-0.6960959434509277,"35":2.841832399368286,"36":4.685000419616699,"37":-2.8767495155334473,"38":-3.390793561935425,"39":-0.15633033215999603,"40":2.852067708969116,"41":-3.1701319217681885,"42":0.6885433197021484,"43":-0.9595474600791931,"44":-0.6643415689468384,"45":1.283003807067871,"46":-2.07393479347229,"47":0.11934123188257217,"48":-0.5404781699180603,"49":1.4848897457122803,"50":0.017715195193886757,"51":0.988092303276062,"52":1.769397497177124,"53":-0.6784446835517883,"54":1.7912582159042358,"55":-1.0200879573822021,"56":-0.38178423047065735,"57":1.0824462175369263,"58":1.793908715248108,"59":-0.13063868880271912,"60":0.9254443645477295,"61":-1.9268611669540405,"62":-1.452670693397522,"63":3.827291488647461,"64":0.8932062983512878,"65":0.6633129715919495,"66":-1.8533521890640259,"67":-1.2804311513900757,"68":-1.7559072971343994,"69":-0.4958159029483795,"70":-0.18533948063850403,"71":1.0095854997634888,"72":0.8897996544837952,"73":0.8549087047576904,"74":0.13780850172042847,"75":-3.716352701187134,"76":-1.7182672023773193,"77":4.097257137298584,"78":-0.4385654330253601,"79":-2.0077383518218994,"80":1.4600456953048706,"81":2.7676384449005127,"82":0.328274130821228,"83":-2.278940200805664,"84":2.3557286262512207,"85":0.22021858394145966,"86":0.861702561378479,"87":-0.20247016847133636,"88":2.7045719623565674,"89":-2.6491355895996094,"90":0.8358529806137085,"91":-1.3190867900848389,"92":-0.19335730373859406,"93":-3.157226800918579,"94":-1.3353922367095947,"95":-0.4431665241718292,"96":1.1226273775100708,"97":0.6667854189872742,"98":0.6594442129135132,"99":1.3325116634368896,"100":-1.8564205169677734,"101":1.828890323638916,"102":1.8608204126358032,"103":2.53924822807312,"104":0.24829789996147156,"105":-1.1700069904327393,"106":-1.23247230052948,"107":-0.7889109253883362,"108":0.3408983647823334,"109":0.3471430242061615,"110":0.9126995801925659,"111":-1.8845783472061157,"112":1.3019053936004639,"113":-2.5879085063934326,"114":-0.39357662200927734,"115":-3.4547247886657715,"116":-1.0324715375900269,"117":4.206105709075928,"118":-1.713173508644104,"119":-0.7123116850852966,"120":-1.647600769996643,"121":0.7751854658126831,"122":2.5354158878326416,"123":1.1019868850708008,"124":-1.00681471824646,"125":-0.3308163285255432,"126":-1.5044816732406616,"127":1.5820492506027222,"128":3.0527820587158203,"129":2.501364231109619,"130":4.2471089363098145,"131":-0.7892250418663025,"132":-1.2661855220794678,"133":-3.356759786605835,"134":-4.106350898742676,"135":-1.4571880102157593,"136":5.1477251052856445,"137":-1.5755351781845093,"138":3.3196158409118652,"139":1.4018601179122925,"140":-3.5830342769622803,"141":3.3683438301086426,"142":0.2478845715522766,"143":-0.8435783982276917,"144":-2.850006580352783,"145":0.372856467962265,"146":3.125741720199585,"147":-1.1612331867218018,"148":1.4299417734146118,"149":-0.9162580370903015,"150":0.7930798530578613,"151":-4.898140907287598,"152":-1.512798547744751,"153":2.784653902053833,"154":1.227919101715088,"155":0.8232623934745789,"156":-0.7020625472068787,"157":-0.12480790913105011,"158":1.5462400913238525,"159":-2.424619197845459,"160":4.044522285461426,"161":2.9319911003112793,"162":2.1291861534118652,"163":-2.165917158126831,"164":-2.015171766281128,"165":-3.4771790504455566,"166":-0.7472250461578369,"167":-0.3955320715904236,"168":1.350903868675232,"169":3.1372153759002686,"170":-1.0522812604904175,"171":-0.27134934067726135,"172":-3.970782518386841,"173":-1.9890085458755493,"174":-0.19057229161262512,"175":3.3903589248657227,"176":3.1754775047302246,"177":-2.720773458480835,"178":-2.321592092514038,"179":-1.5702660083770752,"180":3.209606647491455,"181":2.242321491241455,"182":2.1713054180145264,"183":-0.002342536114156246,"184":0.6404770612716675,"185":-3.122434616088867,"186":-0.7860381603240967,"187":0.022348569706082344,"188":4.894567012786865,"189":0.8851280212402344,"190":-0.7088686227798462,"191":-0.7705129981040955,"192":-2.3336527347564697,"193":0.9086991548538208,"194":0.7881309390068054,"195":-3.386239767074585,"196":-1.2798601388931274,"197":0.7496204376220703,"198":-3.697620391845703,"199":3.262995958328247,"200":1.4280866384506226,"201":0.8938577175140381,"202":-3.163163423538208,"203":2.0287423133850098,"204":1.9050068855285645,"205":0.5503843426704407,"206":-0.7496462464332581,"207":0.5490647554397583,"208":0.16300253570079803,"209":1.3022146224975586,"210":-3.1462020874023438,"211":0.031282998621463776,"212":-0.25604113936424255,"213":1.4605846405029297,"214":-0.05243997275829315,"215":3.2506794929504395,"216":-2.3337152004241943,"217":2.1644039154052734,"218":-1.2227338552474976,"219":-1.3761149644851685,"220":-2.8522391319274902,"221":0.6820032596588135,"222":3.162938117980957,"223":-4.053805828094482,"224":-2.651034116744995,"225":0.7098010778427124,"226":1.4193423986434937,"227":1.2764098644256592,"228":3.507059097290039,"229":4.506457805633545,"230":-3.6326756477355957,"231":-1.1303236484527588,"232":1.6441395282745361,"233":-2.731215476989746,"234":-1.5528111457824707,"235":-1.5299724340438843,"236":1.7195324897766113,"237":-3.0503861904144287,"238":-3.661806344985962,"239":-1.5016909837722778,"240":1.3715077638626099,"241":-0.6135776042938232,"242":0.11001822352409363,"243":-2.802008867263794,"244":-0.8103600144386292,"245":-4.584176063537598,"246":4.624560356140137,"247":-0.11828494071960449,"248":0.180613175034523,"249":3.909442186355591,"250":-0.10070827603340149,"251":-2.5898125171661377,"252":-3.6313436031341553,"253":0.14361543953418732,"254":1.234969139099121,"255":1.6002675294876099,"256":-1.722388505935669,"257":1.964111328125,"258":0.41200149059295654,"259":-1.1757065057754517,"260":2.4015300273895264,"261":2.51696515083313,"262":-0.4718119204044342,"263":-4.715880870819092,"264":-0.8687151074409485,"265":2.257521629333496,"266":2.7330515384674072,"267":0.727091372013092,"268":-0.24268712103366852,"269":-1.4400548934936523,"270":-0.39649027585983276,"271":4.000275611877441,"272":-1.3743507862091064,"273":-0.6667423844337463,"274":-1.1060587167739868,"275":-1.2830919027328491,"276":-0.4787845313549042,"277":-0.7815414667129517,"278":-1.268662929534912,"279":1.8062679767608643,"280":-1.4456003904342651,"281":3.2174196243286133,"282":2.021817684173584,"283":0.8273226618766785,"284":-1.4870741367340088,"285":-0.21188940107822418,"286":-5.343188762664795,"287":-1.8392351865768433,"288":-0.813031017780304,"289":-3.735856294631958,"290":0.7087462544441223,"291":-0.7340281009674072,"292":-3.7608444690704346,"293":-0.4401985704898834,"294":-1.7535837888717651,"295":-3.4235382080078125,"296":1.2974472045898438,"297":-2.2318639755249023,"298":-3.080674171447754,"299":-1.0279027223587036,"300":-5.3880414962768555,"301":1.903185486793518,"302":3.846324920654297,"303":3.108822822570801,"304":5.167612552642822,"305":-0.30194807052612305,"306":0.7573206424713135,"307":0.8672906756401062,"308":1.3964136838912964,"309":-0.49132847785949707,"310":2.778383493423462,"311":2.019258737564087,"312":-3.458019495010376,"313":0.790023148059845,"314":0.9574914574623108,"315":-6.917769432067871,"316":-0.8444622159004211,"317":0.30416157841682434,"318":3.6286890506744385,"319":-1.549263834953308,"320":1.0721313953399658,"321":5.461930751800537,"322":1.4019209146499634,"323":-0.8195628523826599,"324":-3.046816349029541,"325":2.4790821075439453,"326":-0.9727193117141724,"327":0.06599822640419006,"328":4.589316368103027,"329":-2.525569438934326,"330":-1.8623688220977783,"331":1.1919689178466797,"332":1.0232858657836914,"333":-5.045599937438965,"334":-0.7600154876708984,"335":-1.66619074344635,"336":-1.1830579042434692,"337":-0.20583310723304749,"338":0.5472143292427063,"339":-0.8381125330924988,"340":-1.1291546821594238,"341":-1.5802414417266846,"342":0.5580491423606873,"343":0.8335721492767334,"344":1.7062770128250122,"345":-1.958539366722107,"346":-1.0018689632415771,"347":0.5072901844978333,"348":3.1407344341278076,"349":2.8980791568756104,"350":-3.1292831897735596,"351":1.897212266921997,"352":5.484572887420654,"353":0.9223054051399231,"354":-0.3543514311313629,"355":-3.312086343765259,"356":-3.507124900817871,"357":0.05062675103545189,"358":0.23006151616573334,"359":-2.1901254653930664,"360":-0.6643160581588745,"361":1.8590742349624634,"362":0.23867939412593842,"363":-5.332722187042236,"364":-2.8018100261688232,"365":1.0066921710968018,"366":-1.5211848020553589,"367":-1.9490742683410645,"368":-2.2579469680786133,"369":-0.6718274354934692,"370":1.8910473585128784,"371":0.03619435802102089,"372":-0.805587887763977,"373":-4.055149078369141,"374":-2.3057682514190674,"375":-3.6850719451904297,"376":-1.4532209634780884,"377":-3.014586925506592,"378":-1.2808126211166382,"379":-1.4154528379440308,"380":1.687300205230713,"381":-4.775271892547607,"382":-0.7022179365158081,"383":0.5292792320251465,"384":-1.153519630432129,"385":1.645904541015625,"386":0.5446866750717163,"387":-4.721104621887207,"388":0.3625955283641815,"389":2.3432822227478027,"390":-1.6029249429702759,"391":-1.0092726945877075,"392":-3.528172254562378,"393":-1.7893943786621094,"394":-0.7737886905670166,"395":-1.1956291198730469,"396":-4.046570777893066,"397":3.27005672454834,"398":2.6562600135803223,"399":-0.9976168870925903}},"inputHidden":{"rows":20,"columns":20,"weights":{"0":1.0865864753723145,"1":0.5038048028945923,"2":1.4583889245986938,"3":-2.877980947494507,"4":-3.6244091987609863,"5":1.3854924440383911,"6":-2.983706474304199,"7":-5.181849002838135,"8":-1.5191620588302612,"9":3.393671989440918,"10":-1.3782974481582642,"11":0.9877776503562927,"12":-1.9736322164535522,"13":-0.0968310758471489,"14":-4.099546432495117,"15":-0.16124582290649414,"16":0.12189499288797379,"17":1.501778483390808,"18":3.2617075443267822,"19":4.324094295501709,"20":-0.06140867993235588,"21":-2.3695366382598877,"22":-3.0198073387145996,"23":-3.3619308471679688,"24":-0.3497851490974426,"25":0.6195327639579773,"26":5.674652099609375,"27":-1.6794902086257935,"28":-2.2907326221466064,"29":1.296439290046692,"30":0.23389816284179688,"31":1.1344428062438965,"32":1.280981421470642,"33":-3.204848289489746,"34":-2.7122366428375244,"35":-4.149643421173096,"36":4.223365306854248,"37":-0.7671436667442322,"38":1.572226643562317,"39":-0.5764136910438538,"40":1.3607426881790161,"41":1.8735636472702026,"42":2.461749792098999,"43":4.145013332366943,"44":1.637463092803955,"45":4.100890636444092,"46":-0.07436278462409973,"47":-3.38317608833313,"48":-2.573167324066162,"49":6.072384834289551,"50":2.6428563594818115,"51":0.15593159198760986,"52":-0.8048967123031616,"53":7.297062873840332,"54":-2.1263020038604736,"55":2.202073335647583,"56":-0.1862741857767105,"57":3.084322214126587,"58":1.0553282499313354,"59":0.7933297753334045,"60":0.4732034504413605,"61":2.691657543182373,"62":0.10853913426399231,"63":5.380763053894043,"64":-0.686525285243988,"65":0.10461891442537308,"66":0.36530962586402893,"67":-3.8068325519561768,"68":-0.2183011919260025,"69":-1.0441546440124512,"70":0.4282380938529968,"71":-0.29346880316734314,"72":0.8044995665550232,"73":3.7945799827575684,"74":-6.114248275756836,"75":0.014955734834074974,"76":-2.2859079837799072,"77":0.7731520533561707,"78":3.8113551139831543,"79":-1.6083526611328125,"80":0.6257389783859253,"81":-3.29488205909729,"82":-1.4646552801132202,"83":-0.7735331654548645,"84":5.118142604827881,"85":-3.1798834800720215,"86":0.7926717400550842,"87":1.1855984926223755,"88":1.2114017009735107,"89":-1.8244656324386597,"90":-3.4460902214050293,"91":1.2596570253372192,"92":2.96305513381958,"93":-2.172666311264038,"94":-0.4382895231246948,"95":-4.009840488433838,"96":-1.7101068496704102,"97":-5.240262508392334,"98":-0.1947694569826126,"99":3.2634809017181396,"100":0.4617789089679718,"101":-3.4058923721313477,"102":-3.8984997272491455,"103":3.711151599884033,"104":-0.07976554334163666,"105":-1.852318286895752,"106":-2.057487964630127,"107":1.93699049949646,"108":0.40579983592033386,"109":-2.2874338626861572,"110":-1.308201551437378,"111":-1.2774499654769897,"112":3.4737823009490967,"113":-2.8379247188568115,"114":-2.983407497406006,"115":-1.3445590734481812,"116":-2.7881033420562744,"117":-2.5199601650238037,"118":-2.5317492485046387,"119":-3.28595232963562,"120":-0.879993736743927,"121":1.4475595951080322,"122":1.8764420747756958,"123":-5.656047344207764,"124":2.3039722442626953,"125":0.7375690937042236,"126":-2.514814615249634,"127":-1.3178138732910156,"128":2.4438977241516113,"129":-1.3855526447296143,"130":-2.8418099880218506,"131":2.3592753410339355,"132":-1.062893271446228,"133":0.3162345886230469,"134":-2.5389366149902344,"135":-1.963621735572815,"136":0.2874200642108917,"137":-0.2926959991455078,"138":3.690979242324829,"139":1.0406990051269531,"140":0.36702024936676025,"141":-1.6971431970596313,"142":-2.0312225818634033,"143":4.404747009277344,"144":-0.03530626371502876,"145":-0.8535134196281433,"146":3.366809844970703,"147":2.492607831954956,"148":2.569991111755371,"149":-1.1662695407867432,"150":-2.4950554370880127,"151":-2.0315358638763428,"152":-0.18279366195201874,"153":1.1976487636566162,"154":-3.073270797729492,"155":2.2167246341705322,"156":-2.9012835025787354,"157":-3.1334896087646484,"158":0.10688256472349167,"159":2.716071605682373,"160":-2.3974742889404297,"161":-2.089648485183716,"162":0.9140928387641907,"163":0.44913238286972046,"164":-3.0824811458587646,"165":0.9228097200393677,"166":1.2182598114013672,"167":-0.7750221490859985,"168":-1.7089763879776,"169":2.441509485244751,"170":1.1350165605545044,"171":0.44343626499176025,"172":2.8230981826782227,"173":1.8607813119888306,"174":3.4650139808654785,"175":3.571129083633423,"176":2.4701619148254395,"177":1.6323065757751465,"178":0.017855243757367134,"179":-0.7472041845321655,"180":-2.124995470046997,"181":-3.9447593688964844,"182":1.3956786394119263,"183":0.38890528678894043,"184":0.8248323202133179,"185":-2.021028757095337,"186":-0.41485118865966797,"187":1.2107949256896973,"188":-5.955898284912109,"189":0.02552272006869316,"190":-2.0913329124450684,"191":-1.25275456905365,"192":0.9029402136802673,"193":8.635193824768066,"194":0.35542604327201843,"195":-4.063019275665283,"196":-1.233657956123352,"197":-2.346999406814575,"198":0.39252525568008423,"199":-1.7004854679107666,"200":1.9850232601165771,"201":0.5850363969802856,"202":1.143494725227356,"203":3.0268120765686035,"204":3.1520965099334717,"205":-0.7681633234024048,"206":-2.08972430229187,"207":-1.4627430438995361,"208":2.390366315841675,"209":1.1554362773895264,"210":0.9789665937423706,"211":-1.3869495391845703,"212":-3.4131968021392822,"213":0.8783611059188843,"214":1.879443645477295,"215":9.239022254943848,"216":1.1674165725708008,"217":-5.842857360839844,"218":-0.6497130990028381,"219":-4.126607894897461,"220":0.5713391900062561,"221":-0.008020513691008091,"222":-2.0328292846679688,"223":2.3574588298797607,"224":0.6726729273796082,"225":3.2961738109588623,"226":5.252674102783203,"227":-0.05397530272603035,"228":-1.0086250305175781,"229":-0.07411079108715057,"230":0.21703846752643585,"231":-4.386218547821045,"232":4.271482467651367,"233":1.1673614978790283,"234":-0.7613866329193115,"235":1.56841242313385,"236":1.3072203397750854,"237":-3.4117543697357178,"238":0.3378885090351105,"239":3.3526737689971924,"240":-1.3867006301879883,"241":-2.2653980255126953,"242":3.3456337451934814,"243":1.763209581375122,"244":1.5253649950027466,"245":1.7671093940734863,"246":4.57005500793457,"247":0.709431529045105,"248":-2.559455156326294,"249":2.828986167907715,"250":3.1353437900543213,"251":1.2515583038330078,"252":2.3789196014404297,"253":0.810630738735199,"254":-1.0440057516098022,"255":2.368795394897461,"256":1.4251171350479126,"257":-1.0172656774520874,"258":-2.504063844680786,"259":3.225649118423462,"260":4.2002434730529785,"261":1.320304274559021,"262":-3.750352621078491,"263":-4.880820274353027,"264":2.440605401992798,"265":-4.581333637237549,"266":1.2798399925231934,"267":-0.95171719789505,"268":-3.912874937057495,"269":0.4578607380390167,"270":1.8678165674209595,"271":-0.8102221488952637,"272":1.2763140201568604,"273":0.13260518014431,"274":2.979968786239624,"275":-4.31471586227417,"276":0.5334094762802124,"277":0.8662430644035339,"278":0.5150818228721619,"279":0.7917780876159668,"280":-1.8659186363220215,"281":-0.2634219527244568,"282":-2.055171251296997,"283":-1.5492225885391235,"284":-1.0796781778335571,"285":-1.562287449836731,"286":2.4829695224761963,"287":-3.283041000366211,"288":0.22981740534305573,"289":2.6640563011169434,"290":1.2345527410507202,"291":4.046149253845215,"292":1.5477875471115112,"293":2.624826669692993,"294":-3.3725156784057617,"295":0.474754273891449,"296":2.5633857250213623,"297":1.2449432611465454,"298":-0.7451085448265076,"299":1.2547411918640137,"300":2.052276372909546,"301":0.44899630546569824,"302":2.555262804031372,"303":-1.4801536798477173,"304":-1.3017265796661377,"305":-1.067474365234375,"306":-1.703781247138977,"307":1.6869730949401855,"308":3.4671010971069336,"309":-1.3827682733535767,"310":-2.6912801265716553,"311":2.5952258110046387,"312":-0.08736206591129303,"313":-0.025522923097014427,"314":-1.1949855089187622,"315":2.978940486907959,"316":-1.0016812086105347,"317":0.6093061566352844,"318":3.3087637424468994,"319":-2.351177453994751,"320":1.868206262588501,"321":6.364035606384277,"322":1.6645976305007935,"323":2.597454786300659,"324":-1.4783012866973877,"325":-1.2762724161148071,"326":0.517859935760498,"327":2.3594088554382324,"328":-1.670577883720398,"329":-2.4417831897735596,"330":-2.5105767250061035,"331":3.587528705596924,"332":1.6181352138519287,"333":3.516162395477295,"334":0.3743111491203308,"335":2.1375036239624023,"336":3.595531463623047,"337":2.0787205696105957,"338":2.1768739223480225,"339":-0.5674123764038086,"340":-0.7563137412071228,"341":3.1282925605773926,"342":-3.2050881385803223,"343":-4.130108833312988,"344":-0.13487449288368225,"345":3.1198103427886963,"346":-0.20124968886375427,"347":-3.046672821044922,"348":-1.04497492313385,"349":1.0651376247406006,"350":2.138753652572632,"351":-1.6506050825119019,"352":3.0058484077453613,"353":-2.9380173683166504,"354":-1.7713985443115234,"355":-0.1703207790851593,"356":3.564966917037964,"357":1.0690616369247437,"358":2.494617223739624,"359":0.1509506106376648,"360":-0.7926974892616272,"361":0.783153235912323,"362":-2.159738063812256,"363":3.4717323780059814,"364":1.0694570541381836,"365":5.7186808586120605,"366":-0.3577618896961212,"367":-1.6450881958007812,"368":0.1453865021467209,"369":-0.2946273982524872,"370":1.7642914056777954,"371":-0.07758408784866333,"372":-1.5929900407791138,"373":0.027149958536028862,"374":-2.569673538208008,"375":1.2530972957611084,"376":0.0945819690823555,"377":5.76104736328125,"378":-1.41103196144104,"379":-3.678251266479492,"380":-3.259645462036133,"381":-0.7800229787826538,"382":1.2103394269943237,"383":4.242501258850098,"384":0.625847339630127,"385":-2.7086031436920166,"386":-0.4707936644554138,"387":3.083787441253662,"388":0.23701976239681244,"389":-2.951396942138672,"390":-5.639005184173584,"391":-0.8120447993278503,"392":-1.4818674325942993,"393":1.2765140533447266,"394":0.7580567002296448,"395":-1.3512325286865234,"396":-2.5759572982788086,"397":1.191951870918274,"398":-2.749850034713745,"399":2.0363965034484863}},"inputBias":{"rows":20,"columns":1,"weights":{"0":6.747714042663574,"1":0.019848518073558807,"2":0.5907864570617676,"3":-0.8588600158691406,"4":0.5341899394989014,"5":-3.062554359436035,"6":1.6436724662780762,"7":0.5905489921569824,"8":2.8288044929504395,"9":1.1797173023223877,"10":-4.257473468780518,"11":-0.31306955218315125,"12":-0.8245791792869568,"13":1.771113395690918,"14":2.2703654766082764,"15":0.890801191329956,"16":-0.7206836938858032,"17":3.3101556301116943,"18":0.812235414981842,"19":1.081470012664795}},"forgetMatrix":{"rows":20,"columns":20,"weights":{"0":-0.08680889755487442,"1":-0.6028861403465271,"2":1.3297268152236938,"3":-4.8061676025390625,"4":-3.236755847930908,"5":1.9562212228775024,"6":-1.4143517017364502,"7":0.7692385911941528,"8":-3.5687241554260254,"9":-0.8077701926231384,"10":3.5862209796905518,"11":-3.1170451641082764,"12":-1.7972487211227417,"13":-4.254642963409424,"14":0.09131121635437012,"15":0.9784185886383057,"16":2.092985153198242,"17":1.2914271354675293,"18":-2.5386507511138916,"19":0.1904543936252594,"20":-2.953187942504883,"21":-1.4483007192611694,"22":-0.4190443754196167,"23":0.9437493085861206,"24":-0.8556945323944092,"25":-1.9903488159179688,"26":0.45514190196990967,"27":2.3035471439361572,"28":-1.5463545322418213,"29":0.20922502875328064,"30":-0.37634071707725525,"31":4.159811973571777,"32":-1.7779598236083984,"33":0.15380872786045074,"34":-1.822999358177185,"35":1.0869930982589722,"36":1.4164350032806396,"37":-2.450775384902954,"38":-1.4663413763046265,"39":-3.344611883163452,"40":1.3001675605773926,"41":1.5138752460479736,"42":4.776427745819092,"43":0.9425399303436279,"44":-5.781960487365723,"45":-0.2252035140991211,"46":-0.6102724075317383,"47":0.5731731653213501,"48":-0.11859811097383499,"49":0.7861359715461731,"50":2.6120285987854004,"51":-0.32144126296043396,"52":0.8398112654685974,"53":-1.9247424602508545,"54":0.45301833748817444,"55":0.513221263885498,"56":3.4146835803985596,"57":-2.9861133098602295,"58":-0.3803040385246277,"59":-1.1473325490951538,"60":3.0883429050445557,"61":-1.0557726621627808,"62":1.7693454027175903,"63":-0.3712413012981415,"64":-2.2104544639587402,"65":-4.3599982261657715,"66":2.7092549800872803,"67":0.7928451895713806,"68":2.929705858230591,"69":2.6303458213806152,"70":0.2663157284259796,"71":-1.5578354597091675,"72":1.4540187120437622,"73":4.026350021362305,"74":4.547200679779053,"75":3.2161033153533936,"76":0.9277393221855164,"77":1.0007323026657104,"78":4.967568874359131,"79":0.4584469199180603,"80":-0.5622731447219849,"81":4.083272933959961,"82":1.9308301210403442,"83":-1.9359028339385986,"84":4.5257792472839355,"85":-1.1888009309768677,"86":-4.7878265380859375,"87":8.835311889648438,"88":2.2603297233581543,"89":-1.593066692352295,"90":-2.068682909011841,"91":2.438633918762207,"92":2.4258809089660645,"93":-2.1355020999908447,"94":1.2582343816757202,"95":1.3858941793441772,"96":0.6651266813278198,"97":0.8606628775596619,"98":2.216917037963867,"99":4.010126113891602,"100":-1.996538758277893,"101":-0.9514582753181458,"102":1.6712007522583008,"103":3.1926827430725098,"104":2.8164703845977783,"105":-0.10775895416736603,"106":-0.7547367811203003,"107":-3.341278553009033,"108":-0.42779815196990967,"109":-2.778510332107544,"110":2.442608118057251,"111":0.9947346448898315,"112":5.143406391143799,"113":-0.2526676654815674,"114":-3.2793033123016357,"115":2.2843971252441406,"116":0.6201496720314026,"117":-1.1885040998458862,"118":-3.671720266342163,"119":-1.3744945526123047,"120":-0.8755781054496765,"121":-4.509208679199219,"122":-0.34182366728782654,"123":1.6525150537490845,"124":1.2755935192108154,"125":1.3971657752990723,"126":0.9568719863891602,"127":-2.916269540786743,"128":-0.489888459444046,"129":0.5092859268188477,"130":1.5345860719680786,"131":1.87846040725708,"132":2.2386844158172607,"133":0.6412508487701416,"134":2.8904128074645996,"135":-0.11299518495798111,"136":0.06311933696269989,"137":0.08250787854194641,"138":1.969618320465088,"139":-1.9787439107894897,"140":-1.5718470811843872,"141":2.622234344482422,"142":0.23517486453056335,"143":0.3184616267681122,"144":0.03990396857261658,"145":0.5180160403251648,"146":1.1343915462493896,"147":-2.0175859928131104,"148":3.1279969215393066,"149":-1.2160024642944336,"150":0.2883943021297455,"151":-2.8735952377319336,"152":-0.8477974534034729,"153":1.2568613290786743,"154":0.14662490785121918,"155":-1.233301043510437,"156":-0.6619386076927185,"157":1.3026769161224365,"158":-0.5341604948043823,"159":0.22096586227416992,"160":0.6734361052513123,"161":1.4428107738494873,"162":-1.0958735942840576,"163":-2.935947895050049,"164":1.536130666732788,"165":0.9495617747306824,"166":0.8617501258850098,"167":1.6700698137283325,"168":1.821229338645935,"169":0.8036655783653259,"170":1.1057050228118896,"171":0.8392117023468018,"172":0.3297297954559326,"173":1.5031131505966187,"174":2.1636598110198975,"175":-1.9280320405960083,"176":-0.4914208650588989,"177":-0.4395551085472107,"178":0.9149218201637268,"179":0.749885618686676,"180":-2.0163464546203613,"181":-0.6158026456832886,"182":-1.553457260131836,"183":3.3708198070526123,"184":0.9119868874549866,"185":-2.9543776512145996,"186":-1.0608091354370117,"187":-3.3756728172302246,"188":-3.2444212436676025,"189":5.318619728088379,"190":-3.925570249557495,"191":0.0511188805103302,"192":0.9711704850196838,"193":-1.9602090120315552,"194":-2.4993669986724854,"195":0.39935094118118286,"196":-0.47218167781829834,"197":-0.8847060799598694,"198":-2.6371209621429443,"199":-2.078895092010498,"200":-0.9440803527832031,"201":1.2663007974624634,"202":-0.09613790363073349,"203":-3.0981316566467285,"204":-2.652883529663086,"205":-0.047717757523059845,"206":-1.3853825330734253,"207":-3.788510799407959,"208":1.322433352470398,"209":1.6139885187149048,"210":-1.7754342555999756,"211":0.3460305333137512,"212":5.1704816818237305,"213":-1.309272050857544,"214":2.1177992820739746,"215":2.226525068283081,"216":0.6785072088241577,"217":-0.7150931358337402,"218":-2.9101407527923584,"219":2.2287418842315674,"220":0.3995823562145233,"221":0.3411891758441925,"222":-3.6973533630371094,"223":0.18511594831943512,"224":-1.1336745023727417,"225":2.3878819942474365,"226":-2.1866211891174316,"227":-1.4510637521743774,"228":1.2799865007400513,"229":0.5733477473258972,"230":-2.6664721965789795,"231":3.047757625579834,"232":0.7292772531509399,"233":-1.675594449043274,"234":0.6744244694709778,"235":-0.503567099571228,"236":-3.7488861083984375,"237":2.176245927810669,"238":-0.8225803971290588,"239":-0.5997439622879028,"240":-3.087510824203491,"241":-0.18821994960308075,"242":1.7996108531951904,"243":-0.9489625096321106,"244":0.24729163944721222,"245":0.19544903934001923,"246":2.176020383834839,"247":2.8704991340637207,"248":3.714141607284546,"249":1.9808017015457153,"250":-1.3665739297866821,"251":1.1557484865188599,"252":2.093219041824341,"253":2.6425185203552246,"254":2.1480188369750977,"255":1.401450753211975,"256":0.3022216856479645,"257":-4.310999870300293,"258":-3.095799684524536,"259":-0.6767104864120483,"260":-1.6713151931762695,"261":-2.6958179473876953,"262":2.6577141284942627,"263":-0.2436220496892929,"264":0.36701998114585876,"265":1.253639578819275,"266":3.2350375652313232,"267":-0.8724170327186584,"268":1.5423933267593384,"269":1.3100090026855469,"270":2.471543073654175,"271":-0.4659331440925598,"272":-0.8661659359931946,"273":-0.11082570999860764,"274":-0.5519548654556274,"275":4.565320014953613,"276":0.6409717202186584,"277":-2.3289291858673096,"278":0.27872252464294434,"279":0.8834460973739624,"280":-3.0881400108337402,"281":2.079660654067993,"282":-1.3451656103134155,"283":0.6712959408760071,"284":-2.079207181930542,"285":-1.3404737710952759,"286":-4.662038326263428,"287":0.39308395981788635,"288":-1.746024250984192,"289":1.0578601360321045,"290":0.32140788435935974,"291":0.8426320552825928,"292":0.10658465325832367,"293":0.931265115737915,"294":-1.98094642162323,"295":0.7735002040863037,"296":1.7161922454833984,"297":-4.02206563949585,"298":-2.055950403213501,"299":-3.386732816696167,"300":-3.0498714447021484,"301":-2.571357488632202,"302":-2.7951853275299072,"303":-0.6993685364723206,"304":7.029687404632568,"305":2.9506068229675293,"306":1.8389577865600586,"307":-6.69296932220459,"308":-4.150933742523193,"309":-0.29996824264526367,"310":-1.0805106163024902,"311":4.862054824829102,"312":-2.0310347080230713,"313":-3.178779363632202,"314":-0.5731447339057922,"315":0.01769673079252243,"316":2.074153423309326,"317":-1.4370523691177368,"318":-0.7699740529060364,"319":-2.609334945678711,"320":-1.2804702520370483,"321":4.865897178649902,"322":-1.255151629447937,"323":0.1130172610282898,"324":0.7711661458015442,"325":4.212130069732666,"326":0.9134110808372498,"327":-3.164369821548462,"328":1.9223828315734863,"329":-1.7889600992202759,"330":-4.228994369506836,"331":-0.6782594323158264,"332":0.40981805324554443,"333":1.3874422311782837,"334":-3.591132164001465,"335":0.5877707004547119,"336":-3.533144235610962,"337":3.5918848514556885,"338":-2.909217596054077,"339":3.5778818130493164,"340":0.08497349172830582,"341":1.1285369396209717,"342":-3.31386137008667,"343":0.6272444128990173,"344":0.6878489851951599,"345":1.3779019117355347,"346":-0.8153483271598816,"347":-0.19782957434654236,"348":5.262388229370117,"349":1.821466326713562,"350":0.927172064781189,"351":0.7414676547050476,"352":0.8555141091346741,"353":3.183429718017578,"354":1.6342051029205322,"355":-1.7592533826828003,"356":-2.7137625217437744,"357":1.8135942220687866,"358":1.6377259492874146,"359":2.04634165763855,"360":-1.0064697265625,"361":-0.9105266332626343,"362":1.6003031730651855,"363":-1.410642147064209,"364":-2.030409336090088,"365":0.431229829788208,"366":2.1671831607818604,"367":-0.3220181167125702,"368":-0.501766562461853,"369":0.719481885433197,"370":1.7839412689208984,"371":0.3832700550556183,"372":-0.31573542952537537,"373":-1.4792985916137695,"374":1.2891722917556763,"375":1.9245679378509521,"376":-1.2273612022399902,"377":1.108931064605713,"378":0.26423895359039307,"379":1.6033445596694946,"380":-5.5661516189575195,"381":-1.0773001909255981,"382":6.043128967285156,"383":1.8737215995788574,"384":-7.877430438995361,"385":4.556718826293945,"386":0.8595676422119141,"387":1.4776057004928589,"388":0.6776300668716431,"389":1.578823447227478,"390":1.868823528289795,"391":0.17284975945949554,"392":2.6670663356781006,"393":4.006086349487305,"394":0.7496200799942017,"395":-0.18504099547863007,"396":1.4168955087661743,"397":2.1069579124450684,"398":-2.898468255996704,"399":-1.0561909675598145}},"forgetHidden":{"rows":20,"columns":20,"weights":{"0":-0.20370957255363464,"1":2.0888149738311768,"2":1.482873558998108,"3":-0.4140300154685974,"4":-0.5215493440628052,"5":-0.5832013487815857,"6":1.7669254541397095,"7":-0.7004238963127136,"8":0.036295872181653976,"9":0.5912135243415833,"10":0.020535264164209366,"11":0.6411229968070984,"12":2.7346177101135254,"13":-0.12426622956991196,"14":-6.612485885620117,"15":0.47102460265159607,"16":1.0622848272323608,"17":2.001610040664673,"18":0.007520293816924095,"19":-0.922576367855072,"20":-0.022894425317645073,"21":1.4218511581420898,"22":0.04913921654224396,"23":1.0635676383972168,"24":7.55701208114624,"25":1.6740078926086426,"26":2.4577198028564453,"27":-1.1833133697509766,"28":3.145430326461792,"29":-2.6231844425201416,"30":-1.7282161712646484,"31":-2.630737543106079,"32":-1.3881416320800781,"33":-0.8731493949890137,"34":-0.09370771050453186,"35":2.7817158699035645,"36":0.7636684775352478,"37":-0.1245303526520729,"38":3.106452465057373,"39":1.4883904457092285,"40":-2.7323546409606934,"41":-1.8849434852600098,"42":2.083096981048584,"43":-0.7189328670501709,"44":4.240124225616455,"45":1.6986610889434814,"46":-0.4504927098751068,"47":-1.3124781847000122,"48":1.011600136756897,"49":0.5310800671577454,"50":-2.1540327072143555,"51":-2.8468525409698486,"52":-1.1981532573699951,"53":0.5825706720352173,"54":1.190572738647461,"55":3.842477321624756,"56":2.178386926651001,"57":1.8006023168563843,"58":1.0471751689910889,"59":2.4581074714660645,"60":3.3989622592926025,"61":2.9859979152679443,"62":0.6125668287277222,"63":-0.8899255990982056,"64":0.6710794568061829,"65":1.2759895324707031,"66":0.14325930178165436,"67":-2.2162864208221436,"68":-1.1680586338043213,"69":1.8866318464279175,"70":-0.3840462863445282,"71":1.8164353370666504,"72":-0.4408797323703766,"73":-0.8831839561462402,"74":-1.096364974975586,"75":-0.4864276945590973,"76":2.687586545944214,"77":2.117537021636963,"78":5.510013580322266,"79":1.01922607421875,"80":1.3292951583862305,"81":-2.2872865200042725,"82":-1.1248477697372437,"83":-2.566882610321045,"84":3.3769848346710205,"85":-0.23529377579689026,"86":2.486255407333374,"87":2.0603649616241455,"88":2.7808785438537598,"89":-2.9049794673919678,"90":-3.6260452270507812,"91":-3.2246057987213135,"92":2.10557222366333,"93":-3.162475824356079,"94":3.3256003856658936,"95":0.5318124890327454,"96":1.8331729173660278,"97":-2.6772096157073975,"98":2.2115285396575928,"99":1.8624383211135864,"100":0.0006607840186916292,"101":2.22430682182312,"102":-1.3567123413085938,"103":0.964880108833313,"104":-2.826162099838257,"105":-1.0428670644760132,"106":0.4155662953853607,"107":2.9717905521392822,"108":1.3049505949020386,"109":-3.128849506378174,"110":-1.3031084537506104,"111":0.6028375625610352,"112":6.812836647033691,"113":1.4408180713653564,"114":0.39884525537490845,"115":-1.654531717300415,"116":-3.073479413986206,"117":-2.4827487468719482,"118":-0.43570196628570557,"119":3.6676909923553467,"120":-0.8858287334442139,"121":3.6514298915863037,"122":-1.4606720209121704,"123":-4.0451483726501465,"124":-0.5012991428375244,"125":-1.7028809785842896,"126":2.180882453918457,"127":0.8783077001571655,"128":-0.6479108333587646,"129":2.1541595458984375,"130":7.079715728759766,"131":-2.2281851768493652,"132":-1.5220319032669067,"133":1.9347749948501587,"134":2.2835354804992676,"135":-1.7246087789535522,"136":-0.4964905381202698,"137":3.0342631340026855,"138":-0.0883617177605629,"139":-0.6820045709609985,"140":-2.362516164779663,"141":-2.6542956829071045,"142":-0.6582893133163452,"143":-0.7070990204811096,"144":0.32776206731796265,"145":-2.926342725753784,"146":0.2228192239999771,"147":3.66532564163208,"148":1.1950163841247559,"149":-3.652595281600952,"150":-1.1572880744934082,"151":0.2859964072704315,"152":0.0713324323296547,"153":-2.243058919906616,"154":-1.9935370683670044,"155":-1.5747594833374023,"156":-4.497138977050781,"157":-2.5708765983581543,"158":-0.24355220794677734,"159":-1.0467348098754883,"160":-3.090276002883911,"161":-0.34227338433265686,"162":-0.8954374194145203,"163":1.1870083808898926,"164":-1.2370185852050781,"165":1.9610097408294678,"166":-3.6030993461608887,"167":-0.7712692022323608,"168":0.8764175176620483,"169":2.3143420219421387,"170":-3.1724159717559814,"171":-0.2271072417497635,"172":-0.35909658670425415,"173":0.9549339413642883,"174":-1.3308568000793457,"175":3.722679853439331,"176":2.6157302856445312,"177":-0.5807012915611267,"178":-0.3259977400302887,"179":3.453458070755005,"180":1.1940386295318604,"181":2.9273157119750977,"182":-1.3527792692184448,"183":-3.689035415649414,"184":-0.34499895572662354,"185":-1.5030120611190796,"186":-1.9097663164138794,"187":-0.5817526578903198,"188":-2.055971145629883,"189":-1.1519695520401,"190":-2.93255352973938,"191":-2.134161949157715,"192":7.539945125579834,"193":-0.6377788186073303,"194":0.061147600412368774,"195":-0.8006983995437622,"196":0.04344125837087631,"197":-1.2874282598495483,"198":-3.4815025329589844,"199":1.7425140142440796,"200":0.6438183188438416,"201":1.7678014039993286,"202":-0.8496034741401672,"203":2.975745916366577,"204":2.194201707839966,"205":1.9006685018539429,"206":2.0957114696502686,"207":-6.207268714904785,"208":-0.39302071928977966,"209":0.8126331567764282,"210":-0.9757981300354004,"211":2.9165756702423096,"212":-2.972858190536499,"213":-2.2391977310180664,"214":-2.0563578605651855,"215":0.9868897795677185,"216":1.6644964218139648,"217":2.1214239597320557,"218":1.7102965116500854,"219":0.24999190866947174,"220":-0.8504756689071655,"221":-2.9168007373809814,"222":-1.2079371213912964,"223":3.1085422039031982,"224":-1.700377106666565,"225":0.18177272379398346,"226":-0.08399049192667007,"227":-0.09719063341617584,"228":-2.5015392303466797,"229":1.902590274810791,"230":0.4023459553718567,"231":4.322197914123535,"232":-2.6255812644958496,"233":1.271738886833191,"234":-1.769207239151001,"235":0.40276414155960083,"236":-0.8743358254432678,"237":-0.48693326115608215,"238":0.6226863265037537,"239":0.09949523210525513,"240":-1.1373127698898315,"241":-0.07053541392087936,"242":2.0121452808380127,"243":-2.4624691009521484,"244":-4.7498064041137695,"245":1.7087464332580566,"246":2.6332366466522217,"247":-0.4482339918613434,"248":-0.46439826488494873,"249":0.6904714703559875,"250":2.7818603515625,"251":1.6840883493423462,"252":0.57856684923172,"253":1.9507354497909546,"254":0.30776357650756836,